SVM-light Version V6.02
0 # kernel type
3 # kernel parameter -d 
1 # kernel parameter -g 
1 # kernel parameter -s 
1 # kernel parameter -r 
empty# kernel parameter -u 
6 # highest feature index 
1286 # number of training documents 
957 # number of support vectors plus 1 
6.8765776 # threshold b, each following line is a SV (starting with alpha*y)
0.0010000000000000000208166817117217 1:64 2:79 3:3764 4:96 5:86 6:148 #
0.0010000000000000000208166817117217 1:68 2:71 3:3648 4:98 5:88 6:153 #
0.0010000000000000000208166817117217 1:60 2:63 3:2828 4:75 5:67 6:150 #
0.0010000000000000000208166817117217 1:76 2:87 3:4960 4:93 5:84 6:145 #
-0.0010000000000000000208166817117217 1:34 2:39 3:966 4:88 5:84 6:139 #
-0.0010000000000000000208166817117217 1:48 2:51 3:1824 4:83 5:80 6:141 #
-0.0010000000000000000208166817117217 1:58 2:63 3:2726 4:87 5:80 6:139 #
0.0010000000000000000208166817117217 1:72 2:87 3:4684 4:100 5:92 6:152 #
-0.0010000000000000000208166817117217 1:52 2:55 3:2140 4:67 5:56 6:144 #
-0.0010000000000000000208166817117217 1:74 2:89 3:4942 4:93 5:86 6:145 #
-0.0010000000000000000208166817117217 1:60 2:67 3:2988 4:80 5:67 6:139 #
0.0010000000000000000208166817117217 1:40 2:47 3:1364 4:90 5:87 6:143 #
0.0010000000000000000208166817117217 1:68 2:71 3:3648 4:93 5:84 6:150 #
-0.0010000000000000000208166817117217 1:36 2:37 3:972 4:93 5:94 6:153 #
-0.0010000000000000000208166817117217 1:86 2:101 3:6506 4:103 5:99 6:159 #
-0.0010000000000000000208166817117217 1:86 2:101 3:6506 4:103 5:99 6:159 #
-0.0010000000000000000208166817117217 1:48 2:51 3:1824 4:83 5:80 6:141 #
-0.0010000000000000000208166817117217 1:42 2:45 3:1398 4:89 5:87 6:146 #
-0.0010000000000000000208166817117217 1:44 2:47 3:1528 4:84 5:78 6:134 #
-0.0010000000000000000208166817117217 1:36 2:37 3:972 4:93 5:94 6:153 #
0.0010000000000000000208166817117217 1:76 2:87 3:4960 4:93 5:84 6:145 #
0.0010000000000000000208166817117217 1:40 2:43 3:1260 4:41 5:60 6:105 #
0.0010000000000000000208166817117217 1:48 2:55 3:1952 4:78 5:63 6:132 #
-0.0010000000000000000208166817117217 1:34 2:39 3:966 4:88 5:84 6:139 #
0.0010000000000000000208166817117217 1:40 2:43 3:1260 4:41 5:60 6:105 #
0.0010000000000000000208166817117217 1:86 2:97 3:6270 4:92 5:86 6:144 #
0.0010000000000000000208166817117217 1:36 2:37 3:972 4:95 5:80 6:153 #
0.0010000000000000000208166817117217 1:54 2:59 3:2366 4:42 5:61 6:106 #
0.0010000000000000000208166817117217 1:70 2:85 3:4470 4:93 5:84 6:145 #
0.0010000000000000000208166817117217 1:40 2:43 3:1260 4:41 5:60 6:105 #
-0.0010000000000000000208166817117217 1:60 2:63 3:2828 4:75 5:67 6:150 #
0.0010000000000000000208166817117217 1:68 2:71 3:3648 4:93 5:84 6:150 #
-0.0010000000000000000208166817117217 1:46 2:47 3:1606 4:67 5:54 6:143 #
0.0010000000000000000208166817117217 1:60 2:63 3:2828 4:50 5:69 6:113 #
-0.0010000000000000000208166817117217 1:66 2:83 3:4078 4:85 5:77 6:144 #
0.0010000000000000000208166817117217 1:50 2:61 3:2270 4:94 5:83 6:148 #
0.0010000000000000000208166817117217 1:78 2:91 3:5318 4:109 5:103 6:162 #
-0.0010000000000000000208166817117217 1:80 2:93 3:5584 4:96 5:89 6:152 #
0.0010000000000000000208166817117217 1:24 2:35 3:620 4:83 5:68 6:142 #
0.0010000000000000000208166817117217 1:80 2:95 3:5712 4:103 5:97 6:155 #
0.0010000000000000000208166817117217 1:86 2:105 3:6896 4:86 5:82 6:139 #
0.0010000000000000000208166817117217 1:64 2:79 3:3764 4:96 5:86 6:148 #
-0.0010000000000000000208166817117217 1:34 2:39 3:966 4:88 5:84 6:139 #
0.0010000000000000000208166817117217 1:92 2:99 3:6896 4:90 5:85 6:142 #
-0.0010000000000000000208166817117217 1:46 2:57 3:1934 4:80 5:67 6:134 #
0.0010000000000000000208166817117217 1:66 2:71 3:3514 4:98 5:88 6:153 #
-0.0010000000000000000208166817117217 1:60 2:73 3:3248 4:83 5:71 6:135 #
0.0010000000000000000208166817117217 1:82 2:95 3:5814 4:97 5:90 6:150 #
-0.0010000000000000000208166817117217 1:34 2:39 3:966 4:88 5:84 6:139 #
0.0010000000000000000208166817117217 1:36 2:37 3:972 4:95 5:80 6:153 #
-0.0010000000000000000208166817117217 1:50 2:53 3:1970 4:81 5:78 6:139 #
-0.0010000000000000000208166817117217 1:44 2:49 3:1584 4:86 5:75 6:141 #
0.0010000000000000000208166817117217 1:86 2:105 3:6896 4:86 5:82 6:139 #
0.0010000000000000000208166817117217 1:68 2:71 3:3648 4:93 5:84 6:150 #
0.0010000000000000000208166817117217 1:70 2:85 3:4470 4:93 5:84 6:145 #
0.0010000000000000000208166817117217 1:68 2:71 3:3648 4:98 5:88 6:153 #
0.0010000000000000000208166817117217 1:84 2:101 3:6368 4:101 5:96 6:153 #
-0.0010000000000000000208166817117217 1:86 2:101 3:6506 4:103 5:99 6:159 #
-0.0010000000000000000208166817117217 1:72 2:85 3:4584 4:87 5:79 6:145 #
-0.0010000000000000000208166817117217 1:36 2:37 3:972 4:93 5:94 6:153 #
0.0010000000000000000208166817117217 1:86 2:97 3:6270 4:92 5:86 6:144 #
0.0010000000000000000208166817117217 1:30 2:43 3:930 4:92 5:79 6:149 #
-0.0010000000000000000208166817117217 1:52 2:65 3:2496 4:81 5:68 6:134 #
0.0010000000000000000208166817117217 1:44 2:57 3:1844 4:65 5:58 6:143 #
-0.0010000000000000000208166817117217 1:60 2:73 3:3248 4:83 5:71 6:135 #
0.0010000000000000000208166817117217 1:80 2:95 3:5712 4:103 5:97 6:155 #
0.00099300284040503006277589292949415 1:52 2:55 3:2140 4:44 5:64 6:109 #
-0.0010000000000000000208166817117217 1:36 2:37 3:972 4:93 5:94 6:153 #
0.0010000000000000000208166817117217 1:28 2:33 3:664 4:87 5:84 6:146 #
-0.0010000000000000000208166817117217 1:82 2:99 3:6110 4:102 5:97 6:159 #
-0.0010000000000000000208166817117217 1:52 2:65 3:2496 4:81 5:68 6:134 #
-0.0010000000000000000208166817117217 1:46 2:57 3:1934 4:80 5:67 6:134 #
0.0010000000000000000208166817117217 1:86 2:105 3:6896 4:86 5:82 6:139 #
-0.00026478523516316006996065834933063 1:86 2:105 3:6896 4:86 5:82 6:139 #
0.0010000000000000000208166817117217 1:30 2:43 3:930 4:92 5:79 6:149 #
-0.0010000000000000000208166817117217 1:34 2:39 3:966 4:88 5:84 6:139 #
-0.0010000000000000000208166817117217 1:36 2:37 3:972 4:93 5:94 6:153 #
-0.0010000000000000000208166817117217 1:60 2:63 3:2828 4:75 5:67 6:150 #
-0.0010000000000000000208166817117217 1:50 2:53 3:1970 4:81 5:78 6:139 #
0.0010000000000000000208166817117217 1:82 2:95 3:5814 4:97 5:90 6:150 #
0.0010000000000000000208166817117217 1:24 2:35 3:620 4:83 5:68 6:142 #
0.0010000000000000000208166817117217 1:48 2:55 3:1952 4:78 5:63 6:132 #
0.0010000000000000000208166817117217 1:54 2:57 3:2434 4:58 5:76 6:120 #
-0.0010000000000000000208166817117217 1:74 2:91 3:5026 4:95 5:88 6:152 #
0.0010000000000000000208166817117217 1:92 2:105 3:7396 4:87 5:83 6:140 #
0.0010000000000000000208166817117217 1:16 2:27 3:312 4:82 5:65 6:141 #
-0.0010000000000000000208166817117217 1:60 2:67 3:2988 4:80 5:67 6:139 #
-0.0010000000000000000208166817117217 1:78 2:89 3:5194 4:92 5:84 6:143 #
0.0010000000000000000208166817117217 1:82 2:95 3:5814 4:97 5:90 6:150 #
0.0010000000000000000208166817117217 1:48 2:55 3:1952 4:88 5:84 6:140 #
-0.0010000000000000000208166817117217 1:60 2:67 3:2988 4:80 5:67 6:139 #
0.0010000000000000000208166817117217 1:80 2:97 3:5792 4:91 5:86 6:144 #
-0.0010000000000000000208166817117217 1:36 2:37 3:972 4:93 5:94 6:153 #
0.0010000000000000000208166817117217 1:24 2:35 3:620 4:83 5:68 6:142 #
0.0010000000000000000208166817117217 1:86 2:105 3:6896 4:86 5:82 6:139 #
-0.0010000000000000000208166817117217 1:56 2:59 3:2460 4:78 5:75 6:136 #
0.0010000000000000000208166817117217 1:76 2:87 3:4960 4:93 5:84 6:145 #
0.0010000000000000000208166817117217 1:58 2:63 3:2726 4:98 5:89 6:162 #
-0.0010000000000000000208166817117217 1:52 2:65 3:2496 4:81 5:68 6:134 #
-0.0010000000000000000208166817117217 1:60 2:73 3:3248 4:83 5:71 6:135 #
-0.0010000000000000000208166817117217 1:74 2:91 3:5026 4:95 5:88 6:152 #
-0.0010000000000000000208166817117217 1:48 2:51 3:1824 4:83 5:80 6:141 #
0.0010000000000000000208166817117217 1:64 2:79 3:3764 4:96 5:86 6:148 #
-0.0010000000000000000208166817117217 1:66 2:83 3:4078 4:85 5:77 6:144 #
0.0010000000000000000208166817117217 1:64 2:79 3:3764 4:96 5:86 6:148 #
-2.6166926699486739546669789024946e-05 1:46 2:47 3:1606 4:67 5:54 6:143 #
0.0010000000000000000208166817117217 1:64 2:67 3:3224 4:81 5:78 6:138 #
0.00098979474837955494503916042958735 1:52 2:55 3:2140 4:44 5:64 6:109 #
0.0010000000000000000208166817117217 1:92 2:105 3:7396 4:87 5:83 6:140 #
-0.0010000000000000000208166817117217 1:36 2:37 3:972 4:93 5:94 6:153 #
0.0010000000000000000208166817117217 1:46 2:51 3:1738 4:82 5:79 6:140 #
0.0010000000000000000208166817117217 1:76 2:87 3:4960 4:93 5:84 6:145 #
-0.0010000000000000000208166817117217 1:74 2:89 3:4942 4:93 5:86 6:145 #
0.0010000000000000000208166817117217 1:40 2:55 3:1624 4:88 5:83 6:140 #
0.0010000000000000000208166817117217 1:44 2:57 3:1844 4:65 5:58 6:143 #
-0.0010000000000000000208166817117217 1:74 2:91 3:5026 4:95 5:88 6:152 #
0.0010000000000000000208166817117217 1:82 2:95 3:5814 4:97 5:90 6:150 #
-0.0010000000000000000208166817117217 1:52 2:65 3:2496 4:81 5:68 6:134 #
0.0010000000000000000208166817117217 1:70 2:85 3:4470 4:93 5:84 6:145 #
0.0010000000000000000208166817117217 1:46 2:51 3:1738 4:82 5:79 6:140 #
-0.0010000000000000000208166817117217 1:42 2:45 3:1398 4:89 5:87 6:146 #
0.0010000000000000000208166817117217 1:70 2:85 3:4470 4:93 5:84 6:145 #
0.0010000000000000000208166817117217 1:68 2:79 3:4012 4:88 5:77 6:141 #
0.0010000000000000000208166817117217 1:86 2:97 3:6270 4:92 5:86 6:144 #
-0.0010000000000000000208166817117217 1:34 2:39 3:966 4:88 5:84 6:139 #
0.0010000000000000000208166817117217 1:66 2:71 3:3514 4:98 5:88 6:153 #
0.0010000000000000000208166817117217 1:36 2:37 3:972 4:95 5:80 6:153 #
0.0010000000000000000208166817117217 1:97 2:107 3:8051 4:86 5:82 6:139 #
0.0010000000000000000208166817117217 1:28 2:33 3:664 4:87 5:84 6:146 #
0.0010000000000000000208166817117217 1:40 2:43 3:1260 4:41 5:60 6:105 #
-0.0010000000000000000208166817117217 1:52 2:65 3:2496 4:81 5:68 6:134 #
0.0010000000000000000208166817117217 1:70 2:85 3:4470 4:93 5:84 6:145 #
0.0010000000000000000208166817117217 1:36 2:37 3:972 4:95 5:80 6:153 #
-0.0010000000000000000208166817117217 1:38 2:43 3:1190 4:90 5:90 6:148 #
-0.0010000000000000000208166817117217 1:38 2:43 3:1190 4:90 5:90 6:148 #
-0.0010000000000000000208166817117217 1:56 2:59 3:2460 4:78 5:75 6:136 #
0.0010000000000000000208166817117217 1:76 2:87 3:4960 4:93 5:84 6:145 #
-0.0010000000000000000208166817117217 1:60 2:73 3:3248 4:83 5:71 6:135 #
-0.0010000000000000000208166817117217 1:78 2:89 3:5194 4:92 5:84 6:143 #
0.0010000000000000000208166817117217 1:76 2:87 3:4960 4:93 5:84 6:145 #
-0.0010000000000000000208166817117217 1:36 2:37 3:972 4:93 5:94 6:153 #
0.0010000000000000000208166817117217 1:97 2:107 3:8051 4:86 5:82 6:139 #
-0.0010000000000000000208166817117217 1:50 2:53 3:1970 4:81 5:78 6:139 #
0.0010000000000000000208166817117217 1:28 2:33 3:664 4:87 5:84 6:146 #
-0.0010000000000000000208166817117217 1:36 2:37 3:972 4:93 5:94 6:153 #
0.0010000000000000000208166817117217 1:68 2:71 3:3648 4:93 5:84 6:150 #
-0.0010000000000000000208166817117217 1:80 2:93 3:5584 4:96 5:89 6:152 #
0.0010000000000000000208166817117217 1:76 2:87 3:4960 4:93 5:84 6:145 #
-0.0010000000000000000208166817117217 1:36 2:37 3:972 4:93 5:94 6:153 #
0.0010000000000000000208166817117217 1:68 2:71 3:3648 4:98 5:88 6:153 #
-0.0010000000000000000208166817117217 1:78 2:89 3:5194 4:92 5:84 6:143 #
-0.0010000000000000000208166817117217 1:36 2:37 3:972 4:93 5:94 6:153 #
0.0010000000000000000208166817117217 1:68 2:71 3:3648 4:98 5:88 6:153 #
-0.0010000000000000000208166817117217 1:36 2:37 3:972 4:93 5:94 6:153 #
0.0010000000000000000208166817117217 1:30 2:43 3:930 4:92 5:79 6:149 #
0.0010000000000000000208166817117217 1:48 2:55 3:1952 4:88 5:84 6:140 #
0.0010000000000000000208166817117217 1:34 2:39 3:966 4:88 5:84 6:139 #
0.0010000000000000000208166817117217 1:86 2:97 3:6270 4:92 5:86 6:144 #
-0.0010000000000000000208166817117217 1:34 2:39 3:966 4:88 5:84 6:139 #
-0.0010000000000000000208166817117217 1:58 2:63 3:2726 4:87 5:80 6:139 #
-0.0010000000000000000208166817117217 1:80 2:93 3:5584 4:96 5:89 6:152 #
0.0010000000000000000208166817117217 1:68 2:79 3:4012 4:88 5:77 6:141 #
-0.0010000000000000000208166817117217 1:52 2:65 3:2496 4:81 5:68 6:134 #
0.0010000000000000000208166817117217 1:70 2:85 3:4470 4:93 5:84 6:145 #
-0.0010000000000000000208166817117217 1:52 2:65 3:2496 4:81 5:68 6:134 #
0.0010000000000000000208166817117217 1:70 2:83 3:4330 4:105 5:96 6:157 #
-0.0010000000000000000208166817117217 1:42 2:45 3:1398 4:89 5:87 6:146 #
0.0010000000000000000208166817117217 1:97 2:107 3:8051 4:86 5:82 6:139 #
0.0010000000000000000208166817117217 1:60 2:63 3:2828 4:50 5:69 6:113 #
-0.0010000000000000000208166817117217 1:46 2:61 3:2082 4:75 5:75 6:134 #
0.0010000000000000000208166817117217 1:76 2:87 3:4960 4:93 5:84 6:145 #
-0.0010000000000000000208166817117217 1:66 2:83 3:4078 4:85 5:77 6:144 #
-0.0010000000000000000208166817117217 1:36 2:37 3:972 4:93 5:94 6:153 #
-0.0010000000000000000208166817117217 1:50 2:53 3:1970 4:81 5:78 6:139 #
0.0010000000000000000208166817117217 1:72 2:89 3:4780 4:109 5:103 6:162 #
0.0010000000000000000208166817117217 1:82 2:95 3:5814 4:97 5:90 6:150 #
-0.0010000000000000000208166817117217 1:46 2:61 3:2082 4:75 5:75 6:134 #
0.0010000000000000000208166817117217 1:92 2:105 3:7396 4:87 5:83 6:140 #
-0.0010000000000000000208166817117217 1:74 2:89 3:4942 4:93 5:86 6:145 #
-0.0010000000000000000208166817117217 1:60 2:73 3:3248 4:83 5:71 6:135 #
0.0010000000000000000208166817117217 1:70 2:85 3:4470 4:93 5:84 6:145 #
-0.0010000000000000000208166817117217 1:66 2:83 3:4078 4:85 5:77 6:144 #
-0.0010000000000000000208166817117217 1:72 2:85 3:4584 4:87 5:79 6:145 #
-0.0010000000000000000208166817117217 1:36 2:37 3:972 4:93 5:94 6:153 #
0.0010000000000000000208166817117217 1:64 2:79 3:3764 4:96 5:86 6:148 #
-4.0617114834210236648526226588274e-05 1:46 2:47 3:1606 4:67 5:54 6:143 #
-0.00099211067181342871279525752470363 1:78 2:89 3:5194 4:92 5:84 6:143 #
0.0010000000000000000208166817117217 1:92 2:99 3:6896 4:90 5:85 6:142 #
-0.0010000000000000000208166817117217 1:52 2:65 3:2496 4:81 5:68 6:134 #
0.0010000000000000000208166817117217 1:54 2:59 3:2366 4:42 5:61 6:106 #
-0.0010000000000000000208166817117217 1:42 2:45 3:1398 4:89 5:87 6:146 #
-0.00011272001752031818192032602832242 1:86 2:105 3:6896 4:86 5:82 6:139 #
0.0010000000000000000208166817117217 1:60 2:63 3:2828 4:50 5:69 6:113 #
0.0010000000000000000208166817117217 1:36 2:37 3:972 4:95 5:80 6:153 #
-0.0010000000000000000208166817117217 1:52 2:65 3:2496 4:81 5:68 6:134 #
0.0010000000000000000208166817117217 1:40 2:55 3:1624 4:88 5:83 6:140 #
0.0010000000000000000208166817117217 1:40 2:47 3:1364 4:90 5:87 6:143 #
0.0010000000000000000208166817117217 1:62 2:75 3:3446 4:89 5:78 6:144 #
0.0010000000000000000208166817117217 1:82 2:95 3:5814 4:97 5:90 6:150 #
-0.0010000000000000000208166817117217 1:46 2:61 3:2082 4:75 5:75 6:134 #
-0.0008515224017042674620192599377333 1:78 2:89 3:5194 4:92 5:84 6:143 #
-0.0010000000000000000208166817117217 1:52 2:65 3:2496 4:81 5:68 6:134 #
-0.0010000000000000000208166817117217 1:72 2:85 3:4584 4:87 5:79 6:145 #
-0.0010000000000000000208166817117217 1:34 2:39 3:966 4:88 5:84 6:139 #
-0.0010000000000000000208166817117217 1:34 2:39 3:966 4:88 5:84 6:139 #
-0.0010000000000000000208166817117217 1:66 2:83 3:4078 4:85 5:77 6:144 #
-0.0010000000000000000208166817117217 1:66 2:83 3:4078 4:85 5:77 6:144 #
-0.0010000000000000000208166817117217 1:42 2:45 3:1398 4:89 5:87 6:146 #
0.0010000000000000000208166817117217 1:84 2:101 3:6368 4:101 5:96 6:153 #
0.0010000000000000000208166817117217 1:64 2:79 3:3764 4:96 5:86 6:148 #
0.0010000000000000000208166817117217 1:92 2:105 3:7396 4:87 5:83 6:140 #
-0.0010000000000000000208166817117217 1:34 2:39 3:966 4:88 5:84 6:139 #
-0.0010000000000000000208166817117217 1:42 2:45 3:1398 4:89 5:87 6:146 #
-0.0010000000000000000208166817117217 1:34 2:39 3:966 4:88 5:84 6:139 #
0.0010000000000000000208166817117217 1:16 2:27 3:312 4:82 5:65 6:141 #
0.0010000000000000000208166817117217 1:70 2:85 3:4470 4:93 5:84 6:145 #
4.8940197363928899664149707593452e-05 1:40 2:53 3:1572 4:72 5:72 6:133 #
-0.0010000000000000000208166817117217 1:48 2:51 3:1824 4:83 5:80 6:141 #
-0.0010000000000000000208166817117217 1:44 2:47 3:1528 4:84 5:78 6:134 #
-0.0010000000000000000208166817117217 1:72 2:85 3:4584 4:87 5:79 6:145 #
0.0010000000000000000208166817117217 1:46 2:47 3:1606 4:67 5:54 6:143 #
0.0010000000000000000208166817117217 1:76 2:93 3:5280 4:96 5:90 6:149 #
0.0010000000000000000208166817117217 1:80 2:95 3:5712 4:103 5:97 6:155 #
0.0010000000000000000208166817117217 1:52 2:55 3:2140 4:83 5:69 6:141 #
0.0010000000000000000208166817117217 1:76 2:87 3:4960 4:93 5:84 6:145 #
0.00091708846819480555577486224905215 1:28 2:33 3:656 4:42 5:61 6:107 #
-0.00087296994668807582819919366201589 1:86 2:105 3:6896 4:86 5:82 6:139 #
0.0010000000000000000208166817117217 1:66 2:71 3:3514 4:98 5:88 6:153 #
-0.00087929188977700720869501438414773 1:86 2:105 3:6896 4:86 5:82 6:139 #
0.0010000000000000000208166817117217 1:42 2:45 3:1398 4:99 5:86 6:156 #
-0.0010000000000000000208166817117217 1:52 2:65 3:2496 4:81 5:68 6:134 #
0.0010000000000000000208166817117217 1:86 2:105 3:6896 4:86 5:82 6:139 #
-0.0010000000000000000208166817117217 1:74 2:91 3:5026 4:95 5:88 6:152 #
0.0010000000000000000208166817117217 1:92 2:105 3:7396 4:87 5:83 6:140 #
0.0010000000000000000208166817117217 1:68 2:79 3:4012 4:88 5:77 6:141 #
0.0010000000000000000208166817117217 1:68 2:71 3:3648 4:93 5:84 6:150 #
0.0010000000000000000208166817117217 1:40 2:47 3:1364 4:90 5:87 6:143 #
-0.0010000000000000000208166817117217 1:34 2:39 3:966 4:88 5:84 6:139 #
-0.0010000000000000000208166817117217 1:80 2:97 3:5792 4:91 5:86 6:144 #
0.00045706428755552461207223302608327 1:40 2:53 3:1572 4:72 5:72 6:133 #
0.0010000000000000000208166817117217 1:76 2:93 3:5280 4:96 5:90 6:149 #
0.0010000000000000000208166817117217 1:54 2:59 3:2366 4:42 5:61 6:106 #
-0.00051720788531584190039769310942575 1:86 2:105 3:6896 4:86 5:82 6:139 #
0.0010000000000000000208166817117217 1:16 2:27 3:312 4:82 5:65 6:141 #
-0.0010000000000000000208166817117217 1:44 2:47 3:1528 4:84 5:78 6:134 #
0.0010000000000000000208166817117217 1:92 2:99 3:6896 4:90 5:85 6:142 #
0.0010000000000000000208166817117217 1:76 2:93 3:5280 4:96 5:90 6:149 #
0.0010000000000000000208166817117217 1:80 2:97 3:5792 4:91 5:86 6:144 #
0.0010000000000000000208166817117217 1:86 2:97 3:6270 4:92 5:86 6:144 #
-0.0010000000000000000208166817117217 1:34 2:39 3:966 4:88 5:84 6:139 #
-0.0010000000000000000208166817117217 1:72 2:85 3:4584 4:87 5:79 6:145 #
0.0010000000000000000208166817117217 1:76 2:93 3:5280 4:96 5:90 6:149 #
0.0010000000000000000208166817117217 1:80 2:97 3:5792 4:91 5:86 6:144 #
0.0010000000000000000208166817117217 1:28 2:33 3:656 4:88 5:84 6:139 #
-0.0010000000000000000208166817117217 1:50 2:53 3:1970 4:81 5:78 6:139 #
0.0010000000000000000208166817117217 1:97 2:107 3:8051 4:86 5:82 6:139 #
-0.0010000000000000000208166817117217 1:52 2:65 3:2496 4:81 5:68 6:134 #
0.0010000000000000000208166817117217 1:68 2:71 3:3648 4:93 5:84 6:150 #
0.0010000000000000000208166817117217 1:68 2:79 3:4012 4:88 5:77 6:141 #
-0.0010000000000000000208166817117217 1:36 2:37 3:972 4:93 5:94 6:153 #
0.0010000000000000000208166817117217 1:40 2:43 3:1260 4:41 5:60 6:105 #
0.0010000000000000000208166817117217 1:54 2:59 3:2366 4:42 5:61 6:106 #
-0.0010000000000000000208166817117217 1:36 2:37 3:972 4:93 5:94 6:153 #
-0.0010000000000000000208166817117217 1:66 2:83 3:4078 4:85 5:77 6:144 #
0.0010000000000000000208166817117217 1:60 2:63 3:2828 4:50 5:69 6:113 #
-0.0010000000000000000208166817117217 1:86 2:101 3:6506 4:103 5:99 6:159 #
0.0010000000000000000208166817117217 1:82 2:95 3:5814 4:97 5:90 6:150 #
-0.0010000000000000000208166817117217 1:36 2:37 3:972 4:93 5:94 6:153 #
0.0010000000000000000208166817117217 1:60 2:63 3:2828 4:50 5:69 6:113 #
-0.0010000000000000000208166817117217 1:64 2:67 3:3224 4:81 5:78 6:138 #
0.0010000000000000000208166817117217 1:60 2:63 3:2828 4:50 5:69 6:113 #
-0.0010000000000000000208166817117217 1:72 2:85 3:4584 4:87 5:79 6:145 #
-0.0010000000000000000208166817117217 1:74 2:91 3:5026 4:95 5:88 6:152 #
-0.0010000000000000000208166817117217 1:46 2:61 3:2082 4:75 5:75 6:134 #
0.0010000000000000000208166817117217 1:80 2:95 3:5712 4:103 5:97 6:155 #
-0.0010000000000000000208166817117217 1:80 2:97 3:5792 4:91 5:86 6:144 #
0.0010000000000000000208166817117217 1:30 2:43 3:930 4:92 5:79 6:149 #
0.0010000000000000000208166817117217 1:58 2:63 3:2726 4:98 5:89 6:162 #
0.0010000000000000000208166817117217 1:52 2:55 3:2140 4:44 5:64 6:109 #
-0.0010000000000000000208166817117217 1:66 2:83 3:4078 4:85 5:77 6:144 #
-0.0010000000000000000208166817117217 1:36 2:37 3:972 4:93 5:94 6:153 #
0.00098768627420720640948392787805687 1:52 2:55 3:2140 4:44 5:64 6:109 #
-0.0010000000000000000208166817117217 1:46 2:61 3:2082 4:75 5:75 6:134 #
-0.0010000000000000000208166817117217 1:34 2:39 3:966 4:88 5:84 6:139 #
-0.0010000000000000000208166817117217 1:72 2:85 3:4584 4:87 5:79 6:145 #
-0.0010000000000000000208166817117217 1:66 2:83 3:4078 4:85 5:77 6:144 #
-0.0010000000000000000208166817117217 1:36 2:37 3:972 4:93 5:94 6:153 #
-0.0010000000000000000208166817117217 1:66 2:83 3:4078 4:85 5:77 6:144 #
-0.0010000000000000000208166817117217 1:42 2:45 3:1398 4:89 5:87 6:146 #
-0.0010000000000000000208166817117217 1:46 2:61 3:2082 4:75 5:75 6:134 #
0.0010000000000000000208166817117217 1:82 2:95 3:5814 4:97 5:90 6:150 #
0.0010000000000000000208166817117217 1:60 2:63 3:2828 4:50 5:69 6:113 #
-0.0010000000000000000208166817117217 1:36 2:37 3:972 4:93 5:94 6:153 #
0.00086448683028904349523457995019271 1:52 2:55 3:2140 4:44 5:64 6:109 #
-0.0010000000000000000208166817117217 1:74 2:91 3:5026 4:95 5:88 6:152 #
0.0010000000000000000208166817117217 1:54 2:59 3:2366 4:42 5:61 6:106 #
-0.0010000000000000000208166817117217 1:66 2:83 3:4078 4:85 5:77 6:144 #
-0.0010000000000000000208166817117217 1:74 2:91 3:5026 4:95 5:88 6:152 #
-0.0010000000000000000208166817117217 1:74 2:91 3:5026 4:95 5:88 6:152 #
0.0010000000000000000208166817117217 1:60 2:63 3:2828 4:50 5:69 6:113 #
0.0010000000000000000208166817117217 1:16 2:27 3:312 4:82 5:65 6:141 #
-0.0010000000000000000208166817117217 1:74 2:91 3:5026 4:95 5:88 6:152 #
0.0010000000000000000208166817117217 1:52 2:55 3:2140 4:44 5:64 6:109 #
-0.0010000000000000000208166817117217 1:74 2:89 3:4942 4:93 5:86 6:145 #
0.0010000000000000000208166817117217 1:60 2:63 3:2828 4:50 5:69 6:113 #
-0.0010000000000000000208166817117217 1:74 2:91 3:5026 4:95 5:88 6:152 #
-0.0010000000000000000208166817117217 1:66 2:83 3:4078 4:85 5:77 6:144 #
0.0010000000000000000208166817117217 1:64 2:71 3:3396 4:92 5:83 6:149 #
-0.0010000000000000000208166817117217 1:74 2:91 3:5026 4:95 5:88 6:152 #
-0.0010000000000000000208166817117217 1:72 2:85 3:4584 4:87 5:79 6:145 #
-0.0010000000000000000208166817117217 1:46 2:61 3:2082 4:75 5:75 6:134 #
0.0010000000000000000208166817117217 1:46 2:51 3:1738 4:82 5:79 6:140 #
-0.0010000000000000000208166817117217 1:66 2:83 3:4078 4:85 5:77 6:144 #
-0.0010000000000000000208166817117217 1:46 2:47 3:1606 4:42 5:62 6:107 #
0.0010000000000000000208166817117217 1:46 2:47 3:1606 4:67 5:54 6:143 #
0.0010000000000000000208166817117217 1:40 2:47 3:1364 4:90 5:87 6:143 #
0.0010000000000000000208166817117217 1:40 2:47 3:1364 4:90 5:87 6:143 #
0.0010000000000000000208166817117217 1:72 2:89 3:4780 4:109 5:103 6:162 #
-0.0010000000000000000208166817117217 1:80 2:93 3:5584 4:96 5:89 6:152 #
-0.0010000000000000000208166817117217 1:66 2:75 3:3698 4:81 5:70 6:140 #
-0.0010000000000000000208166817117217 1:48 2:51 3:1824 4:83 5:80 6:141 #
0.0010000000000000000208166817117217 1:40 2:47 3:1364 4:90 5:87 6:143 #
-0.0010000000000000000208166817117217 1:46 2:47 3:1606 4:67 5:54 6:143 #
0.0010000000000000000208166817117217 1:70 2:83 3:4330 4:105 5:96 6:157 #
0.00099999995430837462437323459596428 1:40 2:53 3:1572 4:72 5:72 6:133 #
0.0010000000000000000208166817117217 1:46 2:47 3:1606 4:67 5:54 6:143 #
0.0010000000000000000208166817117217 1:34 2:39 3:966 4:88 5:84 6:139 #
0.0010000000000000000208166817117217 1:46 2:47 3:1606 4:67 5:54 6:143 #
-0.0010000000000000000208166817117217 1:46 2:47 3:1606 4:42 5:62 6:107 #
0.0010000000000000000208166817117217 1:38 2:47 3:1318 4:84 5:69 6:147 #
0.0010000000000000000208166817117217 1:70 2:83 3:4330 4:105 5:96 6:157 #
0.0010000000000000000208166817117217 1:28 2:39 3:808 4:87 5:84 6:139 #
0.0010000000000000000208166817117217 1:40 2:47 3:1364 4:90 5:87 6:143 #
-0.0010000000000000000208166817117217 1:36 2:37 3:972 4:93 5:94 6:153 #
0.0010000000000000000208166817117217 1:28 2:39 3:808 4:87 5:84 6:139 #
0.0010000000000000000208166817117217 1:54 2:59 3:2366 4:42 5:61 6:106 #
-0.0010000000000000000208166817117217 1:36 2:41 3:1068 4:87 5:77 6:143 #
0.0010000000000000000208166817117217 1:40 2:47 3:1364 4:90 5:87 6:143 #
0.0010000000000000000208166817117217 1:36 2:41 3:1068 4:84 5:79 6:135 #
-0.0010000000000000000208166817117217 1:56 2:59 3:2460 4:78 5:75 6:136 #
-0.0010000000000000000208166817117217 1:46 2:47 3:1606 4:42 5:62 6:107 #
0.0010000000000000000208166817117217 1:46 2:47 3:1606 4:67 5:54 6:143 #
0.0010000000000000000208166817117217 1:46 2:47 3:1606 4:67 5:54 6:143 #
0.0010000000000000000208166817117217 1:40 2:47 3:1364 4:90 5:87 6:143 #
-0.0010000000000000000208166817117217 1:72 2:85 3:4584 4:87 5:79 6:145 #
-0.0010000000000000000208166817117217 1:74 2:91 3:5026 4:95 5:88 6:152 #
-0.0010000000000000000208166817117217 1:36 2:41 3:1068 4:87 5:77 6:143 #
0.0010000000000000000208166817117217 1:52 2:55 3:2140 4:83 5:69 6:141 #
-0.0010000000000000000208166817117217 1:36 2:37 3:972 4:93 5:94 6:153 #
-0.0010000000000000000208166817117217 1:72 2:85 3:4584 4:87 5:79 6:145 #
0.0010000000000000000208166817117217 1:46 2:47 3:1606 4:67 5:54 6:143 #
0.0010000000000000000208166817117217 1:38 2:47 3:1318 4:84 5:69 6:147 #
-0.0010000000000000000208166817117217 1:46 2:47 3:1606 4:67 5:54 6:143 #
0.00021737575193950644039664332751727 1:40 2:53 3:1572 4:72 5:72 6:133 #
-0.0010000000000000000208166817117217 1:46 2:47 3:1606 4:67 5:54 6:143 #
0.0010000000000000000208166817117217 1:46 2:47 3:1606 4:67 5:54 6:143 #
0.00098568872170277368680024743241574 1:52 2:55 3:2140 4:44 5:64 6:109 #
-0.0010000000000000000208166817117217 1:36 2:37 3:972 4:93 5:94 6:153 #
-0.0010000000000000000208166817117217 1:36 2:41 3:1068 4:87 5:77 6:143 #
0.0010000000000000000208166817117217 1:40 2:47 3:1364 4:90 5:87 6:143 #
-0.0010000000000000000208166817117217 1:36 2:41 3:1068 4:87 5:77 6:143 #
0.0010000000000000000208166817117217 1:46 2:47 3:1606 4:67 5:54 6:143 #
0.0010000000000000000208166817117217 1:64 2:71 3:3396 4:82 5:69 6:134 #
0.0010000000000000000208166817117217 1:36 2:41 3:1068 4:84 5:79 6:135 #
0.0010000000000000000208166817117217 1:48 2:55 3:1952 4:88 5:84 6:140 #
-0.0010000000000000000208166817117217 1:34 2:39 3:966 4:88 5:84 6:139 #
0.0010000000000000000208166817117217 1:44 2:49 3:1584 4:91 5:88 6:150 #
0.0010000000000000000208166817117217 1:28 2:39 3:808 4:87 5:84 6:139 #
-0.0010000000000000000208166817117217 1:66 2:83 3:4078 4:85 5:77 6:144 #
-0.0010000000000000000208166817117217 1:34 2:39 3:966 4:88 5:84 6:139 #
-0.0010000000000000000208166817117217 1:74 2:91 3:5026 4:95 5:88 6:152 #
0.0010000000000000000208166817117217 1:28 2:29 3:584 4:144 5:139 6:186 #
0.0010000000000000000208166817117217 1:34 2:39 3:966 4:88 5:84 6:139 #
0.0010000000000000000208166817117217 1:28 2:39 3:808 4:87 5:84 6:139 #
-0.0010000000000000000208166817117217 1:44 2:49 3:1584 4:86 5:75 6:141 #
-0.0010000000000000000208166817117217 1:46 2:47 3:1606 4:42 5:62 6:107 #
0.0010000000000000000208166817117217 1:42 2:45 3:1398 4:99 5:86 6:156 #
0.0010000000000000000208166817117217 1:40 2:47 3:1364 4:90 5:87 6:143 #
0.0010000000000000000208166817117217 1:40 2:47 3:1364 4:90 5:87 6:143 #
0.0010000000000000000208166817117217 1:40 2:47 3:1364 4:90 5:87 6:143 #
-0.0010000000000000000208166817117217 1:46 2:47 3:1606 4:42 5:62 6:107 #
0.0010000000000000000208166817117217 1:40 2:47 3:1364 4:90 5:87 6:143 #
0.0010000000000000000208166817117217 1:42 2:45 3:1398 4:99 5:86 6:156 #
-0.0010000000000000000208166817117217 1:42 2:45 3:1398 4:89 5:87 6:146 #
-0.0010000000000000000208166817117217 1:46 2:47 3:1606 4:42 5:62 6:107 #
0.0010000000000000000208166817117217 1:40 2:47 3:1364 4:90 5:87 6:143 #
0.0010000000000000000208166817117217 1:52 2:55 3:2140 4:67 5:56 6:144 #
0.0010000000000000000208166817117217 1:68 2:79 3:4260 4:114 5:109 6:177 #
0.0010000000000000000208166817117217 1:82 2:95 3:5814 4:97 5:90 6:150 #
-0.0010000000000000000208166817117217 1:72 2:85 3:4584 4:87 5:79 6:145 #
0.0010000000000000000208166817117217 1:36 2:41 3:1068 4:84 5:79 6:135 #
0.0010000000000000000208166817117217 1:68 2:79 3:4260 4:114 5:109 6:177 #
-0.0010000000000000000208166817117217 1:46 2:47 3:1606 4:42 5:62 6:107 #
0.0010000000000000000208166817117217 1:52 2:55 3:2140 4:67 5:56 6:144 #
0.0010000000000000000208166817117217 1:34 2:39 3:966 4:88 5:84 6:139 #
-0.0010000000000000000208166817117217 1:42 2:45 3:1398 4:89 5:87 6:146 #
-0.0010000000000000000208166817117217 1:42 2:45 3:1398 4:89 5:87 6:146 #
0.0010000000000000000208166817117217 1:50 2:53 3:1970 4:81 5:78 6:139 #
-0.00095402644776396237219495688464121 1:46 2:47 3:1606 4:67 5:54 6:143 #
0.0010000000000000000208166817117217 1:48 2:55 3:1952 4:78 5:63 6:132 #
-0.0010000000000000000208166817117217 1:42 2:45 3:1398 4:89 5:87 6:146 #
0.0010000000000000000208166817117217 1:72 2:87 3:4684 4:100 5:92 6:152 #
-0.0010000000000000000208166817117217 1:72 2:85 3:4584 4:87 5:79 6:145 #
-0.00095908755195480560606924314015487 1:46 2:47 3:1606 4:67 5:54 6:143 #
0.0010000000000000000208166817117217 1:56 2:63 3:2620 4:80 5:67 6:134 #
-0.0010000000000000000208166817117217 1:60 2:63 3:2828 4:75 5:67 6:150 #
0.0010000000000000000208166817117217 1:48 2:55 3:1952 4:78 5:63 6:132 #
-0.0010000000000000000208166817117217 1:36 2:37 3:972 4:93 5:94 6:153 #
0.0010000000000000000208166817117217 1:70 2:85 3:4470 4:93 5:84 6:145 #
0.0010000000000000000208166817117217 1:28 2:29 3:584 4:144 5:139 6:186 #
-0.0010000000000000000208166817117217 1:44 2:47 3:1528 4:84 5:78 6:134 #
0.0010000000000000000208166817117217 1:62 2:75 3:3446 4:89 5:78 6:144 #
-0.0010000000000000000208166817117217 1:38 2:43 3:1190 4:90 5:90 6:148 #
0.0010000000000000000208166817117217 1:52 2:55 3:2140 4:83 5:69 6:141 #
-0.0010000000000000000208166817117217 1:48 2:51 3:1824 4:83 5:80 6:141 #
-0.0010000000000000000208166817117217 1:50 2:53 3:1970 4:81 5:78 6:139 #
0.0010000000000000000208166817117217 1:58 2:73 3:3154 4:87 5:76 6:142 #
0.0010000000000000000208166817117217 1:52 2:55 3:2140 4:83 5:69 6:141 #
-0.0010000000000000000208166817117217 1:56 2:59 3:2460 4:78 5:75 6:136 #
0.0010000000000000000208166817117217 1:58 2:63 3:2726 4:90 5:78 6:146 #
-0.0010000000000000000208166817117217 1:52 2:55 3:2140 4:67 5:56 6:144 #
0.0010000000000000000208166817117217 1:58 2:73 3:3154 4:87 5:76 6:142 #
-0.0010000000000000000208166817117217 1:48 2:51 3:1824 4:83 5:80 6:141 #
0.0010000000000000000208166817117217 1:84 2:101 3:6368 4:101 5:96 6:153 #
-0.0010000000000000000208166817117217 1:74 2:91 3:5026 4:95 5:88 6:152 #
0.0010000000000000000208166817117217 1:62 2:75 3:3446 4:89 5:78 6:144 #
-0.0010000000000000000208166817117217 1:50 2:53 3:1970 4:81 5:78 6:139 #
0.0010000000000000000208166817117217 1:40 2:53 3:1572 4:72 5:72 6:133 #
-0.0010000000000000000208166817117217 1:34 2:39 3:966 4:88 5:84 6:139 #
-0.0010000000000000000208166817117217 1:42 2:45 3:1398 4:89 5:87 6:146 #
0.0010000000000000000208166817117217 1:64 2:71 3:3396 4:82 5:69 6:134 #
-0.0010000000000000000208166817117217 1:34 2:39 3:966 4:88 5:84 6:139 #
0.0010000000000000000208166817117217 1:64 2:71 3:3396 4:82 5:69 6:134 #
-0.00099913472628568897153378269848645 1:46 2:47 3:1606 4:67 5:54 6:143 #
-0.0010000000000000000208166817117217 1:36 2:37 3:972 4:93 5:94 6:153 #
-0.0010000000000000000208166817117217 1:56 2:59 3:2460 4:78 5:75 6:136 #
0.0010000000000000000208166817117217 1:76 2:87 3:4960 4:93 5:84 6:145 #
-0.0010000000000000000208166817117217 1:60 2:63 3:2828 4:75 5:67 6:150 #
-0.0010000000000000000208166817117217 1:48 2:51 3:1824 4:83 5:80 6:141 #
0.0010000000000000000208166817117217 1:44 2:49 3:1584 4:86 5:81 6:138 #
-0.0010000000000000000208166817117217 1:52 2:55 3:2140 4:67 5:56 6:144 #
0.0010000000000000000208166817117217 1:62 2:75 3:3446 4:89 5:78 6:144 #
0.0010000000000000000208166817117217 1:34 2:39 3:966 4:88 5:84 6:139 #
-0.0010000000000000000208166817117217 1:36 2:37 3:972 4:93 5:94 6:153 #
-0.0010000000000000000208166817117217 1:56 2:59 3:2460 4:78 5:75 6:136 #
-0.0010000000000000000208166817117217 1:48 2:51 3:1824 4:83 5:80 6:141 #
0.0010000000000000000208166817117217 1:56 2:63 3:2620 4:80 5:67 6:134 #
-0.0010000000000000000208166817117217 1:52 2:55 3:2140 4:67 5:56 6:144 #
0.0010000000000000000208166817117217 1:50 2:57 3:2102 4:86 5:80 6:138 #
-0.0010000000000000000208166817117217 1:42 2:45 3:1398 4:89 5:87 6:146 #
0.0010000000000000000208166817117217 1:62 2:75 3:3446 4:89 5:78 6:144 #
-0.0010000000000000000208166817117217 1:36 2:37 3:972 4:93 5:94 6:153 #
0.0010000000000000000208166817117217 1:62 2:75 3:3446 4:89 5:78 6:144 #
0.0010000000000000000208166817117217 1:52 2:55 3:2140 4:83 5:69 6:141 #
0.0010000000000000000208166817117217 1:56 2:63 3:2620 4:80 5:67 6:134 #
-0.0010000000000000000208166817117217 1:38 2:43 3:1190 4:90 5:90 6:148 #
0.0010000000000000000208166817117217 1:48 2:55 3:1952 4:78 5:63 6:132 #
-0.0010000000000000000208166817117217 1:60 2:73 3:3248 4:83 5:71 6:135 #
0.0010000000000000000208166817117217 1:72 2:87 3:4684 4:100 5:92 6:152 #
-0.0010000000000000000208166817117217 1:50 2:53 3:1970 4:81 5:78 6:139 #
-0.0010000000000000000208166817117217 1:52 2:55 3:2140 4:67 5:56 6:144 #
-0.0010000000000000000208166817117217 1:48 2:51 3:1824 4:83 5:80 6:141 #
-0.0010000000000000000208166817117217 1:50 2:55 3:2038 4:87 5:81 6:139 #
0.0010000000000000000208166817117217 1:28 2:39 3:808 4:87 5:84 6:139 #
-0.0010000000000000000208166817117217 1:80 2:97 3:5792 4:91 5:86 6:144 #
0.0010000000000000000208166817117217 1:62 2:75 3:3446 4:89 5:78 6:144 #
0.0010000000000000000208166817117217 1:72 2:87 3:4684 4:100 5:92 6:152 #
-0.0010000000000000000208166817117217 1:36 2:37 3:972 4:93 5:94 6:153 #
-0.0010000000000000000208166817117217 1:36 2:41 3:1068 4:87 5:77 6:143 #
-0.0010000000000000000208166817117217 1:36 2:37 3:972 4:93 5:94 6:153 #
0.0010000000000000000208166817117217 1:40 2:47 3:1364 4:90 5:87 6:143 #
-0.0010000000000000000208166817117217 1:42 2:45 3:1398 4:89 5:87 6:146 #
-0.0010000000000000000208166817117217 1:34 2:39 3:966 4:88 5:84 6:139 #
0.0010000000000000000208166817117217 1:64 2:79 3:3764 4:96 5:86 6:148 #
0.0010000000000000000208166817117217 1:58 2:73 3:3154 4:87 5:76 6:142 #
0.0010000000000000000208166817117217 1:28 2:29 3:584 4:144 5:139 6:186 #
0.0010000000000000000208166817117217 1:72 2:87 3:4684 4:100 5:92 6:152 #
-0.0010000000000000000208166817117217 1:34 2:39 3:966 4:88 5:84 6:139 #
0.0010000000000000000208166817117217 1:72 2:87 3:4684 4:100 5:92 6:152 #
-0.0010000000000000000208166817117217 1:42 2:45 3:1398 4:89 5:87 6:146 #
-0.0010000000000000000208166817117217 1:46 2:57 3:1934 4:80 5:67 6:134 #
0.0010000000000000000208166817117217 1:34 2:39 3:966 4:88 5:84 6:139 #
-0.00041648561230395002297210993447152 1:78 2:89 3:5194 4:92 5:84 6:143 #
-0.0010000000000000000208166817117217 1:36 2:37 3:972 4:93 5:94 6:153 #
-0.0010000000000000000208166817117217 1:78 2:89 3:5194 4:92 5:84 6:143 #
-0.0010000000000000000208166817117217 1:38 2:43 3:1190 4:90 5:90 6:148 #
0.0010000000000000000208166817117217 1:42 2:45 3:1398 4:89 5:87 6:146 #
-0.0010000000000000000208166817117217 1:36 2:41 3:1068 4:87 5:77 6:143 #
-0.0010000000000000000208166817117217 1:42 2:45 3:1398 4:89 5:87 6:146 #
0.0010000000000000000208166817117217 1:40 2:53 3:1572 4:72 5:72 6:133 #
0.0010000000000000000208166817117217 1:34 2:39 3:966 4:88 5:84 6:139 #
-0.0010000000000000000208166817117217 1:42 2:45 3:1398 4:89 5:87 6:146 #
-0.0010000000000000000208166817117217 1:58 2:63 3:2726 4:87 5:80 6:139 #
-0.0010000000000000000208166817117217 1:36 2:37 3:972 4:93 5:94 6:153 #
-0.0010000000000000000208166817117217 1:48 2:51 3:1824 4:83 5:80 6:141 #
0.0010000000000000000208166817117217 1:46 2:51 3:1738 4:82 5:79 6:140 #
0.0010000000000000000208166817117217 1:52 2:55 3:2140 4:83 5:69 6:141 #
-0.0010000000000000000208166817117217 1:42 2:45 3:1398 4:89 5:87 6:146 #
0.0010000000000000000208166817117217 1:62 2:75 3:3446 4:89 5:78 6:144 #
0.0010000000000000000208166817117217 1:58 2:73 3:3154 4:87 5:76 6:142 #
-0.0010000000000000000208166817117217 1:38 2:43 3:1190 4:90 5:90 6:148 #
0.0010000000000000000208166817117217 1:52 2:55 3:2140 4:83 5:69 6:141 #
0.0010000000000000000208166817117217 1:52 2:55 3:2140 4:83 5:69 6:141 #
0.0010000000000000000208166817117217 1:56 2:63 3:2620 4:80 5:67 6:134 #
-0.0010000000000000000208166817117217 1:38 2:43 3:1190 4:90 5:90 6:148 #
-0.0010000000000000000208166817117217 1:46 2:57 3:1934 4:80 5:67 6:134 #
-0.0010000000000000000208166817117217 1:38 2:43 3:1190 4:90 5:90 6:148 #
-0.0010000000000000000208166817117217 1:42 2:45 3:1398 4:89 5:87 6:146 #
0.0010000000000000000208166817117217 1:62 2:75 3:3446 4:89 5:78 6:144 #
-0.0010000000000000000208166817117217 1:36 2:37 3:972 4:93 5:94 6:153 #
0.0010000000000000000208166817117217 1:40 2:47 3:1364 4:90 5:87 6:143 #
0.0010000000000000000208166817117217 1:40 2:47 3:1364 4:90 5:87 6:143 #
-0.0010000000000000000208166817117217 1:38 2:43 3:1190 4:90 5:90 6:148 #
-0.0010000000000000000208166817117217 1:48 2:51 3:1824 4:83 5:80 6:141 #
0.0010000000000000000208166817117217 1:46 2:47 3:1606 4:42 5:62 6:107 #
0.0010000000000000000208166817117217 1:84 2:101 3:6368 4:101 5:96 6:153 #
-0.0010000000000000000208166817117217 1:48 2:51 3:1824 4:83 5:80 6:141 #
-0.0010000000000000000208166817117217 1:48 2:51 3:1824 4:83 5:80 6:141 #
-0.0010000000000000000208166817117217 1:38 2:43 3:1190 4:90 5:90 6:148 #
0.0010000000000000000208166817117217 1:34 2:39 3:966 4:88 5:84 6:139 #
0.0010000000000000000208166817117217 1:80 2:97 3:5792 4:91 5:86 6:144 #
0.0010000000000000000208166817117217 1:72 2:87 3:4684 4:100 5:92 6:152 #
0.0010000000000000000208166817117217 1:64 2:71 3:3396 4:82 5:69 6:134 #
-0.0010000000000000000208166817117217 1:44 2:47 3:1528 4:84 5:78 6:134 #
0.0010000000000000000208166817117217 1:42 2:45 3:1398 4:89 5:87 6:146 #
-0.0010000000000000000208166817117217 1:50 2:53 3:1970 4:81 5:78 6:139 #
-0.0010000000000000000208166817117217 1:48 2:51 3:1824 4:83 5:80 6:141 #
-0.0010000000000000000208166817117217 1:36 2:41 3:1068 4:87 5:77 6:143 #
0.0010000000000000000208166817117217 1:52 2:55 3:2140 4:83 5:69 6:141 #
-0.0010000000000000000208166817117217 1:42 2:45 3:1398 4:89 5:87 6:146 #
-0.0010000000000000000208166817117217 1:48 2:51 3:1824 4:83 5:80 6:141 #
0.00018646648834640946676421968675186 1:40 2:53 3:1572 4:72 5:72 6:133 #
-0.0010000000000000000208166817117217 1:48 2:51 3:1824 4:83 5:80 6:141 #
-0.0010000000000000000208166817117217 1:48 2:51 3:1824 4:83 5:80 6:141 #
0.0010000000000000000208166817117217 1:40 2:47 3:1364 4:90 5:87 6:143 #
0.00068293828129376704660913333100325 1:40 2:53 3:1572 4:72 5:72 6:133 #
0.0010000000000000000208166817117217 1:62 2:75 3:3446 4:89 5:78 6:144 #
0.0010000000000000000208166817117217 1:78 2:91 3:5318 4:109 5:103 6:162 #
-0.0010000000000000000208166817117217 1:80 2:97 3:5792 4:91 5:86 6:144 #
0.0010000000000000000208166817117217 1:64 2:71 3:3396 4:82 5:69 6:134 #
-0.0010000000000000000208166817117217 1:42 2:45 3:1398 4:89 5:87 6:146 #
-0.0010000000000000000208166817117217 1:60 2:67 3:2988 4:80 5:67 6:139 #
0.0010000000000000000208166817117217 1:36 2:41 3:1076 4:87 5:85 6:147 #
-0.0010000000000000000208166817117217 1:42 2:45 3:1398 4:89 5:87 6:146 #
-0.0010000000000000000208166817117217 1:80 2:97 3:5792 4:91 5:86 6:144 #
-0.0010000000000000000208166817117217 1:50 2:53 3:1970 4:81 5:78 6:139 #
0.0010000000000000000208166817117217 1:28 2:39 3:808 4:87 5:84 6:139 #
0.0010000000000000000208166817117217 1:40 2:47 3:1364 4:90 5:87 6:143 #
-0.0010000000000000000208166817117217 1:80 2:97 3:5792 4:91 5:86 6:144 #
-0.0010000000000000000208166817117217 1:80 2:97 3:5792 4:91 5:86 6:144 #
0.0010000000000000000208166817117217 1:40 2:47 3:1364 4:90 5:87 6:143 #
-0.0010000000000000000208166817117217 1:60 2:73 3:3248 4:83 5:71 6:135 #
0.0010000000000000000208166817117217 1:44 2:49 3:1584 4:86 5:81 6:138 #
-0.0010000000000000000208166817117217 1:80 2:97 3:5792 4:91 5:86 6:144 #
0.0010000000000000000208166817117217 1:28 2:29 3:584 4:144 5:139 6:186 #
-0.0010000000000000000208166817117217 1:42 2:45 3:1398 4:89 5:87 6:146 #
-0.0010000000000000000208166817117217 1:52 2:65 3:2496 4:81 5:68 6:134 #
0.0010000000000000000208166817117217 1:42 2:45 3:1398 4:89 5:87 6:146 #
0.0010000000000000000208166817117217 1:62 2:75 3:3446 4:89 5:78 6:144 #
-0.0010000000000000000208166817117217 1:46 2:57 3:1934 4:80 5:67 6:134 #
-0.0010000000000000000208166817117217 1:80 2:97 3:5792 4:91 5:86 6:144 #
-0.0010000000000000000208166817117217 1:60 2:73 3:3248 4:83 5:71 6:135 #
-0.0010000000000000000208166817117217 1:64 2:67 3:3224 4:81 5:78 6:138 #
-0.0010000000000000000208166817117217 1:52 2:65 3:2496 4:81 5:68 6:134 #
-0.0010000000000000000208166817117217 1:36 2:37 3:972 4:93 5:94 6:153 #
0.0010000000000000000208166817117217 1:42 2:45 3:1398 4:89 5:87 6:146 #
0.0010000000000000000208166817117217 1:46 2:47 3:1606 4:42 5:62 6:107 #
0.0010000000000000000208166817117217 1:54 2:57 3:2434 4:58 5:76 6:120 #
0.0010000000000000000208166817117217 1:54 2:57 3:2434 4:58 5:76 6:120 #
-0.0010000000000000000208166817117217 1:60 2:67 3:2988 4:80 5:67 6:139 #
0.0010000000000000000208166817117217 1:44 2:49 3:1584 4:91 5:88 6:150 #
0.0010000000000000000208166817117217 1:54 2:57 3:2434 4:58 5:76 6:120 #
0.0010000000000000000208166817117217 1:28 2:29 3:584 4:144 5:139 6:186 #
-0.0010000000000000000208166817117217 1:60 2:73 3:3248 4:83 5:71 6:135 #
-0.0010000000000000000208166817117217 1:46 2:57 3:1934 4:80 5:67 6:134 #
-0.0010000000000000000208166817117217 1:46 2:57 3:1934 4:80 5:67 6:134 #
-0.0010000000000000000208166817117217 1:80 2:97 3:5792 4:91 5:86 6:144 #
-0.0010000000000000000208166817117217 1:38 2:43 3:1190 4:90 5:90 6:148 #
-0.0010000000000000000208166817117217 1:80 2:97 3:5792 4:91 5:86 6:144 #
-0.0010000000000000000208166817117217 1:46 2:57 3:1934 4:80 5:67 6:134 #
0.0010000000000000000208166817117217 1:54 2:57 3:2434 4:58 5:76 6:120 #
-0.0010000000000000000208166817117217 1:80 2:97 3:5792 4:91 5:86 6:144 #
0.0010000000000000000208166817117217 1:40 2:43 3:1260 4:41 5:60 6:105 #
-0.0010000000000000000208166817117217 1:80 2:97 3:5792 4:91 5:86 6:144 #
-0.0010000000000000000208166817117217 1:60 2:73 3:3248 4:83 5:71 6:135 #
0.0010000000000000000208166817117217 1:42 2:45 3:1398 4:89 5:87 6:146 #
-4.8084366349732121648230531718582e-17 1:42 2:47 3:1450 4:76 5:60 6:129 #
0.0010000000000000000208166817117217 1:64 2:71 3:3396 4:82 5:69 6:134 #
0.0010000000000000000208166817117217 1:48 2:55 3:1952 4:78 5:63 6:132 #
-0.0010000000000000000208166817117217 1:60 2:73 3:3248 4:83 5:71 6:135 #
-0.0010000000000000000208166817117217 1:38 2:43 3:1190 4:90 5:90 6:148 #
0.0010000000000000000208166817117217 1:44 2:49 3:1584 4:91 5:88 6:150 #
0.0010000000000000000208166817117217 1:42 2:45 3:1398 4:89 5:87 6:146 #
0.0010000000000000000208166817117217 1:56 2:63 3:2620 4:80 5:67 6:134 #
0.0010000000000000000208166817117217 1:78 2:91 3:5318 4:109 5:103 6:162 #
0.0010000000000000000208166817117217 1:58 2:73 3:3154 4:87 5:76 6:142 #
-0.0010000000000000000208166817117217 1:46 2:57 3:1934 4:80 5:67 6:134 #
-0.0010000000000000000208166817117217 1:80 2:93 3:5584 4:96 5:89 6:152 #
0.0010000000000000000208166817117217 1:72 2:89 3:4780 4:109 5:103 6:162 #
-0.0010000000000000000208166817117217 1:80 2:97 3:5792 4:91 5:86 6:144 #
-0.0010000000000000000208166817117217 1:46 2:57 3:1934 4:80 5:67 6:134 #
0.0010000000000000000208166817117217 1:48 2:55 3:1952 4:78 5:63 6:132 #
-0.0010000000000000000208166817117217 1:60 2:73 3:3248 4:83 5:71 6:135 #
-0.0010000000000000000208166817117217 1:34 2:39 3:966 4:88 5:84 6:139 #
0.0010000000000000000208166817117217 1:56 2:63 3:2620 4:80 5:67 6:134 #
0.0010000000000000000208166817117217 1:50 2:57 3:2102 4:86 5:80 6:138 #
-0.0010000000000000000208166817117217 1:60 2:67 3:2988 4:80 5:67 6:139 #
-0.0010000000000000000208166817117217 1:38 2:43 3:1190 4:90 5:90 6:148 #
-0.0010000000000000000208166817117217 1:60 2:63 3:2828 4:75 5:67 6:150 #
0.00039270047229288812529190977329563 1:28 2:33 3:656 4:42 5:61 6:107 #
0.0010000000000000000208166817117217 1:48 2:55 3:1952 4:88 5:84 6:140 #
0.0010000000000000000208166817117217 1:52 2:55 3:2140 4:90 5:79 6:148 #
-0.0010000000000000000208166817117217 1:60 2:63 3:2828 4:75 5:67 6:150 #
-0.0010000000000000000208166817117217 1:50 2:53 3:1970 4:81 5:78 6:139 #
-0.00010887966533879717134780662490812 1:46 2:47 3:1606 4:67 5:54 6:143 #
0.0010000000000000000208166817117217 1:60 2:63 3:2828 4:92 5:82 6:149 #
-0.0010000000000000000208166817117217 1:52 2:55 3:2140 4:67 5:56 6:144 #
0.0010000000000000000208166817117217 1:50 2:53 3:1970 4:81 5:78 6:139 #
0.0010000000000000000208166817117217 1:78 2:91 3:5318 4:109 5:103 6:162 #
0.0010000000000000000208166817117217 1:48 2:55 3:1952 4:88 5:84 6:140 #
0.0010000000000000000208166817117217 1:28 2:33 3:656 4:42 5:61 6:107 #
0.0010000000000000000208166817117217 1:52 2:55 3:2140 4:90 5:79 6:148 #
-0.0010000000000000000208166817117217 1:48 2:51 3:1824 4:83 5:80 6:141 #
0.0010000000000000000208166817117217 1:52 2:61 3:2344 4:105 5:94 6:164 #
0.0010000000000000000208166817117217 1:72 2:83 3:4480 4:104 5:102 6:171 #
-0.0010000000000000000208166817117217 1:50 2:55 3:2038 4:87 5:81 6:139 #
0.0010000000000000000208166817117217 1:56 2:65 3:2770 4:86 5:80 6:138 #
-0.0010000000000000000208166817117217 1:52 2:55 3:2140 4:67 5:56 6:144 #
0.0010000000000000000208166817117217 1:56 2:65 3:2770 4:86 5:80 6:138 #
-0.0010000000000000000208166817117217 1:36 2:37 3:972 4:93 5:94 6:153 #
0.0010000000000000000208166817117217 1:78 2:91 3:5318 4:109 5:103 6:162 #
-0.0010000000000000000208166817117217 1:46 2:47 3:1606 4:67 5:54 6:143 #
-0.0010000000000000000208166817117217 1:60 2:63 3:2828 4:75 5:67 6:150 #
0.0010000000000000000208166817117217 1:58 2:63 3:2726 4:90 5:78 6:146 #
0.0010000000000000000208166817117217 1:28 2:33 3:656 4:42 5:61 6:107 #
-0.0010000000000000000208166817117217 1:38 2:43 3:1190 4:90 5:90 6:148 #
0.0010000000000000000208166817117217 1:50 2:57 3:2102 4:86 5:80 6:138 #
0.0010000000000000000208166817117217 1:48 2:55 3:1952 4:78 5:63 6:132 #
0.0010000000000000000208166817117217 1:56 2:59 3:2460 4:78 5:75 6:136 #
0.0010000000000000000208166817117217 1:48 2:55 3:1952 4:88 5:84 6:140 #
0.0010000000000000000208166817117217 1:28 2:33 3:656 4:42 5:61 6:107 #
0.0010000000000000000208166817117217 1:42 2:49 3:1510 4:86 5:82 6:138 #
0.0010000000000000000208166817117217 1:46 2:51 3:1738 4:82 5:79 6:140 #
0.0010000000000000000208166817117217 1:78 2:91 3:5318 4:109 5:103 6:162 #
0.0010000000000000000208166817117217 1:60 2:63 3:2828 4:75 5:67 6:150 #
-0.0010000000000000000208166817117217 1:78 2:89 3:5194 4:92 5:84 6:143 #
0.0010000000000000000208166817117217 1:52 2:55 3:2140 4:67 5:56 6:144 #
-0.0010000000000000000208166817117217 1:82 2:99 3:6110 4:102 5:97 6:159 #
0.0010000000000000000208166817117217 1:52 2:55 3:2140 4:67 5:56 6:144 #
-0.0010000000000000000208166817117217 1:50 2:53 3:1970 4:81 5:78 6:139 #
-0.0010000000000000000208166817117217 1:36 2:37 3:972 4:93 5:94 6:153 #
-0.0010000000000000000208166817117217 1:82 2:99 3:6110 4:102 5:97 6:159 #
0.0010000000000000000208166817117217 1:52 2:55 3:2140 4:67 5:56 6:144 #
-0.0010000000000000000208166817117217 1:50 2:55 3:2038 4:87 5:81 6:139 #
0.0010000000000000000208166817117217 1:60 2:63 3:2828 4:75 5:67 6:150 #
0.0010000000000000000208166817117217 1:58 2:73 3:3154 4:87 5:76 6:142 #
-0.0010000000000000000208166817117217 1:50 2:53 3:1970 4:81 5:78 6:139 #
0.0010000000000000000208166817117217 1:52 2:55 3:2140 4:67 5:56 6:144 #
0.0010000000000000000208166817117217 1:44 2:53 3:1708 4:96 5:83 6:157 #
0.0010000000000000000208166817117217 1:46 2:55 3:1866 4:92 5:80 6:155 #
-0.0010000000000000000208166817117217 1:74 2:89 3:4942 4:93 5:86 6:145 #
0.0010000000000000000208166817117217 1:52 2:55 3:2140 4:90 5:79 6:148 #
-0.0010000000000000000208166817117217 1:50 2:53 3:1970 4:81 5:78 6:139 #
-0.0010000000000000000208166817117217 1:42 2:45 3:1398 4:89 5:87 6:146 #
0.0010000000000000000208166817117217 1:60 2:63 3:2828 4:75 5:67 6:150 #
-0.0010000000000000000208166817117217 1:50 2:53 3:1970 4:81 5:78 6:139 #
-0.0010000000000000000208166817117217 1:56 2:59 3:2460 4:78 5:75 6:136 #
0.0010000000000000000208166817117217 1:52 2:55 3:2140 4:90 5:79 6:148 #
0.0010000000000000000208166817117217 1:60 2:63 3:2828 4:75 5:67 6:150 #
-0.0010000000000000000208166817117217 1:36 2:37 3:972 4:93 5:94 6:153 #
0.0010000000000000000208166817117217 1:56 2:63 3:2620 4:91 5:82 6:149 #
-0.0010000000000000000208166817117217 1:64 2:67 3:3224 4:81 5:78 6:138 #
-0.0010000000000000000208166817117217 1:56 2:59 3:2460 4:78 5:75 6:136 #
-0.0010000000000000000208166817117217 1:50 2:55 3:2038 4:87 5:81 6:139 #
-0.0010000000000000000208166817117217 1:58 2:63 3:2726 4:87 5:80 6:139 #
-0.0010000000000000000208166817117217 1:50 2:53 3:1970 4:81 5:78 6:139 #
0.0010000000000000000208166817117217 1:60 2:63 3:2828 4:75 5:67 6:150 #
-0.0010000000000000000208166817117217 1:56 2:59 3:2460 4:78 5:75 6:136 #
-0.0010000000000000000208166817117217 1:64 2:67 3:3224 4:81 5:78 6:138 #
-0.0010000000000000000208166817117217 1:56 2:59 3:2460 4:78 5:75 6:136 #
-0.0010000000000000000208166817117217 1:64 2:67 3:3224 4:81 5:78 6:138 #
0.0010000000000000000208166817117217 1:48 2:55 3:1952 4:89 5:79 6:148 #
-0.0010000000000000000208166817117217 1:56 2:59 3:2460 4:78 5:75 6:136 #
0.0010000000000000000208166817117217 1:52 2:55 3:2140 4:67 5:56 6:144 #
-0.0010000000000000000208166817117217 1:36 2:37 3:972 4:93 5:94 6:153 #
-0.0010000000000000000208166817117217 1:50 2:53 3:1970 4:81 5:78 6:139 #
-0.0010000000000000000208166817117217 1:36 2:37 3:972 4:93 5:94 6:153 #
0.0010000000000000000208166817117217 1:52 2:55 3:2140 4:90 5:79 6:148 #
-0.0010000000000000000208166817117217 1:64 2:67 3:3224 4:81 5:78 6:138 #
-0.0010000000000000000208166817117217 1:50 2:53 3:1970 4:81 5:78 6:139 #
0.0010000000000000000208166817117217 1:52 2:55 3:2140 4:67 5:56 6:144 #
-0.0010000000000000000208166817117217 1:64 2:67 3:3224 4:81 5:78 6:138 #
-0.0010000000000000000208166817117217 1:36 2:37 3:972 4:93 5:94 6:153 #
0.0010000000000000000208166817117217 1:40 2:43 3:1260 4:41 5:60 6:105 #
0.0010000000000000000208166817117217 1:52 2:55 3:2140 4:67 5:56 6:144 #
0.0010000000000000000208166817117217 1:60 2:63 3:2828 4:92 5:82 6:149 #
-0.0010000000000000000208166817117217 1:64 2:67 3:3224 4:81 5:78 6:138 #
0.0010000000000000000208166817117217 1:60 2:63 3:2828 4:92 5:82 6:149 #
-0.0010000000000000000208166817117217 1:48 2:51 3:1824 4:83 5:80 6:141 #
-0.0010000000000000000208166817117217 1:74 2:89 3:4942 4:93 5:86 6:145 #
-0.0010000000000000000208166817117217 1:56 2:59 3:2460 4:78 5:75 6:136 #
-0.0010000000000000000208166817117217 1:56 2:59 3:2460 4:78 5:75 6:136 #
0.0010000000000000000208166817117217 1:44 2:53 3:1708 4:96 5:83 6:157 #
0.0010000000000000000208166817117217 1:48 2:55 3:1952 4:89 5:79 6:148 #
0.0010000000000000000208166817117217 1:78 2:91 3:5318 4:109 5:103 6:162 #
-0.0010000000000000000208166817117217 1:48 2:51 3:1824 4:83 5:80 6:141 #
0.0010000000000000000208166817117217 1:60 2:63 3:2828 4:75 5:67 6:150 #
0.0010000000000000000208166817117217 1:52 2:55 3:2140 4:67 5:56 6:144 #
0.0010000000000000000208166817117217 1:60 2:63 3:2828 4:75 5:67 6:150 #
-0.0010000000000000000208166817117217 1:56 2:59 3:2460 4:78 5:75 6:136 #
-0.0010000000000000000208166817117217 1:50 2:53 3:1970 4:81 5:78 6:139 #
-0.0010000000000000000208166817117217 1:60 2:67 3:2988 4:80 5:67 6:139 #
2.0114382018494858517243528694962e-07 1:52 2:55 3:2140 4:44 5:64 6:109 #
-0.0010000000000000000208166817117217 1:50 2:55 3:2038 4:87 5:81 6:139 #
-0.0010000000000000000208166817117217 1:42 2:45 3:1398 4:89 5:87 6:146 #
0.0010000000000000000208166817117217 1:60 2:63 3:2828 4:75 5:67 6:150 #
0.0010000000000000000208166817117217 1:60 2:63 3:2828 4:75 5:67 6:150 #
-0.0010000000000000000208166817117217 1:42 2:45 3:1398 4:89 5:87 6:146 #
0.0010000000000000000208166817117217 1:58 2:63 3:2726 4:90 5:78 6:146 #
0.0010000000000000000208166817117217 1:60 2:63 3:2828 4:75 5:67 6:150 #
-0.0010000000000000000208166817117217 1:64 2:67 3:3224 4:81 5:78 6:138 #
-0.0010000000000000000208166817117217 1:50 2:53 3:1970 4:81 5:78 6:139 #
0.0010000000000000000208166817117217 1:52 2:55 3:2140 4:67 5:56 6:144 #
0.0010000000000000000208166817117217 1:60 2:63 3:2828 4:75 5:67 6:150 #
0.0010000000000000000208166817117217 1:72 2:83 3:4480 4:104 5:102 6:171 #
0.0010000000000000000208166817117217 1:52 2:55 3:2140 4:67 5:56 6:144 #
-0.0010000000000000000208166817117217 1:36 2:37 3:972 4:93 5:94 6:153 #
-0.0010000000000000000208166817117217 1:78 2:89 3:5194 4:92 5:84 6:143 #
-0.0010000000000000000208166817117217 1:58 2:63 3:2726 4:87 5:80 6:139 #
-0.0010000000000000000208166817117217 1:58 2:63 3:2726 4:87 5:80 6:139 #
-0.0010000000000000000208166817117217 1:50 2:53 3:1970 4:81 5:78 6:139 #
0.0010000000000000000208166817117217 1:48 2:55 3:1952 4:89 5:79 6:148 #
0.0010000000000000000208166817117217 1:48 2:55 3:1952 4:89 5:79 6:148 #
-0.0010000000000000000208166817117217 1:42 2:45 3:1398 4:89 5:87 6:146 #
-0.0010000000000000000208166817117217 1:50 2:53 3:1970 4:81 5:78 6:139 #
-0.0010000000000000000208166817117217 1:50 2:55 3:2038 4:87 5:81 6:139 #
0.0010000000000000000208166817117217 1:60 2:63 3:2828 4:75 5:67 6:150 #
-0.0010000000000000000208166817117217 1:86 2:101 3:6506 4:103 5:99 6:159 #
-0.0010000000000000000208166817117217 1:58 2:63 3:2726 4:87 5:80 6:139 #
-0.0010000000000000000208166817117217 1:64 2:67 3:3224 4:81 5:78 6:138 #
-0.0010000000000000000208166817117217 1:50 2:53 3:1970 4:81 5:78 6:139 #
0.0010000000000000000208166817117217 1:58 2:73 3:3154 4:87 5:76 6:142 #
-0.0010000000000000000208166817117217 1:74 2:89 3:4942 4:93 5:86 6:145 #
-0.0010000000000000000208166817117217 1:86 2:101 3:6506 4:103 5:99 6:159 #
-0.0010000000000000000208166817117217 1:46 2:47 3:1606 4:67 5:54 6:143 #
-0.0010000000000000000208166817117217 1:78 2:89 3:5194 4:92 5:84 6:143 #
-0.0010000000000000000208166817117217 1:46 2:47 3:1606 4:67 5:54 6:143 #
0.0010000000000000000208166817117217 1:46 2:47 3:1606 4:42 5:62 6:107 #
0.00095736764594354505520518161532095 1:28 2:33 3:656 4:42 5:61 6:107 #
-0.0010000000000000000208166817117217 1:50 2:53 3:1970 4:81 5:78 6:139 #
0.0010000000000000000208166817117217 1:50 2:53 3:1970 4:81 5:78 6:139 #
-0.0010000000000000000208166817117217 1:66 2:75 3:3698 4:81 5:70 6:140 #
-0.0010000000000000000208166817117217 1:66 2:75 3:3698 4:81 5:70 6:140 #
-0.0010000000000000000208166817117217 1:50 2:53 3:1970 4:81 5:78 6:139 #
0.0010000000000000000208166817117217 1:70 2:83 3:4330 4:105 5:96 6:157 #
-0.0010000000000000000208166817117217 1:46 2:57 3:1934 4:80 5:67 6:134 #
-0.00099999999999989810581246807430489 1:80 2:93 3:5584 4:96 5:89 6:152 #
0.0010000000000000000208166817117217 1:48 2:55 3:1952 4:88 5:84 6:140 #
0.0010000000000000000208166817117217 1:54 2:57 3:2434 4:58 5:76 6:120 #
0.0010000000000000000208166817117217 1:64 2:67 3:3224 4:81 5:78 6:138 #
-0.0010000000000000000208166817117217 1:82 2:99 3:6110 4:102 5:97 6:159 #
-0.0010000000000000000208166817117217 1:82 2:99 3:6110 4:102 5:97 6:159 #
0.0010000000000000000208166817117217 1:48 2:55 3:1952 4:88 5:84 6:140 #
0.0010000000000000000208166817117217 1:70 2:83 3:4330 4:105 5:96 6:157 #
-0.0010000000000000000208166817117217 1:46 2:47 3:1606 4:67 5:54 6:143 #
-0.0010000000000000000208166817117217 1:50 2:53 3:1970 4:81 5:78 6:139 #
0.0010000000000000000208166817117217 1:60 2:63 3:2828 4:50 5:69 6:113 #
-0.0010000000000000000208166817117217 1:60 2:73 3:3248 4:83 5:71 6:135 #
-0.0010000000000000000208166817117217 1:46 2:47 3:1606 4:67 5:54 6:143 #
-0.0010000000000000000208166817117217 1:46 2:57 3:1934 4:80 5:67 6:134 #
0.0010000000000000000208166817117217 1:44 2:53 3:1708 4:96 5:83 6:157 #
-0.0010000000000000000208166817117217 1:66 2:75 3:3698 4:81 5:70 6:140 #
0.0010000000000000000208166817117217 1:64 2:67 3:3224 4:81 5:78 6:138 #
-0.0010000000000000000208166817117217 1:66 2:75 3:3698 4:81 5:70 6:140 #
-0.0010000000000000000208166817117217 1:66 2:75 3:3698 4:81 5:70 6:140 #
-0.0010000000000000000208166817117217 1:46 2:57 3:1934 4:80 5:67 6:134 #
0.0010000000000000000208166817117217 1:50 2:53 3:1970 4:81 5:78 6:139 #
-0.0010000000000000000208166817117217 1:46 2:57 3:1934 4:80 5:67 6:134 #
-0.0010000000000000000208166817117217 1:36 2:37 3:972 4:93 5:94 6:153 #
-0.0010000000000000000208166817117217 1:82 2:99 3:6110 4:102 5:97 6:159 #
0.0010000000000000000208166817117217 1:44 2:57 3:1844 4:65 5:58 6:143 #
-0.0010000000000000000208166817117217 1:60 2:73 3:3248 4:83 5:71 6:135 #
-0.0010000000000000000208166817117217 1:82 2:99 3:6110 4:102 5:97 6:159 #
-0.00013499340462702624776625270897057 1:46 2:47 3:1606 4:67 5:54 6:143 #
0.0010000000000000000208166817117217 1:50 2:53 3:1970 4:81 5:78 6:139 #
-0.0010000000000000000208166817117217 1:46 2:47 3:1606 4:67 5:54 6:143 #
-0.0010000000000000000208166817117217 1:74 2:89 3:4942 4:93 5:86 6:145 #
-0.0010000000000000000208166817117217 1:82 2:99 3:6110 4:102 5:97 6:159 #
0.0010000000000000000208166817117217 1:78 2:91 3:5318 4:109 5:103 6:162 #
0.0010000000000000000208166817117217 1:50 2:53 3:1970 4:81 5:78 6:139 #
0.0010000000000000000208166817117217 1:56 2:59 3:2460 4:78 5:75 6:136 #
-0.0010000000000000000208166817117217 1:36 2:37 3:972 4:93 5:94 6:153 #
-0.0010000000000000000208166817117217 1:74 2:89 3:4942 4:93 5:86 6:145 #
-0.0010000000000000000208166817117217 1:74 2:89 3:4942 4:93 5:86 6:145 #
-0.0010000000000000000208166817117217 1:64 2:67 3:3224 4:81 5:78 6:138 #
0.0010000000000000000208166817117217 1:56 2:59 3:2460 4:78 5:75 6:136 #
0.0010000000000000000208166817117217 1:56 2:65 3:2770 4:86 5:80 6:138 #
-0.0010000000000000000208166817117217 1:44 2:49 3:1584 4:86 5:75 6:141 #
-0.0010000000000000000208166817117217 1:74 2:89 3:4942 4:93 5:86 6:145 #
-0.0010000000000000000208166817117217 1:82 2:99 3:6110 4:102 5:97 6:159 #
0.0010000000000000000208166817117217 1:50 2:53 3:1970 4:81 5:78 6:139 #
0.0010000000000000000208166817117217 1:50 2:53 3:1970 4:81 5:78 6:139 #
-0.0010000000000000000208166817117217 1:50 2:53 3:1970 4:81 5:78 6:139 #
0.0010000000000000000208166817117217 1:56 2:65 3:2770 4:86 5:80 6:138 #
-0.0010000000000000000208166817117217 1:72 2:85 3:4584 4:87 5:79 6:145 #
-0.0010000000000000000208166817117217 1:82 2:99 3:6110 4:102 5:97 6:159 #
-0.0010000000000000000208166817117217 1:66 2:75 3:3698 4:81 5:70 6:140 #
0.0010000000000000000208166817117217 1:42 2:49 3:1510 4:86 5:82 6:138 #
-0.0010000000000000000208166817117217 1:72 2:85 3:4584 4:87 5:79 6:145 #
-0.0010000000000000000208166817117217 1:66 2:75 3:3698 4:81 5:70 6:140 #
-0.0010000000000000000208166817117217 1:66 2:75 3:3698 4:81 5:70 6:140 #
-0.0010000000000000000208166817117217 1:50 2:53 3:1970 4:81 5:78 6:139 #
-0.0010000000000000000208166817117217 1:86 2:101 3:6506 4:103 5:99 6:159 #
-0.0010000000000000000208166817117217 1:64 2:67 3:3224 4:81 5:78 6:138 #
0.0010000000000000000208166817117217 1:56 2:69 3:2864 4:95 5:86 6:150 #
0.0010000000000000000208166817117217 1:70 2:83 3:4330 4:105 5:96 6:157 #
0.0010000000000000000208166817117217 1:48 2:55 3:1952 4:88 5:84 6:140 #
-0.0010000000000000000208166817117217 1:60 2:67 3:2988 4:80 5:67 6:139 #
-0.0010000000000000000208166817117217 1:60 2:67 3:2988 4:80 5:67 6:139 #
0.0010000000000000000208166817117217 1:48 2:55 3:1952 4:88 5:84 6:140 #
0.0010000000000000000208166817117217 1:66 2:81 3:3994 4:103 5:95 6:156 #
-0.0010000000000000000208166817117217 1:86 2:101 3:6506 4:103 5:99 6:159 #
0.0010000000000000000208166817117217 1:66 2:81 3:3994 4:103 5:95 6:156 #
-0.0010000000000000000208166817117217 1:66 2:75 3:3698 4:81 5:70 6:140 #
0.0010000000000000000208166817117217 1:78 2:91 3:5318 4:109 5:103 6:162 #
0.0010000000000000000208166817117217 1:58 2:73 3:3154 4:87 5:76 6:142 #
0.0010000000000000000208166817117217 1:58 2:73 3:3154 4:87 5:76 6:142 #
0.0010000000000000000208166817117217 1:78 2:91 3:5318 4:109 5:103 6:162 #
-0.0010000000000000000208166817117217 1:44 2:49 3:1584 4:86 5:75 6:141 #
-0.0010000000000000000208166817117217 1:44 2:47 3:1528 4:84 5:78 6:134 #
0.0010000000000000000208166817117217 1:70 2:83 3:4330 4:105 5:96 6:157 #
0.0010000000000000000208166817117217 1:52 2:55 3:2140 4:67 5:56 6:144 #
0.0010000000000000000208166817117217 1:66 2:81 3:3994 4:103 5:95 6:156 #
0.0010000000000000000208166817117217 1:42 2:53 3:1634 4:92 5:80 6:146 #
0.0010000000000000000208166817117217 1:50 2:53 3:1970 4:100 5:90 6:157 #
0.0010000000000000000208166817117217 1:72 2:89 3:4780 4:109 5:103 6:162 #
0.0010000000000000000208166817117217 1:56 2:69 3:2864 4:95 5:86 6:150 #
0.0010000000000000000208166817117217 1:50 2:61 3:2270 4:94 5:83 6:148 #
0.0010000000000000000208166817117217 1:42 2:53 3:1634 4:92 5:80 6:146 #
0.0010000000000000000208166817117217 1:62 2:75 3:3446 4:89 5:78 6:144 #
0.0010000000000000000208166817117217 1:70 2:83 3:4330 4:105 5:96 6:157 #
-0.0010000000000000000208166817117217 1:64 2:67 3:3224 4:81 5:78 6:138 #
0.0010000000000000000208166817117217 1:48 2:55 3:1952 4:88 5:84 6:140 #
0.0010000000000000000208166817117217 1:48 2:55 3:1952 4:88 5:84 6:140 #
0.0010000000000000000208166817117217 1:40 2:43 3:1260 4:41 5:60 6:105 #
0.0010000000000000000208166817117217 1:78 2:91 3:5318 4:109 5:103 6:162 #
-0.0010000000000000000208166817117217 1:66 2:75 3:3698 4:81 5:70 6:140 #
-0.0010000000000000000208166817117217 1:74 2:89 3:4942 4:93 5:86 6:145 #
0.0010000000000000000208166817117217 1:78 2:91 3:5318 4:109 5:103 6:162 #
0.0010000000000000000208166817117217 1:56 2:63 3:2620 4:91 5:82 6:149 #
0.0010000000000000000208166817117217 1:56 2:63 3:2620 4:91 5:82 6:149 #
0.0010000000000000000208166817117217 1:70 2:83 3:4330 4:105 5:96 6:157 #
-0.0010000000000000000208166817117217 1:86 2:101 3:6506 4:103 5:99 6:159 #
0.0010000000000000000208166817117217 1:70 2:83 3:4330 4:105 5:96 6:157 #
0.0010000000000000000208166817117217 1:78 2:91 3:5318 4:109 5:103 6:162 #
-0.0010000000000000000208166817117217 1:42 2:45 3:1398 4:89 5:87 6:146 #
-0.0010000000000000000208166817117217 1:66 2:75 3:3698 4:81 5:70 6:140 #
-0.0010000000000000000208166817117217 1:66 2:75 3:3698 4:81 5:70 6:140 #
-0.0010000000000000000208166817117217 1:78 2:89 3:5194 4:92 5:84 6:143 #
0.0010000000000000000208166817117217 1:72 2:89 3:4780 4:109 5:103 6:162 #
-0.0010000000000000000208166817117217 1:60 2:67 3:2988 4:80 5:67 6:139 #
0.0010000000000000000208166817117217 1:48 2:55 3:1952 4:88 5:84 6:140 #
0.0010000000000000000208166817117217 1:60 2:63 3:2828 4:75 5:67 6:150 #
0.0010000000000000000208166817117217 1:62 2:75 3:3446 4:89 5:78 6:144 #
-0.0010000000000000000208166817117217 1:60 2:67 3:2988 4:80 5:67 6:139 #
-0.0010000000000000000208166817117217 1:60 2:67 3:2988 4:80 5:67 6:139 #
0.0010000000000000000208166817117217 1:46 2:51 3:1738 4:82 5:79 6:140 #
0.0010000000000000000208166817117217 1:70 2:83 3:4330 4:105 5:96 6:157 #
0.0010000000000000000208166817117217 1:78 2:91 3:5318 4:109 5:103 6:162 #
-0.0010000000000000000208166817117217 1:82 2:99 3:6110 4:102 5:97 6:159 #
0.0010000000000000000208166817117217 1:48 2:55 3:1952 4:88 5:84 6:140 #
0.0010000000000000000208166817117217 1:66 2:81 3:3994 4:103 5:95 6:156 #
0.0010000000000000000208166817117217 1:70 2:83 3:4330 4:105 5:96 6:157 #
0.0010000000000000000208166817117217 1:56 2:63 3:2620 4:91 5:82 6:149 #
-0.0010000000000000000208166817117217 1:78 2:89 3:5194 4:92 5:84 6:143 #
0.0010000000000000000208166817117217 1:70 2:83 3:4330 4:105 5:96 6:157 #
-0.0010000000000000000208166817117217 1:80 2:93 3:5584 4:96 5:89 6:152 #
0.0010000000000000000208166817117217 1:48 2:55 3:1952 4:88 5:84 6:140 #
-0.0010000000000000000208166817117217 1:74 2:89 3:4942 4:93 5:86 6:145 #
0.0010000000000000000208166817117217 1:48 2:55 3:1952 4:88 5:84 6:140 #
-0.0010000000000000000208166817117217 1:86 2:101 3:6506 4:103 5:99 6:159 #
-0.0010000000000000000208166817117217 1:86 2:101 3:6506 4:103 5:99 6:159 #
-0.0010000000000000000208166817117217 1:86 2:101 3:6506 4:103 5:99 6:159 #
-0.0010000000000000000208166817117217 1:86 2:101 3:6506 4:103 5:99 6:159 #
-0.0010000000000000000208166817117217 1:74 2:89 3:4942 4:93 5:86 6:145 #
-0.0010000000000000000208166817117217 1:82 2:99 3:6110 4:102 5:97 6:159 #
-0.0010000000000000000208166817117217 1:82 2:99 3:6110 4:102 5:97 6:159 #
0.0010000000000000000208166817117217 1:68 2:79 3:4260 4:114 5:109 6:177 #
-0.0010000000000000000208166817117217 1:50 2:55 3:2038 4:87 5:81 6:139 #
-0.0010000000000000000208166817117217 1:82 2:99 3:6110 4:102 5:97 6:159 #
-0.0010000000000000000208166817117217 1:64 2:67 3:3224 4:81 5:78 6:138 #
0.0010000000000000000208166817117217 1:46 2:51 3:1738 4:82 5:79 6:140 #
0.0010000000000000000208166817117217 1:42 2:49 3:1510 4:86 5:82 6:138 #
0.0010000000000000000208166817117217 1:78 2:91 3:5318 4:109 5:103 6:162 #
0.0010000000000000000208166817117217 1:48 2:55 3:1952 4:88 5:84 6:140 #
-0.0010000000000000000208166817117217 1:74 2:89 3:4942 4:93 5:86 6:145 #
-0.0010000000000000000208166817117217 1:74 2:89 3:4942 4:93 5:86 6:145 #
0.0010000000000000000208166817117217 1:42 2:49 3:1510 4:86 5:82 6:138 #
-0.0010000000000000000208166817117217 1:74 2:89 3:4942 4:93 5:86 6:145 #
-0.0010000000000000000208166817117217 1:74 2:89 3:4942 4:93 5:86 6:145 #
0.0010000000000000000208166817117217 1:44 2:57 3:1844 4:65 5:58 6:143 #
-0.00055156970166572033553720189047453 1:46 2:47 3:1606 4:67 5:54 6:143 #
-0.0010000000000000000208166817117217 1:74 2:89 3:4942 4:93 5:86 6:145 #
-0.0010000000000000000208166817117217 1:44 2:49 3:1584 4:86 5:75 6:141 #
-0.0010000000000000000208166817117217 1:74 2:89 3:4942 4:93 5:86 6:145 #
0.0010000000000000000208166817117217 1:48 2:55 3:1952 4:88 5:84 6:140 #
-0.0010000000000000000208166817117217 1:44 2:47 3:1528 4:84 5:78 6:134 #
-0.0010000000000000000208166817117217 1:80 2:93 3:5584 4:96 5:89 6:152 #
-0.0010000000000000000208166817117217 1:86 2:101 3:6506 4:103 5:99 6:159 #
-0.00034203745838343180274421229114523 1:86 2:105 3:6896 4:86 5:82 6:139 #
-0.0010000000000000000208166817117217 1:74 2:89 3:4942 4:93 5:86 6:145 #
-0.0010000000000000000208166817117217 1:44 2:49 3:1584 4:86 5:75 6:141 #
0.0010000000000000000208166817117217 1:44 2:57 3:1844 4:65 5:58 6:143 #
-0.0010000000000000000208166817117217 1:60 2:67 3:2988 4:80 5:67 6:139 #
0.0010000000000000000208166817117217 1:66 2:81 3:3994 4:103 5:95 6:156 #
0.0010000000000000000208166817117217 1:52 2:61 3:2344 4:105 5:94 6:164 #
0.0010000000000000000208166817117217 1:64 2:71 3:3492 4:107 5:101 6:171 #
0.0010000000000000000208166817117217 1:44 2:57 3:1844 4:65 5:58 6:143 #
-0.0010000000000000000208166817117217 1:78 2:89 3:5194 4:92 5:84 6:143 #
-0.0010000000000000000208166817117217 1:80 2:93 3:5584 4:96 5:89 6:152 #
0.0010000000000000000208166817117217 1:64 2:71 3:3492 4:107 5:101 6:171 #
0.0010000000000000000208166817117217 1:72 2:83 3:4480 4:104 5:102 6:171 #
0.0010000000000000000208166817117217 1:52 2:61 3:2344 4:105 5:94 6:164 #
0.0010000000000000000208166817117217 1:44 2:57 3:1844 4:65 5:58 6:143 #
0.0010000000000000000208166817117217 1:44 2:57 3:1844 4:65 5:58 6:143 #
0.0010000000000000000208166817117217 1:52 2:61 3:2344 4:105 5:94 6:164 #
-0.0010000000000000000208166817117217 1:66 2:75 3:3698 4:81 5:70 6:140 #
-0.0010000000000000000208166817117217 1:60 2:67 3:2988 4:80 5:67 6:139 #
0.0010000000000000000208166817117217 1:66 2:81 3:3994 4:103 5:95 6:156 #
0.0010000000000000000208166817117217 1:72 2:89 3:4780 4:109 5:103 6:162 #
0.0010000000000000000208166817117217 1:52 2:61 3:2344 4:105 5:94 6:164 #
0.0010000000000000000208166817117217 1:44 2:57 3:1844 4:65 5:58 6:143 #
0.0010000000000000000208166817117217 1:64 2:71 3:3492 4:107 5:101 6:171 #
0.0010000000000000000208166817117217 1:68 2:79 3:4260 4:114 5:109 6:177 #
0.0010000000000000000208166817117217 1:72 2:89 3:4780 4:109 5:103 6:162 #
0.0010000000000000000208166817117217 1:72 2:89 3:4780 4:109 5:103 6:162 #
0.0010000000000000000208166817117217 1:64 2:71 3:3492 4:107 5:101 6:171 #
-0.0010000000000000000208166817117217 1:80 2:93 3:5584 4:96 5:89 6:152 #
-0.0010000000000000000208166817117217 1:78 2:89 3:5194 4:92 5:84 6:143 #
-0.0010000000000000000208166817117217 1:80 2:93 3:5584 4:96 5:89 6:152 #
0.0007435971402027869098586010387919 1:72 2:83 3:4472 4:104 5:102 6:171 #
-0.0010000000000000000208166817117217 1:80 2:93 3:5584 4:96 5:89 6:152 #
0.0010000000000000000208166817117217 1:66 2:81 3:3994 4:103 5:95 6:156 #
-0.0010000000000000000208166817117217 1:80 2:93 3:5584 4:96 5:89 6:152 #
-0.0010000000000000000208166817117217 1:80 2:93 3:5584 4:96 5:89 6:152 #
-0.0010000000000000000208166817117217 1:78 2:89 3:5194 4:92 5:84 6:143 #
-0.0010000000000000000208166817117217 1:78 2:89 3:5194 4:92 5:84 6:143 #
-0.00099999996731540020250550426794689 1:78 2:89 3:5194 4:92 5:84 6:143 #
-0.00036718960275464840965417567808515 1:78 2:89 3:5194 4:92 5:84 6:143 #
-0.0010000000000000000208166817117217 1:78 2:89 3:5194 4:92 5:84 6:143 #
-0.0010000000000000000208166817117217 1:78 2:89 3:5194 4:92 5:84 6:143 #
-0.0010000000000000000208166817117217 1:78 2:89 3:5194 4:92 5:84 6:143 #
0.0010000000000000000208166817117217 1:54 2:59 3:2366 4:42 5:61 6:106 #
0.0010000000000000000208166817117217 1:54 2:59 3:2366 4:42 5:61 6:106 #
-3.3603064027531374512863804326912e-05 1:46 2:47 3:1606 4:67 5:54 6:143 #
4.5691609661959418919874309494844e-11 1:72 2:83 3:4472 4:104 5:102 6:171 #
