SVM-light Version V6.02
0 # kernel type
3 # kernel parameter -d 
1 # kernel parameter -g 
1 # kernel parameter -s 
1 # kernel parameter -r 
empty# kernel parameter -u 
6 # highest feature index 
1068 # number of training documents 
937 # number of support vectors plus 1 
0.80399277 # threshold b, each following line is a SV (starting with alpha*y)
-0.10000000000000000555111512312578 1:62 2:71 3:4131 4:148 5:98 6:112 #
-0.059695165916965858832199387506989 1:86 2:101 3:8084 4:128 5:80 6:83 #
-0.10000000000000000555111512312578 1:16 2:25 3:400 4:181 5:172 6:167 #
0.10000000000000000555111512312578 1:98 2:99 3:9140 4:115 5:66 6:74 #
-0.10000000000000000555111512312578 1:66 2:79 3:4952 4:128 5:74 6:87 #
0.10000000000000000555111512312578 1:22 2:23 3:506 4:131 5:35 6:58 #
0.10000000000000000555111512312578 1:16 2:27 3:431 4:171 5:93 6:111 #
0.10000000000000000555111512312578 1:28 2:29 3:809 4:104 5:43 6:53 #
-0.10000000000000000555111512312578 1:32 2:37 3:1175 4:101 5:19 6:25 #
-0.10000000000000000555111512312578 1:50 2:63 3:3028 4:183 5:167 6:162 #
-0.10000000000000000555111512312578 1:30 2:41 3:1223 4:181 5:171 6:165 #
0.10000000000000000555111512312578 1:86 2:97 3:7869 4:115 5:69 6:74 #
-0.10000000000000000555111512312578 1:54 2:61 3:3158 4:145 5:86 6:92 #
-0.10000000000000000555111512312578 1:28 2:39 3:1081 4:125 5:66 6:79 #
0.10000000000000000555111512312578 1:43 2:73 3:2984 4:205 5:196 6:191 #
-0.10000000000000000555111512312578 1:52 2:57 3:2861 4:115 5:68 6:57 #
0.10000000000000000555111512312578 1:24 2:25 3:598 4:126 5:71 6:85 #
-0.10000000000000000555111512312578 1:70 2:85 3:5465 4:138 5:84 6:97 #
0.10000000000000000555111512312578 1:50 2:53 3:2561 4:108 5:61 6:63 #
0.10000000000000000555111512312578 1:70 2:83 3:5331 4:128 5:79 6:85 #
-0.10000000000000000555111512312578 1:16 2:27 3:432 4:105 5:56 6:64 #
-0.10000000000000000555111512312578 1:52 2:57 3:2861 4:115 5:68 6:57 #
0.10000000000000000555111512312578 1:26 2:27 3:673 4:187 5:186 6:185 #
0.10000000000000000555111512312578 1:80 2:97 3:7439 4:112 5:67 6:71 #
0.10000000000000000555111512312578 1:50 2:59 3:2871 4:126 5:79 6:72 #
0.10000000000000000555111512312578 1:24 2:29 3:693 4:160 5:84 6:88 #
-0.10000000000000000555111512312578 1:26 2:27 3:702 4:162 5:72 6:74 #
0.10000000000000000555111512312578 1:22 2:29 3:636 4:136 5:75 6:92 #
-0.10000000000000000555111512312578 1:72 2:91 3:6008 4:116 5:67 6:75 #
0.10000000000000000555111512312578 1:23 2:53 3:1194 4:109 5:70 6:61 #
-0.10000000000000000555111512312578 1:50 2:57 3:2761 4:182 5:167 6:162 #
-0.10000000000000000555111512312578 1:28 2:33 3:911 4:101 5:15 6:21 #
-0.10000000000000000555111512312578 1:24 2:25 3:596 4:166 5:89 6:106 #
-0.10000000000000000555111512312578 1:52 2:59 3:2919 4:150 5:96 6:110 #
-0.10000000000000000555111512312578 1:42 2:43 3:1772 4:139 5:72 6:101 #
-0.10000000000000000555111512312578 1:46 2:57 3:2494 4:144 5:89 6:108 #
-0.10000000000000000555111512312578 1:28 2:33 3:923 4:142 5:47 6:15 #
-0.10000000000000000555111512312578 1:24 2:29 3:692 4:172 5:86 6:93 #
-0.10000000000000000555111512312578 1:48 2:61 3:2869 4:101 5:50 6:65 #
0.10000000000000000555111512312578 1:68 2:81 3:5138 4:140 5:84 6:98 #
0.10000000000000000555111512312578 1:88 2:101 3:8072 4:128 5:70 6:69 #
-0.10000000000000000555111512312578 1:68 2:81 3:5172 4:137 5:82 6:95 #
0.10000000000000000555111512312578 1:26 2:37 3:959 4:117 5:18 6:43 #
-0.10000000000000000555111512312578 1:21 2:45 3:929 4:107 5:67 6:56 #
-0.10000000000000000555111512312578 1:70 2:85 3:5465 4:138 5:84 6:97 #
0.10000000000000000555111512312578 1:34 2:47 3:1579 4:151 5:84 6:110 #
0.10000000000000000555111512312578 1:26 2:27 3:700 4:173 5:82 6:102 #
-0.10000000000000000555111512312578 1:44 2:51 3:2182 4:143 5:75 6:102 #
0.10000000000000000555111512312578 1:40 2:43 3:1711 4:118 5:74 6:67 #
-0.10000000000000000555111512312578 1:30 2:43 3:1248 4:110 5:61 6:66 #
0.10000000000000000555111512312578 1:48 2:55 3:2617 4:170 5:129 6:124 #
-0.10000000000000000555111512312578 1:44 2:49 3:2076 4:186 5:174 6:164 #
0.10000000000000000555111512312578 1:34 2:47 3:1559 4:110 5:60 6:70 #
0.10000000000000000555111512312578 1:42 2:49 3:2041 4:180 5:97 6:115 #
0.10000000000000000555111512312578 1:42 2:45 3:1856 4:120 5:47 6:54 #
0.10000000000000000555111512312578 1:58 2:69 3:3692 4:163 5:105 6:119 #
-0.10000000000000000555111512312578 1:49 2:67 3:2932 4:205 5:188 6:188 #
-0.10000000000000000555111512312578 1:24 2:35 3:818 4:119 5:56 6:73 #
-0.10000000000000000555111512312578 1:52 2:65 3:3230 4:128 5:68 6:84 #
0.10000000000000000555111512312578 1:62 2:79 3:4641 4:109 5:60 6:70 #
0.10000000000000000555111512312578 1:76 2:93 3:6335 4:124 5:75 6:81 #
0.10000000000000000555111512312578 1:36 2:39 3:1368 4:166 5:108 6:133 #
-0.10000000000000000555111512312578 1:26 2:27 3:700 4:176 5:162 6:152 #
-0.10000000000000000555111512312578 1:52 2:65 3:3230 4:128 5:68 6:84 #
0.10000000000000000555111512312578 1:32 2:41 3:1308 4:122 5:72 6:62 #
-0.10000000000000000555111512312578 1:22 2:33 3:721 4:148 5:95 6:116 #
0.10000000000000000555111512312578 1:48 2:55 3:2552 4:108 5:65 6:68 #
0.10000000000000000555111512312578 1:26 2:29 3:753 4:151 5:53 6:40 #
0.10000000000000000555111512312578 1:58 2:69 3:3866 4:84 5:48 6:37 #
-0.10000000000000000555111512312578 1:42 2:49 3:2044 4:114 5:66 6:54 #
-0.10000000000000000555111512312578 1:48 2:57 3:2708 4:132 5:62 6:85 #
0.10000000000000000555111512312578 1:68 2:79 3:5120 4:148 5:94 6:95 #
-0.10000000000000000555111512312578 1:28 2:31 3:867 4:154 5:74 6:97 #
-0.10000000000000000555111512312578 1:28 2:33 3:923 4:142 5:47 6:15 #
-0.10000000000000000555111512312578 1:28 2:33 3:923 4:142 5:47 6:15 #
-0.10000000000000000555111512312578 1:36 2:41 3:1403 4:185 5:171 6:160 #
0.10000000000000000555111512312578 1:28 2:29 3:810 4:153 5:78 6:83 #
0.10000000000000000555111512312578 1:32 2:37 3:1177 4:107 5:41 6:35 #
0.10000000000000000555111512312578 1:53 2:61 3:3113 4:126 5:78 6:69 #
-0.10000000000000000555111512312578 1:54 2:61 3:3124 4:191 5:177 6:169 #
-0.10000000000000000555111512312578 1:32 2:35 3:1094 4:181 5:167 6:156 #
-0.10000000000000000555111512312578 1:44 2:47 3:1906 4:201 5:200 6:198 #
-0.10000000000000000555111512312578 1:38 2:45 3:1683 4:133 5:88 6:80 #
-0.10000000000000000555111512312578 1:34 2:39 3:1301 4:183 5:172 6:165 #
0.10000000000000000555111512312578 1:40 2:47 3:1834 4:131 5:74 6:90 #
-0.10000000000000000555111512312578 1:42 2:55 3:2231 4:182 5:167 6:162 #
0.10000000000000000555111512312578 1:62 2:71 3:4171 4:183 5:142 6:137 #
0.10000000000000000555111512312578 1:16 2:27 3:432 4:132 5:43 6:19 #
-0.10000000000000000555111512312578 1:48 2:51 3:2367 4:109 5:62 6:64 #
0.10000000000000000555111512312578 1:48 2:53 3:2406 4:157 5:98 6:113 #
-0.10000000000000000555111512312578 1:46 2:47 3:2158 4:169 5:98 6:68 #
-0.10000000000000000555111512312578 1:60 2:73 3:4198 4:132 5:75 6:89 #
-0.10000000000000000555111512312578 1:70 2:79 3:5217 4:132 5:79 6:92 #
0.10000000000000000555111512312578 1:56 2:65 3:3504 4:114 5:58 6:62 #
-0.10000000000000000555111512312578 1:44 2:47 3:2040 4:135 5:78 6:84 #
-0.10000000000000000555111512312578 1:38 2:49 3:1827 4:134 5:77 6:96 #
0.10000000000000000555111512312578 1:50 2:75 3:3458 4:219 5:217 6:215 #
-0.10000000000000000555111512312578 1:42 2:55 3:2231 4:182 5:167 6:162 #
0.10000000000000000555111512312578 1:32 2:35 3:1102 4:130 5:74 6:83 #
0.10000000000000000555111512312578 1:40 2:53 3:2047 4:102 5:56 6:56 #
0.10000000000000000555111512312578 1:26 2:27 3:701 4:163 5:94 6:89 #
0.10000000000000000555111512312578 1:68 2:79 3:5030 4:112 5:62 6:71 #
-0.10000000000000000555111512312578 1:50 2:53 3:2602 4:156 5:80 6:109 #
-0.10000000000000000555111512312578 1:42 2:47 3:1901 4:190 5:188 6:184 #
0.10000000000000000555111512312578 1:36 2:37 3:1304 4:103 5:17 6:23 #
0.10000000000000000555111512312578 1:36 2:47 3:1655 4:156 5:86 6:107 #
-0.10000000000000000555111512312578 1:22 2:29 3:634 4:174 5:87 6:95 #
-0.10000000000000000555111512312578 1:62 2:73 3:4314 4:121 5:71 6:84 #
0.10000000000000000555111512312578 1:24 2:35 3:820 4:149 5:84 6:93 #
0.10000000000000000555111512312578 1:50 2:53 3:2579 4:154 5:99 6:110 #
0.10000000000000000555111512312578 1:26 2:29 3:750 4:160 5:86 6:93 #
-0.10000000000000000555111512312578 1:20 2:23 3:449 4:174 5:164 6:158 #
0.10000000000000000555111512312578 1:53 2:75 3:3631 4:206 5:188 6:188 #
-0.10000000000000000555111512312578 1:56 2:65 3:3467 4:185 5:168 6:163 #
-0.10000000000000000555111512312578 1:50 2:63 3:3028 4:183 5:167 6:162 #
0.10000000000000000555111512312578 1:32 2:37 3:1176 4:130 5:86 6:78 #
-0.10000000000000000555111512312578 1:34 2:39 3:1292 4:183 5:172 6:165 #
0.10000000000000000555111512312578 1:58 2:69 3:3866 4:84 5:48 6:37 #
0.062167052684593215872155269607902 1:40 2:43 3:1703 4:123 5:71 6:62 #
-0.10000000000000000555111512312578 1:38 2:41 3:1550 4:148 5:85 6:69 #
-0.10000000000000000555111512312578 1:48 2:55 3:2511 4:191 5:178 6:169 #
-0.10000000000000000555111512312578 1:56 2:71 3:3762 4:122 5:64 6:74 #
-0.10000000000000000555111512312578 1:38 2:45 3:1683 4:133 5:88 6:80 #
0.034330463758399432094847725238651 1:50 2:57 3:2791 4:174 5:134 6:128 #
-0.10000000000000000555111512312578 1:26 2:27 3:700 4:176 5:162 6:152 #
-0.10000000000000000555111512312578 1:32 2:35 3:1077 4:185 5:171 6:163 #
0.10000000000000000555111512312578 1:37 2:45 3:1661 4:114 5:39 6:30 #
0.10000000000000000555111512312578 1:69 2:87 3:5458 4:172 5:119 6:139 #
-0.10000000000000000555111512312578 1:32 2:35 3:1105 4:180 5:168 6:159 #
0.10000000000000000555111512312578 1:38 2:45 3:1691 4:119 5:73 6:71 #
0.10000000000000000555111512312578 1:26 2:27 3:701 4:163 5:94 6:89 #
-0.10000000000000000555111512312578 1:46 2:61 3:2746 4:102 5:57 6:58 #
-0.10000000000000000555111512312578 1:30 2:43 3:1279 4:120 5:53 6:67 #
0.10000000000000000555111512312578 1:58 2:65 3:3677 4:115 5:75 6:65 #
-0.10000000000000000555111512312578 1:36 2:37 3:1316 4:171 5:101 6:83 #
-0.10000000000000000555111512312578 1:20 2:25 3:500 4:155 5:24 6:31 #
-0.10000000000000000555111512312578 1:40 2:43 3:1715 4:162 5:90 6:86 #
-0.10000000000000000555111512312578 1:24 2:29 3:695 4:130 5:85 6:77 #
-0.10000000000000000555111512312578 1:58 2:71 3:3930 4:183 5:165 6:160 #
0.10000000000000000555111512312578 1:34 2:41 3:1362 4:173 5:90 6:110 #
0.10000000000000000555111512312578 1:78 2:91 3:6654 4:129 5:83 6:88 #
0.10000000000000000555111512312578 1:30 2:43 3:1273 4:168 5:92 6:109 #
0.10000000000000000555111512312578 1:40 2:43 3:1715 4:162 5:90 6:86 #
-0.10000000000000000555111512312578 1:54 2:57 3:2956 4:132 5:80 6:86 #
0.10000000000000000555111512312578 1:60 2:73 3:4173 4:128 5:66 6:73 #
0.10000000000000000555111512312578 1:28 2:35 3:970 4:151 5:76 6:97 #
0.10000000000000000555111512312578 1:42 2:49 3:2032 4:149 5:76 6:95 #
-0.10000000000000000555111512312578 1:32 2:37 3:1182 4:136 5:76 6:81 #
-0.10000000000000000555111512312578 1:42 2:49 3:2040 4:173 5:87 6:111 #
0.10000000000000000555111512312578 1:48 2:57 3:2695 4:122 5:74 6:67 #
0.10000000000000000555111512312578 1:50 2:75 3:3458 4:219 5:217 6:215 #
-0.10000000000000000555111512312578 1:28 2:29 3:812 4:171 5:87 6:111 #
0.10000000000000000555111512312578 1:36 2:41 3:1419 4:152 5:94 6:108 #
-0.10000000000000000555111512312578 1:30 2:43 3:1273 4:94 5:45 6:51 #
-0.10000000000000000555111512312578 1:42 2:45 3:1862 4:110 5:66 6:67 #
-0.10000000000000000555111512312578 1:68 2:85 3:5287 4:154 5:102 6:110 #
0.10000000000000000555111512312578 1:36 2:37 3:1267 4:156 5:100 6:122 #
-0.10000000000000000555111512312578 1:24 2:29 3:695 4:130 5:85 6:77 #
-0.085106350606898306665470954612829 1:28 2:29 3:811 4:172 5:81 6:106 #
-0.10000000000000000555111512312578 1:22 2:29 3:632 4:145 5:100 6:96 #
-0.10000000000000000555111512312578 1:82 2:99 3:7662 4:127 5:78 6:82 #
-0.10000000000000000555111512312578 1:26 2:27 3:699 4:132 5:74 6:84 #
-0.10000000000000000555111512312578 1:58 2:69 3:3798 4:154 5:94 6:106 #
0.10000000000000000555111512312578 1:38 2:41 3:1522 4:151 5:84 6:99 #
-0.10000000000000000555111512312578 1:34 2:35 3:1159 4:108 5:59 6:65 #
-0.10000000000000000555111512312578 1:62 2:73 3:4093 4:165 5:120 6:133 #
-0.10000000000000000555111512312578 1:30 2:35 3:1028 4:148 5:85 6:94 #
0.10000000000000000555111512312578 1:60 2:71 3:4058 4:127 5:69 6:83 #
-0.10000000000000000555111512312578 1:36 2:37 3:1294 4:116 5:71 6:71 #
0.10000000000000000555111512312578 1:42 2:45 3:1823 4:151 5:93 6:104 #
-0.10000000000000000555111512312578 1:48 2:57 3:2695 4:122 5:74 6:67 #
0.10000000000000000555111512312578 1:50 2:53 3:2563 4:125 5:56 6:61 #
0.10000000000000000555111512312578 1:26 2:27 3:699 4:132 5:74 6:84 #
0.10000000000000000555111512312578 1:30 2:43 3:1279 4:118 5:62 6:74 #
-0.10000000000000000555111512312578 1:53 2:61 3:3113 4:126 5:78 6:69 #
0.10000000000000000555111512312578 1:38 2:41 3:1523 4:132 5:71 6:91 #
0.10000000000000000555111512312578 1:34 2:41 3:1363 4:138 5:93 6:106 #
0.10000000000000000555111512312578 1:36 2:37 3:1309 4:145 5:83 6:97 #
0.10000000000000000555111512312578 1:66 2:71 3:4417 4:187 5:147 6:141 #
0.10000000000000000555111512312578 1:66 2:79 3:5015 4:121 5:71 6:79 #
-0.10000000000000000555111512312578 1:36 2:41 3:1436 4:102 5:21 6:27 #
0.10000000000000000555111512312578 1:32 2:41 3:1295 4:161 5:87 6:104 #
0.10000000000000000555111512312578 1:66 2:71 3:4417 4:187 5:147 6:141 #
-0.10000000000000000555111512312578 1:28 2:31 3:867 4:175 5:71 6:86 #
-0.10000000000000000555111512312578 1:60 2:77 3:4354 4:151 5:102 6:110 #
0.10000000000000000555111512312578 1:32 2:45 3:1426 4:120 5:32 6:54 #
0.10000000000000000555111512312578 1:34 2:41 3:1362 4:173 5:90 6:110 #
-0.10000000000000000555111512312578 1:40 2:53 3:2078 4:123 5:68 6:50 #
-0.10000000000000000555111512312578 1:36 2:37 3:1305 4:115 5:38 6:49 #
0.10000000000000000555111512312578 1:40 2:45 3:1747 4:172 5:129 6:124 #
-0.10000000000000000555111512312578 1:42 2:43 3:1779 4:117 5:57 6:68 #
0.10000000000000000555111512312578 1:30 2:31 3:929 4:151 5:20 6:53 #
0.10000000000000000555111512312578 1:46 2:49 3:2199 4:157 5:104 6:115 #
-0.10000000000000000555111512312578 1:26 2:31 3:806 4:142 5:46 6:60 #
-0.10000000000000000555111512312578 1:36 2:37 3:1305 4:115 5:38 6:49 #
-0.10000000000000000555111512312578 1:48 2:57 3:2708 4:132 5:62 6:85 #
0.10000000000000000555111512312578 1:84 2:101 3:7726 4:127 5:80 6:83 #
0.10000000000000000555111512312578 1:34 2:47 3:1573 4:156 5:87 6:108 #
0.10000000000000000555111512312578 1:38 2:41 3:1522 4:151 5:84 6:99 #
-0.10000000000000000555111512312578 1:34 2:39 3:1309 4:137 5:83 6:87 #
-0.10000000000000000555111512312578 1:22 2:29 3:634 4:174 5:87 6:95 #
-0.10000000000000000555111512312578 1:36 2:37 3:1314 4:176 5:83 6:110 #
0.10000000000000000555111512312578 1:38 2:41 3:1523 4:132 5:71 6:91 #
-0.10000000000000000555111512312578 1:68 2:83 3:5320 4:130 5:80 6:92 #
-0.10000000000000000555111512312578 1:64 2:83 3:5077 4:119 5:61 6:72 #
0.10000000000000000555111512312578 1:44 2:49 3:2132 4:144 5:75 6:103 #
0.10000000000000000555111512312578 1:28 2:31 3:865 4:163 5:103 6:129 #
0.10000000000000000555111512312578 1:32 2:37 3:1175 4:125 5:60 6:78 #
0.10000000000000000555111512312578 1:36 2:45 3:1580 4:137 5:70 6:76 #
-0.10000000000000000555111512312578 1:48 2:53 3:2469 4:129 5:75 6:90 #
0.10000000000000000555111512312578 1:66 2:77 3:4568 4:171 5:115 6:128 #
0.10000000000000000555111512312578 1:38 2:45 3:1669 4:143 5:78 6:84 #
0.10000000000000000555111512312578 1:54 2:63 3:3363 4:114 5:49 6:58 #
0.10000000000000000555111512312578 1:36 2:41 3:1414 4:155 5:61 6:76 #
0.10000000000000000555111512312578 1:34 2:47 3:1573 4:156 5:87 6:108 #
0.00193050247876525027379557286622 1:26 2:29 3:749 4:120 5:48 6:31 #
-0.10000000000000000555111512312578 1:32 2:35 3:1102 4:130 5:74 6:83 #
0.10000000000000000555111512312578 1:36 2:37 3:1313 4:114 5:67 6:71 #
-0.10000000000000000555111512312578 1:34 2:39 3:1309 4:137 5:83 6:87 #
0.10000000000000000555111512312578 1:32 2:35 3:1116 4:112 5:66 6:59 #
0.10000000000000000555111512312578 1:34 2:41 3:1381 4:160 5:90 6:86 #
-0.10000000000000000555111512312578 1:28 2:33 3:914 4:132 5:77 6:88 #
-0.10000000000000000555111512312578 1:62 2:69 3:4002 4:192 5:178 6:170 #
0.10000000000000000555111512312578 1:34 2:37 3:1241 4:148 5:80 6:95 #
0.10000000000000000555111512312578 1:34 2:41 3:1381 4:160 5:90 6:86 #
0.10000000000000000555111512312578 1:40 2:47 3:1834 4:131 5:74 6:90 #
0.10000000000000000555111512312578 1:36 2:45 3:1580 4:137 5:70 6:76 #
-0.10000000000000000555111512312578 1:69 2:87 3:5458 4:172 5:119 6:139 #
-0.10000000000000000555111512312578 1:24 2:29 3:695 4:130 5:85 6:77 #
0.10000000000000000555111512312578 1:88 2:101 3:8072 4:128 5:70 6:69 #
-0.10000000000000000555111512312578 1:64 2:73 3:4413 4:185 5:166 6:161 #
-0.10000000000000000555111512312578 1:31 2:39 3:1207 4:153 5:95 6:118 #
-0.10000000000000000555111512312578 1:30 2:35 3:1028 4:148 5:85 6:94 #
0.10000000000000000555111512312578 1:28 2:29 3:808 4:128 5:81 6:70 #
-0.10000000000000000555111512312578 1:24 2:25 3:596 4:166 5:89 6:106 #
0.10000000000000000555111512312578 1:38 2:43 3:1605 4:136 5:76 6:84 #
-0.10000000000000000555111512312578 1:62 2:79 3:4576 4:132 5:81 6:94 #
0.10000000000000000555111512312578 1:36 2:39 3:1358 4:141 5:54 6:77 #
0.10000000000000000555111512312578 1:32 2:37 3:1172 4:177 5:88 6:96 #
-0.10000000000000000555111512312578 1:22 2:23 3:505 4:172 5:69 6:83 #
-0.10000000000000000555111512312578 1:42 2:45 3:1879 4:176 5:84 6:111 #
-0.10000000000000000555111512312578 1:32 2:37 3:1176 4:130 5:86 6:78 #
0.10000000000000000555111512312578 1:28 2:31 3:865 4:163 5:103 6:129 #
-0.10000000000000000555111512312578 1:36 2:43 3:1517 4:120 5:51 6:59 #
0.10000000000000000555111512312578 1:34 2:41 3:1360 4:133 5:73 6:91 #
0.10000000000000000555111512312578 1:34 2:39 3:1310 4:130 5:64 6:82 #
-0.10000000000000000555111512312578 1:38 2:45 3:1674 4:165 5:86 6:102 #
-0.10000000000000000555111512312578 1:40 2:41 3:1631 4:134 5:69 6:85 #
0.10000000000000000555111512312578 1:38 2:45 3:1672 4:138 5:70 6:76 #
-0.10000000000000000555111512312578 1:42 2:44 3:1827 4:121 5:85 6:75 #
-0.10000000000000000555111512312578 1:36 2:37 3:1294 4:116 5:71 6:71 #
-0.10000000000000000555111512312578 1:36 2:43 3:1517 4:120 5:51 6:59 #
-0.10000000000000000555111512312578 1:30 2:35 3:1028 4:148 5:85 6:94 #
0.10000000000000000555111512312578 1:34 2:41 3:1377 4:177 5:94 6:112 #
0.10000000000000000555111512312578 1:26 2:27 3:677 4:185 5:183 6:182 #
0.10000000000000000555111512312578 1:36 2:41 3:1427 4:150 5:92 6:106 #
0.10000000000000000555111512312578 1:34 2:41 3:1373 4:151 5:77 6:100 #
0.10000000000000000555111512312578 1:30 2:37 3:1101 4:130 5:72 6:88 #
-0.10000000000000000555111512312578 1:60 2:69 3:3959 4:134 5:78 6:94 #
-0.10000000000000000555111512312578 1:50 2:51 3:2434 4:106 5:46 6:61 #
0.10000000000000000555111512312578 1:28 2:29 3:810 4:174 5:87 6:107 #
-0.10000000000000000555111512312578 1:40 2:45 3:1768 4:118 5:70 6:58 #
0.10000000000000000555111512312578 1:44 2:49 3:2125 4:104 5:61 6:65 #
0.10000000000000000555111512312578 1:30 2:35 3:1030 4:114 5:71 6:69 #
-0.10000000000000000555111512312578 1:32 2:33 3:1050 4:153 5:73 6:97 #
-0.10000000000000000555111512312578 1:30 2:37 3:1094 4:179 5:90 6:97 #
-0.10000000000000000555111512312578 1:24 2:29 3:692 4:172 5:86 6:93 #
0.10000000000000000555111512312578 1:40 2:49 3:1934 4:97 5:33 6:40 #
-0.10000000000000000555111512312578 1:49 2:67 3:2932 4:205 5:188 6:188 #
-0.10000000000000000555111512312578 1:22 2:29 3:634 4:174 5:87 6:95 #
-0.10000000000000000555111512312578 1:22 2:23 3:505 4:172 5:69 6:83 #
-0.10000000000000000555111512312578 1:38 2:43 3:1604 4:142 5:62 6:78 #
0.10000000000000000555111512312578 1:40 2:55 3:2033 4:170 5:107 6:127 #
-0.10000000000000000555111512312578 1:34 2:37 3:1245 4:176 5:83 6:110 #
0.10000000000000000555111512312578 1:38 2:49 3:1834 4:150 5:87 6:100 #
-0.10000000000000000555111512312578 1:38 2:45 3:1672 4:138 5:70 6:76 #
0.10000000000000000555111512312578 1:30 2:43 3:1273 4:168 5:92 6:109 #
-0.10000000000000000555111512312578 1:42 2:45 3:1765 4:166 5:113 6:133 #
-0.10000000000000000555111512312578 1:56 2:71 3:3771 4:126 5:70 6:84 #
0.10000000000000000555111512312578 1:26 2:27 3:699 4:132 5:74 6:84 #
-0.10000000000000000555111512312578 1:72 2:85 3:5641 4:119 5:65 6:72 #
0.10000000000000000555111512312578 1:40 2:41 3:1628 4:158 5:76 6:100 #
-0.10000000000000000555111512312578 1:54 2:65 3:3320 4:152 5:104 6:118 #
0.10000000000000000555111512312578 1:58 2:69 3:3471 4:193 5:175 6:177 #
0.10000000000000000555111512312578 1:28 2:29 3:804 4:136 5:102 6:106 #
-0.10000000000000000555111512312578 1:42 2:45 3:1862 4:110 5:66 6:67 #
-0.10000000000000000555111512312578 1:36 2:41 3:1443 4:127 5:72 6:88 #
0.10000000000000000555111512312578 1:36 2:39 3:1368 4:166 5:108 6:133 #
-0.10000000000000000555111512312578 1:44 2:55 3:2265 4:168 5:104 6:124 #
-0.10000000000000000555111512312578 1:36 2:37 3:1294 4:116 5:71 6:71 #
-0.10000000000000000555111512312578 1:30 2:41 3:1215 4:149 5:96 6:109 #
0.10000000000000000555111512312578 1:36 2:37 3:1304 4:106 5:43 6:54 #
0.10000000000000000555111512312578 1:60 2:69 3:3977 4:108 5:55 6:50 #
0.10000000000000000555111512312578 1:38 2:41 3:1552 4:133 5:64 6:78 #
0.10000000000000000555111512312578 1:36 2:41 3:1437 4:175 5:91 6:111 #
-0.10000000000000000555111512312578 1:34 2:37 3:1238 4:179 5:91 6:111 #
-0.10000000000000000555111512312578 1:38 2:41 3:1522 4:151 5:84 6:99 #
0.10000000000000000555111512312578 1:26 2:27 3:698 4:176 5:87 6:123 #
-0.10000000000000000555111512312578 1:52 2:57 3:2805 4:154 5:90 6:104 #
-0.10000000000000000555111512312578 1:68 2:81 3:5172 4:137 5:82 6:95 #
-0.10000000000000000555111512312578 1:28 2:33 3:914 4:105 5:57 6:64 #
0.10000000000000000555111512312578 1:42 2:47 3:1951 4:134 5:82 6:81 #
0.10000000000000000555111512312578 1:40 2:43 3:1715 4:162 5:90 6:86 #
0.10000000000000000555111512312578 1:36 2:37 3:1308 4:176 5:88 6:121 #
-0.10000000000000000555111512312578 1:56 2:69 3:3682 4:113 5:62 6:76 #
-0.10000000000000000555111512312578 1:44 2:49 3:2137 4:113 5:66 6:54 #
0.10000000000000000555111512312578 1:72 2:83 3:5447 4:145 5:89 6:104 #
-0.10000000000000000555111512312578 1:38 2:45 3:1703 4:100 5:25 6:30 #
-0.10000000000000000555111512312578 1:38 2:45 3:1648 4:150 5:82 6:95 #
-0.10000000000000000555111512312578 1:44 2:51 3:2171 4:122 5:54 6:59 #
0.10000000000000000555111512312578 1:66 2:67 3:4224 4:114 5:61 6:77 #
0.10000000000000000555111512312578 1:40 2:45 3:1791 4:100 5:25 6:32 #
0.10000000000000000555111512312578 1:44 2:51 3:2182 4:143 5:75 6:102 #
-0.10000000000000000555111512312578 1:38 2:45 3:1672 4:138 5:70 6:76 #
0.10000000000000000555111512312578 1:44 2:45 3:1947 4:150 5:83 6:99 #
0.10000000000000000555111512312578 1:54 2:69 3:3457 4:150 5:99 6:113 #
-0.10000000000000000555111512312578 1:36 2:39 3:1377 4:179 5:73 6:88 #
0.10000000000000000555111512312578 1:48 2:53 3:2403 4:137 5:74 6:88 #
0.10000000000000000555111512312578 1:40 2:49 3:1934 4:97 5:33 6:40 #
0.011831563403055696259702500583444 1:26 2:29 3:749 4:120 5:48 6:31 #
0.10000000000000000555111512312578 1:40 2:45 3:1783 4:98 5:23 6:26 #
0.10000000000000000555111512312578 1:46 2:47 3:2124 4:119 5:57 6:76 #
0.10000000000000000555111512312578 1:37 2:81 3:2867 4:198 5:187 6:182 #
0.10000000000000000555111512312578 1:30 2:37 3:1094 4:179 5:90 6:97 #
-0.10000000000000000555111512312578 1:36 2:43 3:1504 4:120 5:47 6:54 #
-0.10000000000000000555111512312578 1:58 2:65 3:3484 4:151 5:98 6:114 #
-0.10000000000000000555111512312578 1:50 2:57 3:2754 4:142 5:92 6:107 #
0.10000000000000000555111512312578 1:28 2:33 3:920 4:161 5:60 6:52 #
-0.10000000000000000555111512312578 1:46 2:53 3:2370 4:153 5:92 6:104 #
-0.10000000000000000555111512312578 1:52 2:63 3:3111 4:110 5:58 6:74 #
-0.10000000000000000555111512312578 1:60 2:75 3:4224 4:126 5:73 6:87 #
-0.10000000000000000555111512312578 1:20 2:25 3:500 4:155 5:24 6:31 #
0.10000000000000000555111512312578 1:42 2:45 3:1843 4:114 5:67 6:72 #
-0.10000000000000000555111512312578 1:34 2:39 3:1313 4:153 5:74 6:97 #
0.10000000000000000555111512312578 1:68 2:71 3:4543 4:121 5:68 6:76 #
0.10000000000000000555111512312578 1:42 2:47 3:1957 4:156 5:75 6:99 #
-0.10000000000000000555111512312578 1:58 2:63 3:3499 4:109 5:63 6:68 #
-0.10000000000000000555111512312578 1:52 2:55 3:2700 4:101 5:47 6:62 #
0.10000000000000000555111512312578 1:28 2:31 3:866 4:173 5:86 6:119 #
0.10000000000000000555111512312578 1:38 2:45 3:1703 4:100 5:25 6:30 #
0.10000000000000000555111512312578 1:30 2:37 3:1094 4:179 5:90 6:97 #
-0.10000000000000000555111512312578 1:60 2:65 3:3804 4:149 5:93 6:105 #
0.10000000000000000555111512312578 1:34 2:41 3:1377 4:177 5:94 6:112 #
0.10000000000000000555111512312578 1:42 2:45 3:1881 4:177 5:90 6:123 #
-0.10000000000000000555111512312578 1:54 2:69 3:3527 4:87 5:51 6:39 #
0.10000000000000000555111512312578 1:54 2:69 3:3527 4:87 5:51 6:39 #
0.10000000000000000555111512312578 1:36 2:43 3:1521 4:155 5:80 6:110 #
0.10000000000000000555111512312578 1:40 2:45 3:1783 4:98 5:23 6:26 #
0.10000000000000000555111512312578 1:40 2:55 3:2104 4:110 5:58 6:68 #
0.10000000000000000555111512312578 1:42 2:49 3:2036 4:131 5:69 6:89 #
0.10000000000000000555111512312578 1:42 2:45 3:1872 4:150 5:94 6:105 #
-0.10000000000000000555111512312578 1:64 2:71 3:4322 4:115 5:63 6:78 #
0.10000000000000000555111512312578 1:44 2:49 3:2124 4:124 5:70 6:85 #
-0.10000000000000000555111512312578 1:56 2:71 3:3762 4:122 5:64 6:74 #
-0.10000000000000000555111512312578 1:30 2:35 3:1040 4:137 5:45 6:56 #
-0.10000000000000000555111512312578 1:58 2:71 3:3871 4:121 5:70 6:83 #
-0.10000000000000000555111512312578 1:50 2:53 3:2561 4:108 5:61 6:63 #
0.10000000000000000555111512312578 1:46 2:49 3:2197 4:133 5:76 6:92 #
-0.10000000000000000555111512312578 1:50 2:53 3:2561 4:108 5:61 6:63 #
0.10000000000000000555111512312578 1:92 2:99 3:8297 4:119 5:70 6:75 #
0.10000000000000000555111512312578 1:42 2:49 3:2035 4:133 5:81 6:90 #
0.10000000000000000555111512312578 1:40 2:43 3:1699 4:146 5:81 6:90 #
-0.10000000000000000555111512312578 1:60 2:77 3:4354 4:151 5:102 6:110 #
-0.10000000000000000555111512312578 1:58 2:71 3:3871 4:121 5:70 6:83 #
0.10000000000000000555111512312578 1:38 2:49 3:1849 4:164 5:83 6:106 #
0.10000000000000000555111512312578 1:82 2:95 3:7276 4:120 5:73 6:78 #
0.10000000000000000555111512312578 1:40 2:45 3:1783 4:98 5:23 6:26 #
-0.10000000000000000555111512312578 1:42 2:49 3:2040 4:173 5:87 6:111 #
0.10000000000000000555111512312578 1:40 2:41 3:1629 4:179 5:95 6:114 #
-0.10000000000000000555111512312578 1:60 2:77 3:4354 4:151 5:102 6:110 #
0.10000000000000000555111512312578 1:44 2:47 3:2045 4:121 5:53 6:63 #
-0.10000000000000000555111512312578 1:58 2:59 3:3345 4:104 5:48 6:61 #
0.10000000000000000555111512312578 1:46 2:51 3:2254 4:113 5:64 6:70 #
-0.10000000000000000555111512312578 1:46 2:49 3:2213 4:153 5:87 6:101 #
-0.10000000000000000555111512312578 1:36 2:37 3:1294 4:116 5:71 6:71 #
0.10000000000000000555111512312578 1:42 2:45 3:1847 4:152 5:92 6:105 #
0.10000000000000000555111512312578 1:46 2:47 3:2145 4:136 5:52 6:64 #
-0.10000000000000000555111512312578 1:46 2:49 3:2213 4:153 5:87 6:101 #
0.10000000000000000555111512312578 1:44 2:45 3:1966 4:177 5:85 6:111 #
0.10000000000000000555111512312578 1:30 2:33 3:983 4:170 5:86 6:111 #
-0.10000000000000000555111512312578 1:44 2:51 3:2185 4:144 5:91 6:105 #
-0.10000000000000000555111512312578 1:36 2:41 3:1414 4:155 5:61 6:76 #
-0.10000000000000000555111512312578 1:54 2:69 3:3434 4:154 5:98 6:110 #
-0.10000000000000000555111512312578 1:48 2:55 3:2480 4:144 5:90 6:105 #
0.10000000000000000555111512312578 1:36 2:37 3:1308 4:176 5:88 6:121 #
0.10000000000000000555111512312578 1:80 2:95 3:7279 4:122 5:77 6:82 #
0.10000000000000000555111512312578 1:44 2:55 3:2265 4:168 5:104 6:124 #
0.10000000000000000555111512312578 1:46 2:49 3:2227 4:178 5:95 6:114 #
-0.10000000000000000555111512312578 1:50 2:57 3:2754 4:142 5:92 6:107 #
0.10000000000000000555111512312578 1:40 2:55 3:2033 4:170 5:107 6:127 #
0.10000000000000000555111512312578 1:32 2:35 3:1108 4:167 5:95 6:91 #
-0.10000000000000000555111512312578 1:36 2:45 3:1580 4:137 5:70 6:76 #
0.10000000000000000555111512312578 1:42 2:43 3:1793 4:152 5:79 6:106 #
-0.10000000000000000555111512312578 1:28 2:29 3:812 4:171 5:87 6:111 #
0.10000000000000000555111512312578 1:30 2:33 3:973 4:131 5:77 6:89 #
0.10000000000000000555111512312578 1:38 2:41 3:1541 4:130 5:64 6:75 #
-0.10000000000000000555111512312578 1:50 2:57 3:2634 4:151 5:98 6:115 #
0.10000000000000000555111512312578 1:38 2:43 3:1608 4:108 5:56 6:67 #
-0.10000000000000000555111512312578 1:24 2:29 3:694 4:152 5:22 6:30 #
-0.10000000000000000555111512312578 1:68 2:85 3:5287 4:154 5:102 6:110 #
0.10000000000000000555111512312578 1:40 2:43 3:1699 4:146 5:81 6:90 #
0.10000000000000000555111512312578 1:34 2:39 3:1310 4:121 5:48 6:54 #
-0.10000000000000000555111512312578 1:24 2:29 3:694 4:152 5:22 6:30 #
-0.10000000000000000555111512312578 1:34 2:41 3:1368 4:133 5:70 6:86 #
0.10000000000000000555111512312578 1:74 2:83 3:5617 4:149 5:93 6:102 #
-0.10000000000000000555111512312578 1:42 2:45 3:1862 4:110 5:66 6:67 #
-0.10000000000000000555111512312578 1:28 2:33 3:920 4:171 5:67 6:84 #
-0.10000000000000000555111512312578 1:70 2:87 3:5562 4:135 5:83 6:95 #
-0.10000000000000000555111512312578 1:48 2:51 3:2367 4:109 5:62 6:64 #
0.10000000000000000555111512312578 1:64 2:65 3:3946 4:146 5:94 6:110 #
-0.10000000000000000555111512312578 1:58 2:69 3:3866 4:84 5:48 6:37 #
-0.10000000000000000555111512312578 1:28 2:31 3:867 4:154 5:74 6:97 #
0.10000000000000000555111512312578 1:52 2:55 3:2746 4:130 5:65 6:75 #
0.10000000000000000555111512312578 1:54 2:65 3:3320 4:152 5:104 6:118 #
0.10000000000000000555111512312578 1:58 2:63 3:3473 4:112 5:43 6:37 #
0.10000000000000000555111512312578 1:22 2:23 3:503 4:159 5:130 6:136 #
-0.10000000000000000555111512312578 1:46 2:53 3:2368 4:153 5:82 6:96 #
-0.10000000000000000555111512312578 1:84 2:91 3:7028 4:118 5:70 6:76 #
0.10000000000000000555111512312578 1:64 2:71 3:4237 4:138 5:75 6:86 #
-0.10000000000000000555111512312578 1:54 2:69 3:3434 4:154 5:98 6:110 #
0.10000000000000000555111512312578 1:24 2:35 3:820 4:186 5:82 6:101 #
0.10000000000000000555111512312578 1:54 2:63 3:3247 4:183 5:143 6:137 #
0.10000000000000000555111512312578 1:40 2:43 3:1703 4:121 5:64 6:78 #
0.10000000000000000555111512312578 1:40 2:45 3:1783 4:98 5:23 6:26 #
0.10000000000000000555111512312578 1:34 2:47 3:1569 4:109 5:67 6:69 #
0.10000000000000000555111512312578 1:34 2:39 3:1309 4:137 5:83 6:87 #
0.10000000000000000555111512312578 1:28 2:31 3:861 4:136 5:44 6:67 #
-0.10000000000000000555111512312578 1:50 2:51 3:2439 4:138 5:69 6:88 #
-0.10000000000000000555111512312578 1:30 2:35 3:1040 4:137 5:45 6:56 #
-0.10000000000000000555111512312578 1:36 2:37 3:1294 4:116 5:71 6:71 #
0.10000000000000000555111512312578 1:76 2:93 3:6335 4:124 5:75 6:81 #
0.10000000000000000555111512312578 1:40 2:41 3:1625 4:127 5:64 6:81 #
-0.10000000000000000555111512312578 1:40 2:55 3:2033 4:170 5:107 6:127 #
0.10000000000000000555111512312578 1:32 2:37 3:1183 4:154 5:54 6:39 #
0.10000000000000000555111512312578 1:52 2:65 3:3239 4:131 5:69 6:85 #
0.10000000000000000555111512312578 1:74 2:83 3:5584 4:152 5:103 6:114 #
-0.10000000000000000555111512312578 1:40 2:45 3:1780 4:135 5:60 6:78 #
-0.10000000000000000555111512312578 1:48 2:51 3:2369 4:121 5:72 6:64 #
-0.10000000000000000555111512312578 1:28 2:33 3:920 4:171 5:67 6:84 #
0.10000000000000000555111512312578 1:30 2:35 3:1044 4:149 5:72 6:96 #
-0.10000000000000000555111512312578 1:42 2:45 3:1861 4:102 5:22 6:28 #
-0.10000000000000000555111512312578 1:36 2:43 3:1517 4:120 5:51 6:59 #
-0.10000000000000000555111512312578 1:38 2:47 3:1771 4:127 5:63 6:80 #
-0.10000000000000000555111512312578 1:38 2:45 3:1691 4:173 5:88 6:114 #
0.10000000000000000555111512312578 1:68 2:85 3:5287 4:154 5:102 6:110 #
-0.10000000000000000555111512312578 1:30 2:33 3:977 4:169 5:90 6:108 #
0.10000000000000000555111512312578 1:53 2:75 3:3631 4:206 5:188 6:188 #
0.10000000000000000555111512312578 1:34 2:39 3:1316 4:174 5:89 6:121 #
-0.10000000000000000555111512312578 1:34 2:37 3:1244 4:172 5:87 6:113 #
-0.10000000000000000555111512312578 1:40 2:45 3:1780 4:135 5:60 6:78 #
-0.10000000000000000555111512312578 1:38 2:45 3:1691 4:173 5:88 6:114 #
0.10000000000000000555111512312578 1:26 2:29 3:750 4:171 5:79 6:104 #
0.10000000000000000555111512312578 1:40 2:47 3:1834 4:109 5:60 6:69 #
0.10000000000000000555111512312578 1:44 2:49 3:2131 4:127 5:67 6:82 #
0.10000000000000000555111512312578 1:34 2:41 3:1366 4:99 5:23 6:31 #
0.10000000000000000555111512312578 1:26 2:33 3:851 4:139 5:77 6:83 #
0.10000000000000000555111512312578 1:76 2:87 3:6146 4:118 5:68 6:76 #
0.10000000000000000555111512312578 1:36 2:37 3:1297 4:150 5:91 6:103 #
-0.10000000000000000555111512312578 1:42 2:45 3:1836 4:138 5:80 6:99 #
-0.10000000000000000555111512312578 1:36 2:39 3:1381 4:175 5:80 6:103 #
-0.10000000000000000555111512312578 1:40 2:43 3:1678 4:118 5:58 6:69 #
-0.10000000000000000555111512312578 1:68 2:85 3:5287 4:154 5:102 6:110 #
-0.10000000000000000555111512312578 1:52 2:61 3:3045 4:112 5:63 6:47 #
-0.10000000000000000555111512312578 1:40 2:49 3:1938 4:137 5:80 6:85 #
-0.10000000000000000555111512312578 1:28 2:33 3:916 4:159 5:79 6:101 #
-0.10000000000000000555111512312578 1:48 2:55 3:2599 4:151 5:81 6:106 #
-0.10000000000000000555111512312578 1:36 2:43 3:1523 4:142 5:90 6:103 #
-0.10000000000000000555111512312578 1:46 2:59 3:2654 4:132 5:77 6:93 #
-0.10000000000000000555111512312578 1:38 2:43 3:1594 4:112 5:68 6:68 #
0.10000000000000000555111512312578 1:68 2:81 3:5138 4:140 5:84 6:98 #
-0.10000000000000000555111512312578 1:42 2:47 3:1956 4:169 5:78 6:99 #
-0.10000000000000000555111512312578 1:36 2:37 3:1305 4:115 5:38 6:49 #
-0.10000000000000000555111512312578 1:36 2:41 3:1432 4:112 5:61 6:69 #
-0.10000000000000000555111512312578 1:28 2:31 3:867 4:154 5:74 6:97 #
-0.10000000000000000555111512312578 1:52 2:57 3:2835 4:153 5:85 6:99 #
-0.10000000000000000555111512312578 1:36 2:39 3:1381 4:175 5:80 6:103 #
-0.10000000000000000555111512312578 1:48 2:51 3:2367 4:109 5:62 6:64 #
-0.10000000000000000555111512312578 1:28 2:33 3:920 4:171 5:67 6:84 #
-0.061920140587520822172962198237656 1:92 2:99 3:8297 4:119 5:70 6:75 #
-0.10000000000000000555111512312578 1:28 2:29 3:812 4:167 5:85 6:108 #
-0.10000000000000000555111512312578 1:26 2:29 3:754 4:149 5:10 6:22 #
-0.10000000000000000555111512312578 1:76 2:83 3:5924 4:138 5:82 6:96 #
-0.10000000000000000555111512312578 1:34 2:47 3:1573 4:156 5:87 6:108 #
-0.10000000000000000555111512312578 1:64 2:83 3:5077 4:119 5:61 6:72 #
-0.10000000000000000555111512312578 1:54 2:63 3:3247 4:90 5:51 6:38 #
0.10000000000000000555111512312578 1:34 2:35 3:1172 4:177 5:91 6:124 #
0.10000000000000000555111512312578 1:46 2:51 3:2261 4:111 5:63 6:68 #
0.10000000000000000555111512312578 1:46 2:51 3:2261 4:111 5:63 6:68 #
-0.10000000000000000555111512312578 1:60 2:67 3:3881 4:158 5:77 6:91 #
-0.10000000000000000555111512312578 1:42 2:47 3:1957 4:156 5:75 6:99 #
-0.10000000000000000555111512312578 1:60 2:67 3:3881 4:158 5:77 6:91 #
-0.10000000000000000555111512312578 1:34 2:39 3:1310 4:130 5:64 6:82 #
-0.10000000000000000555111512312578 1:24 2:35 3:820 4:186 5:82 6:101 #
-0.10000000000000000555111512312578 1:28 2:33 3:919 4:171 5:92 6:111 #
-0.10000000000000000555111512312578 1:44 2:49 3:2137 4:113 5:66 6:54 #
0.10000000000000000555111512312578 1:38 2:41 3:1552 4:133 5:64 6:78 #
0.10000000000000000555111512312578 1:72 2:87 3:5857 4:122 5:74 6:81 #
-0.10000000000000000555111512312578 1:50 2:53 3:2561 4:108 5:61 6:63 #
0.10000000000000000555111512312578 1:48 2:49 3:2329 4:157 5:78 6:101 #
-0.10000000000000000555111512312578 1:46 2:61 3:2758 4:87 5:50 6:37 #
0.10000000000000000555111512312578 1:26 2:27 3:702 4:174 5:90 6:122 #
0.10000000000000000555111512312578 1:46 2:53 3:2359 4:121 5:72 6:64 #
0.10000000000000000555111512312578 1:64 2:71 3:4291 4:139 5:82 6:88 #
-0.10000000000000000555111512312578 1:42 2:49 3:2044 4:123 5:67 6:65 #
-0.10000000000000000555111512312578 1:28 2:31 3:867 4:154 5:74 6:97 #
-0.10000000000000000555111512312578 1:40 2:49 3:1934 4:97 5:33 6:40 #
0.10000000000000000555111512312578 1:52 2:59 3:2941 4:130 5:43 6:43 #
0.10000000000000000555111512312578 1:28 2:33 3:913 4:142 5:82 6:95 #
0.10000000000000000555111512312578 1:30 2:35 3:1044 4:149 5:72 6:96 #
0.10000000000000000555111512312578 1:44 2:45 3:1935 4:110 5:46 6:58 #
-0.10000000000000000555111512312578 1:38 2:43 3:1603 4:133 5:65 6:84 #
0.10000000000000000555111512312578 1:53 2:57 3:2829 4:170 5:120 6:130 #
0.10000000000000000555111512312578 1:44 2:55 3:2327 4:122 5:52 6:62 #
-0.10000000000000000555111512312578 1:38 2:45 3:1691 4:173 5:88 6:114 #
0.10000000000000000555111512312578 1:32 2:33 3:1049 4:135 5:74 6:91 #
-0.10000000000000000555111512312578 1:50 2:57 3:2652 4:145 5:86 6:106 #
0.10000000000000000555111512312578 1:44 2:51 3:2171 4:122 5:54 6:59 #
-0.10000000000000000555111512312578 1:40 2:45 3:1780 4:135 5:60 6:78 #
-0.10000000000000000555111512312578 1:46 2:49 3:2192 4:128 5:76 6:83 #
0.10000000000000000555111512312578 1:44 2:49 3:2110 4:122 5:56 6:66 #
-0.10000000000000000555111512312578 1:50 2:53 3:2561 4:108 5:61 6:63 #
0.10000000000000000555111512312578 1:50 2:53 3:2563 4:125 5:56 6:61 #
0.10000000000000000555111512312578 1:42 2:45 3:1856 4:120 5:47 6:54 #
0.10000000000000000555111512312578 1:38 2:43 3:1580 4:158 5:89 6:111 #
0.10000000000000000555111512312578 1:56 2:65 3:3504 4:114 5:58 6:62 #
-0.10000000000000000555111512312578 1:48 2:53 3:2495 4:130 5:62 6:74 #
0.10000000000000000555111512312578 1:52 2:59 3:2944 4:126 5:62 6:73 #
-0.10000000000000000555111512312578 1:54 2:61 3:3119 4:156 5:89 6:101 #
0.10000000000000000555111512312578 1:46 2:53 3:2375 4:131 5:63 6:75 #
0.10000000000000000555111512312578 1:28 2:29 3:811 4:172 5:81 6:106 #
0.10000000000000000555111512312578 1:56 2:61 3:3220 4:162 5:108 6:122 #
0.10000000000000000555111512312578 1:54 2:57 3:2954 4:162 5:88 6:104 #
0.10000000000000000555111512312578 1:78 2:95 3:6871 4:120 5:71 6:77 #
-0.10000000000000000555111512312578 1:56 2:59 3:3139 4:107 5:59 6:61 #
-0.10000000000000000555111512312578 1:42 2:45 3:1862 4:110 5:66 6:67 #
-0.10000000000000000555111512312578 1:44 2:49 3:2127 4:132 5:70 6:85 #
0.10000000000000000555111512312578 1:52 2:59 3:2883 4:131 5:66 6:74 #
0.10000000000000000555111512312578 1:74 2:87 3:5998 4:130 5:75 6:87 #
0.10000000000000000555111512312578 1:50 2:57 3:2716 4:134 5:74 6:91 #
0.10000000000000000555111512312578 1:26 2:27 3:702 4:174 5:90 6:122 #
-0.10000000000000000555111512312578 1:38 2:41 3:1523 4:132 5:71 6:91 #
-0.10000000000000000555111512312578 1:36 2:37 3:1312 4:154 5:79 6:101 #
0.10000000000000000555111512312578 1:42 2:49 3:2039 4:100 5:28 6:34 #
0.10000000000000000555111512312578 1:66 2:81 3:5122 4:126 5:72 6:85 #
0.10000000000000000555111512312578 1:42 2:51 3:2072 4:116 5:60 6:75 #
0.10000000000000000555111512312578 1:68 2:81 3:5087 4:147 5:99 6:110 #
0.10000000000000000555111512312578 1:56 2:57 3:3055 4:164 5:88 6:105 #
-0.10000000000000000555111512312578 1:40 2:43 3:1706 4:152 5:74 6:97 #
0.10000000000000000555111512312578 1:78 2:95 3:6871 4:120 5:71 6:77 #
0.10000000000000000555111512312578 1:60 2:71 3:4084 4:142 5:83 6:86 #
-0.10000000000000000555111512312578 1:30 2:33 3:983 4:170 5:86 6:111 #
0.10000000000000000555111512312578 1:47 2:57 3:2647 4:110 5:46 6:43 #
-0.10000000000000000555111512312578 1:50 2:55 3:2648 4:108 5:63 6:67 #
0.10000000000000000555111512312578 1:56 2:61 3:3220 4:162 5:108 6:122 #
0.10000000000000000555111512312578 1:50 2:57 3:2754 4:159 5:86 6:102 #
0.10000000000000000555111512312578 1:40 2:49 3:1934 4:97 5:33 6:40 #
-0.10000000000000000555111512312578 1:60 2:71 3:4074 4:86 5:50 6:39 #
0.10000000000000000555111512312578 1:44 2:51 3:2153 4:125 5:61 6:73 #
0.10000000000000000555111512312578 1:56 2:65 3:3504 4:114 5:58 6:62 #
0.10000000000000000555111512312578 1:46 2:49 3:2170 4:149 5:82 6:97 #
-0.10000000000000000555111512312578 1:82 2:99 3:7662 4:127 5:78 6:82 #
-0.10000000000000000555111512312578 1:40 2:49 3:1927 4:119 5:72 6:64 #
-0.10000000000000000555111512312578 1:62 2:67 3:4013 4:129 5:69 6:85 #
0.10000000000000000555111512312578 1:78 2:95 3:6878 4:120 5:71 6:78 #
0.10000000000000000555111512312578 1:46 2:61 3:2718 4:137 5:81 6:98 #
0.10000000000000000555111512312578 1:40 2:49 3:1934 4:97 5:33 6:40 #
0.10000000000000000555111512312578 1:44 2:55 3:2327 4:122 5:52 6:62 #
0.10000000000000000555111512312578 1:30 2:35 3:1044 4:149 5:72 6:96 #
0.10000000000000000555111512312578 1:64 2:77 3:4553 4:159 5:104 6:115 #
0.10000000000000000555111512312578 1:50 2:55 3:2687 4:107 5:38 6:48 #
0.10000000000000000555111512312578 1:34 2:39 3:1313 4:153 5:74 6:97 #
0.10000000000000000555111512312578 1:48 2:57 3:2655 4:106 5:46 6:52 #
0.096462074786636931023053875833284 1:27 2:53 3:1370 4:206 5:202 6:199 #
0.10000000000000000555111512312578 1:40 2:43 3:1705 4:130 5:72 6:89 #
-0.10000000000000000555111512312578 1:52 2:59 3:2944 4:126 5:62 6:73 #
0.10000000000000000555111512312578 1:28 2:33 3:914 4:132 5:77 6:88 #
0.10000000000000000555111512312578 1:52 2:55 3:2728 4:129 5:51 6:60 #
-0.10000000000000000555111512312578 1:28 2:29 3:812 4:173 5:88 6:110 #
0.10000000000000000555111512312578 1:42 2:49 3:2036 4:132 5:79 6:95 #
0.10000000000000000555111512312578 1:44 2:53 3:2261 4:136 5:73 6:92 #
-0.10000000000000000555111512312578 1:56 2:61 3:3305 4:141 5:85 6:97 #
0.10000000000000000555111512312578 1:52 2:55 3:2728 4:129 5:51 6:60 #
0.10000000000000000555111512312578 1:40 2:47 3:1858 4:151 5:82 6:106 #
-0.10000000000000000555111512312578 1:38 2:45 3:1672 4:138 5:70 6:76 #
-0.10000000000000000555111512312578 1:50 2:57 3:2702 4:137 5:78 6:90 #
0.10000000000000000555111512312578 1:48 2:49 3:2331 4:144 5:78 6:105 #
-0.10000000000000000555111512312578 1:46 2:53 3:2344 4:145 5:82 6:88 #
-0.10000000000000000555111512312578 1:64 2:67 3:4109 4:109 5:61 6:64 #
0.10000000000000000555111512312578 1:46 2:49 3:2192 4:126 5:69 6:83 #
-0.10000000000000000555111512312578 1:54 2:69 3:3434 4:154 5:98 6:110 #
-0.10000000000000000555111512312578 1:50 2:57 3:2738 4:122 5:54 6:64 #
0.10000000000000000555111512312578 1:58 2:61 3:3386 4:162 5:105 6:119 #
0.10000000000000000555111512312578 1:60 2:71 3:4073 4:131 5:48 6:45 #
-0.10000000000000000555111512312578 1:54 2:69 3:3434 4:154 5:98 6:110 #
-0.10000000000000000555111512312578 1:48 2:51 3:2334 4:135 5:80 6:94 #
0.10000000000000000555111512312578 1:54 2:57 3:2954 4:162 5:88 6:104 #
0.10000000000000000555111512312578 1:58 2:71 3:3916 4:127 5:61 6:71 #
-0.10000000000000000555111512312578 1:68 2:75 3:4877 4:133 5:76 6:90 #
-0.10000000000000000555111512312578 1:50 2:57 3:2762 4:127 5:74 6:88 #
-0.10000000000000000555111512312578 1:54 2:69 3:3434 4:154 5:98 6:110 #
-0.10000000000000000555111512312578 1:46 2:57 3:2556 4:103 5:52 6:62 #
-0.10000000000000000555111512312578 1:46 2:47 3:2145 4:136 5:52 6:64 #
0.10000000000000000555111512312578 1:52 2:65 3:3243 4:120 5:72 6:86 #
-0.10000000000000000555111512312578 1:80 2:97 3:7439 4:112 5:67 6:71 #
0.10000000000000000555111512312578 1:28 2:33 3:920 4:123 5:69 6:85 #
-0.10000000000000000555111512312578 1:52 2:65 3:3205 4:105 5:54 6:63 #
0.10000000000000000555111512312578 1:38 2:43 3:1580 4:158 5:89 6:111 #
-0.10000000000000000555111512312578 1:44 2:49 3:2103 4:122 5:63 6:73 #
0.10000000000000000555111512312578 1:43 2:57 3:2400 4:157 5:111 6:124 #
-0.10000000000000000555111512312578 1:50 2:51 3:2434 4:106 5:46 6:61 #
0.10000000000000000555111512312578 1:42 2:45 3:1872 4:132 5:73 6:90 #
-0.10000000000000000555111512312578 1:46 2:47 3:2145 4:136 5:52 6:64 #
-0.10000000000000000555111512312578 1:54 2:69 3:3434 4:154 5:98 6:110 #
-0.10000000000000000555111512312578 1:26 2:31 3:806 4:142 5:46 6:60 #
-0.10000000000000000555111512312578 1:32 2:35 3:1104 4:135 5:73 6:91 #
-0.10000000000000000555111512312578 1:54 2:57 3:2889 4:146 5:92 6:106 #
0.10000000000000000555111512312578 1:52 2:65 3:3239 4:131 5:69 6:85 #
-0.10000000000000000555111512312578 1:68 2:79 3:5056 4:125 5:75 6:87 #
-0.10000000000000000555111512312578 1:46 2:47 3:2145 4:136 5:52 6:64 #
-0.10000000000000000555111512312578 1:52 2:65 3:3230 4:128 5:68 6:84 #
-0.10000000000000000555111512312578 1:40 2:43 3:1691 4:130 5:74 6:88 #
-0.10000000000000000555111512312578 1:54 2:61 3:3136 4:156 5:98 6:110 #
-0.10000000000000000555111512312578 1:54 2:69 3:3434 4:154 5:98 6:110 #
0.10000000000000000555111512312578 1:40 2:51 3:1959 4:156 5:109 6:123 #
0.10000000000000000555111512312578 1:28 2:33 3:920 4:123 5:69 6:85 #
-0.10000000000000000555111512312578 1:31 2:39 3:1207 4:153 5:95 6:118 #
0.10000000000000000555111512312578 1:54 2:61 3:3156 4:143 5:74 6:94 #
-0.10000000000000000555111512312578 1:52 2:61 3:3027 4:135 5:79 6:95 #
0.10000000000000000555111512312578 1:38 2:41 3:1544 4:130 5:76 6:89 #
0.10000000000000000555111512312578 1:74 2:87 3:5951 4:128 5:78 6:84 #
0.10000000000000000555111512312578 1:56 2:57 3:3055 4:164 5:88 6:105 #
-0.10000000000000000555111512312578 1:56 2:57 3:2986 4:142 5:83 6:101 #
-0.10000000000000000555111512312578 1:44 2:49 3:2124 4:109 5:59 6:67 #
0.10000000000000000555111512312578 1:48 2:55 3:2599 4:151 5:81 6:106 #
-0.10000000000000000555111512312578 1:42 2:45 3:1851 4:99 5:48 6:53 #
-0.10000000000000000555111512312578 1:38 2:41 3:1539 4:131 5:74 6:89 #
-0.10000000000000000555111512312578 1:54 2:69 3:3434 4:154 5:98 6:110 #
-0.10000000000000000555111512312578 1:54 2:63 3:3173 4:141 5:84 6:100 #
0.10000000000000000555111512312578 1:52 2:63 3:3137 4:131 5:68 6:84 #
0.10000000000000000555111512312578 1:58 2:57 3:3102 4:170 5:109 6:123 #
0.10000000000000000555111512312578 1:72 2:89 3:6023 4:128 5:82 6:87 #
-0.10000000000000000555111512312578 1:50 2:57 3:2772 4:148 5:75 6:95 #
0.10000000000000000555111512312578 1:52 2:65 3:3239 4:131 5:69 6:85 #
0.10000000000000000555111512312578 1:28 2:39 3:1077 4:130 5:78 6:82 #
0.10000000000000000555111512312578 1:54 2:61 3:3162 4:152 5:92 6:97 #
0.10000000000000000555111512312578 1:22 2:25 3:546 4:142 5:78 6:93 #
-0.10000000000000000555111512312578 1:50 2:51 3:2455 4:106 5:53 6:60 #
-0.10000000000000000555111512312578 1:66 2:75 3:4768 4:143 5:72 6:82 #
-0.10000000000000000555111512312578 1:48 2:57 3:2655 4:106 5:46 6:52 #
-0.10000000000000000555111512312578 1:44 2:51 3:2153 4:125 5:61 6:73 #
0.10000000000000000555111512312578 1:44 2:49 3:2124 4:124 5:70 6:85 #
-0.10000000000000000555111512312578 1:48 2:53 3:2403 4:137 5:74 6:88 #
0.10000000000000000555111512312578 1:46 2:55 3:2478 4:130 5:68 6:84 #
0.10000000000000000555111512312578 1:44 2:49 3:2124 4:124 5:70 6:85 #
0.10000000000000000555111512312578 1:56 2:61 3:3282 4:131 5:79 6:92 #
-0.10000000000000000555111512312578 1:72 2:91 3:6008 4:116 5:67 6:75 #
-0.10000000000000000555111512312578 1:52 2:57 3:2805 4:154 5:90 6:104 #
0.10000000000000000555111512312578 1:28 2:33 3:914 4:130 5:82 6:96 #
-0.10000000000000000555111512312578 1:52 2:57 3:2805 4:124 5:65 6:75 #
0.10000000000000000555111512312578 1:42 2:49 3:2036 4:132 5:79 6:95 #
0.10000000000000000555111512312578 1:50 2:57 3:2743 4:107 5:62 6:67 #
-0.10000000000000000555111512312578 1:50 2:61 3:2916 4:153 5:86 6:98 #
-0.10000000000000000555111512312578 1:48 2:57 3:2655 4:106 5:46 6:52 #
0.10000000000000000555111512312578 1:64 2:75 3:4542 4:137 5:80 6:95 #
-0.10000000000000000555111512312578 1:48 2:57 3:2663 4:100 5:49 6:56 #
-0.10000000000000000555111512312578 1:52 2:59 3:2883 4:131 5:66 6:74 #
0.10000000000000000555111512312578 1:40 2:47 3:1846 4:120 5:64 6:78 #
-0.10000000000000000555111512312578 1:70 2:79 3:4924 4:162 5:114 6:127 #
0.10000000000000000555111512312578 1:52 2:61 3:3025 4:120 5:56 6:66 #
-0.10000000000000000555111512312578 1:46 2:57 3:2556 4:103 5:52 6:62 #
0.10000000000000000555111512312578 1:70 2:79 3:5121 4:140 5:80 6:90 #
0.10000000000000000555111512312578 1:42 2:45 3:1872 4:132 5:73 6:90 #
0.10000000000000000555111512312578 1:38 2:51 3:1882 4:110 5:62 6:67 #
-0.10000000000000000555111512312578 1:52 2:65 3:3205 4:105 5:54 6:63 #
-0.10000000000000000555111512312578 1:50 2:61 3:2951 4:151 5:87 6:100 #
-0.10000000000000000555111512312578 1:52 2:59 3:2883 4:131 5:66 6:74 #
0.10000000000000000555111512312578 1:58 2:69 3:3798 4:154 5:94 6:106 #
-0.10000000000000000555111512312578 1:58 2:65 3:3665 4:130 5:69 6:78 #
-0.10000000000000000555111512312578 1:34 2:39 3:1310 4:130 5:64 6:82 #
-0.10000000000000000555111512312578 1:50 2:57 3:2738 4:122 5:54 6:64 #
-0.10000000000000000555111512312578 1:52 2:61 3:3027 4:135 5:79 6:95 #
0.10000000000000000555111512312578 1:48 2:57 3:2655 4:106 5:46 6:52 #
0.10000000000000000555111512312578 1:42 2:49 3:2026 4:137 5:81 6:99 #
0.10000000000000000555111512312578 1:73 2:89 3:6113 4:122 5:64 6:61 #
0.10000000000000000555111512312578 1:60 2:73 3:4115 4:136 5:78 6:94 #
-0.10000000000000000555111512312578 1:68 2:85 3:5287 4:154 5:102 6:110 #
0.10000000000000000555111512312578 1:52 2:59 3:2941 4:130 5:43 6:43 #
0.10000000000000000555111512312578 1:48 2:53 3:2403 4:137 5:74 6:88 #
0.10000000000000000555111512312578 1:48 2:49 3:2323 4:146 5:75 6:95 #
-0.10000000000000000555111512312578 1:48 2:57 3:2623 4:142 5:87 6:106 #
-0.10000000000000000555111512312578 1:54 2:67 3:3418 4:135 5:80 6:96 #
0.10000000000000000555111512312578 1:60 2:73 3:4115 4:136 5:78 6:94 #
-0.10000000000000000555111512312578 1:74 2:89 3:6087 4:137 5:85 6:92 #
0.10000000000000000555111512312578 1:52 2:65 3:3224 4:136 5:79 6:93 #
-0.10000000000000000555111512312578 1:60 2:77 3:4354 4:151 5:102 6:110 #
-0.10000000000000000555111512312578 1:64 2:77 3:4553 4:159 5:104 6:115 #
0.10000000000000000555111512312578 1:56 2:67 3:3633 4:130 5:69 6:85 #
0.10000000000000000555111512312578 1:28 2:33 3:918 4:122 5:68 6:84 #
-0.10000000000000000555111512312578 1:54 2:65 3:3297 4:113 5:61 6:76 #
-0.10000000000000000555111512312578 1:60 2:73 3:4199 4:123 5:67 6:77 #
0.10000000000000000555111512312578 1:44 2:49 3:2104 4:152 5:81 6:96 #
-0.10000000000000000555111512312578 1:48 2:57 3:2623 4:142 5:87 6:106 #
-0.10000000000000000555111512312578 1:56 2:59 3:3162 4:135 5:81 6:94 #
-0.10000000000000000555111512312578 1:64 2:79 3:4788 4:130 5:77 6:85 #
-0.10000000000000000555111512312578 1:26 2:29 3:754 4:149 5:10 6:22 #
0.10000000000000000555111512312578 1:60 2:73 3:4115 4:136 5:78 6:94 #
-0.10000000000000000555111512312578 1:56 2:59 3:3162 4:135 5:81 6:94 #
0.10000000000000000555111512312578 1:48 2:55 3:2561 4:115 5:65 6:74 #
0.10000000000000000555111512312578 1:52 2:63 3:3082 4:134 5:70 6:79 #
0.10000000000000000555111512312578 1:58 2:71 3:3908 4:127 5:69 6:83 #
0.10000000000000000555111512312578 1:60 2:71 3:4084 4:142 5:83 6:86 #
-0.10000000000000000555111512312578 1:44 2:53 3:2239 4:156 5:83 6:98 #
0.10000000000000000555111512312578 1:50 2:61 3:2916 4:153 5:86 6:98 #
-0.10000000000000000555111512312578 1:56 2:59 3:3152 4:131 5:76 6:90 #
-0.10000000000000000555111512312578 1:76 2:83 3:5924 4:138 5:82 6:96 #
0.10000000000000000555111512312578 1:46 2:55 3:2424 4:121 5:62 6:71 #
-0.10000000000000000555111512312578 1:40 2:45 3:1780 4:135 5:60 6:78 #
-0.10000000000000000555111512312578 1:36 2:47 3:1655 4:156 5:86 6:107 #
0.10000000000000000555111512312578 1:60 2:75 3:4298 4:128 5:67 6:74 #
-0.10000000000000000555111512312578 1:62 2:71 3:4131 4:148 5:98 6:112 #
-0.10000000000000000555111512312578 1:68 2:79 3:4807 4:160 5:114 6:126 #
-0.10000000000000000555111512312578 1:42 2:49 3:2036 4:132 5:79 6:95 #
-0.10000000000000000555111512312578 1:54 2:67 3:3418 4:135 5:80 6:96 #
-0.10000000000000000555111512312578 1:42 2:49 3:2040 4:124 5:69 6:84 #
-0.10000000000000000555111512312578 1:68 2:85 3:5287 4:154 5:102 6:110 #
-0.10000000000000000555111512312578 1:68 2:85 3:5287 4:154 5:102 6:110 #
0.10000000000000000555111512312578 1:48 2:53 3:2403 4:137 5:74 6:88 #
0.10000000000000000555111512312578 1:52 2:67 3:3263 4:136 5:74 6:82 #
0.10000000000000000555111512312578 1:52 2:61 3:3047 4:138 5:80 6:97 #
-0.10000000000000000555111512312578 1:76 2:91 3:6348 4:134 5:82 6:92 #
-0.10000000000000000555111512312578 1:58 2:59 3:3345 4:104 5:48 6:61 #
0.10000000000000000555111512312578 1:54 2:65 3:3374 4:126 5:64 6:69 #
-0.10000000000000000555111512312578 1:60 2:71 3:4058 4:139 5:82 6:89 #
0.10000000000000000555111512312578 1:34 2:41 3:1376 4:131 5:78 6:88 #
-0.10000000000000000555111512312578 1:68 2:71 3:4549 4:106 5:53 6:64 #
0.10000000000000000555111512312578 1:56 2:61 3:3274 4:141 5:78 6:90 #
0.10000000000000000555111512312578 1:58 2:65 3:3628 4:139 5:84 6:100 #
0.10000000000000000555111512312578 1:72 2:79 3:5247 4:155 5:105 6:114 #
0.10000000000000000555111512312578 1:60 2:73 3:4198 4:132 5:75 6:89 #
0.10000000000000000555111512312578 1:70 2:85 3:5465 4:138 5:84 6:97 #
0.10000000000000000555111512312578 1:48 2:53 3:2469 4:129 5:75 6:90 #
-0.10000000000000000555111512312578 1:64 2:79 3:4788 4:130 5:77 6:85 #
0.10000000000000000555111512312578 1:74 2:83 3:5617 4:149 5:93 6:102 #
0.10000000000000000555111512312578 1:62 2:73 3:4314 4:121 5:71 6:84 #
-0.10000000000000000555111512312578 1:56 2:65 3:3504 4:114 5:58 6:62 #
0.10000000000000000555111512312578 1:64 2:71 3:4317 4:145 5:91 6:101 #
-0.10000000000000000555111512312578 1:46 2:53 3:2369 4:151 5:78 6:100 #
0.10000000000000000555111512312578 1:42 2:45 3:1876 4:143 5:80 6:93 #
-0.10000000000000000555111512312578 1:38 2:51 3:1880 4:129 5:70 6:86 #
0.10000000000000000555111512312578 1:60 2:73 3:4178 4:128 5:71 6:85 #
0.10000000000000000555111512312578 1:66 2:79 3:4952 4:128 5:74 6:87 #
-0.10000000000000000555111512312578 1:60 2:63 3:3693 4:115 5:52 6:58 #
0.10000000000000000555111512312578 1:68 2:81 3:5172 4:137 5:82 6:95 #
-0.10000000000000000555111512312578 1:64 2:83 3:5077 4:119 5:61 6:72 #
-0.10000000000000000555111512312578 1:60 2:63 3:3662 4:114 5:60 6:70 #
0.10000000000000000555111512312578 1:60 2:75 3:4247 4:143 5:89 6:96 #
-0.10000000000000000555111512312578 1:72 2:91 3:6008 4:116 5:67 6:75 #
-0.10000000000000000555111512312578 1:38 2:51 3:1880 4:129 5:70 6:86 #
0.10000000000000000555111512312578 1:54 2:61 3:3158 4:145 5:86 6:92 #
-0.10000000000000000555111512312578 1:66 2:75 3:4768 4:143 5:72 6:82 #
-0.10000000000000000555111512312578 1:66 2:67 3:4224 4:114 5:61 6:77 #
-0.10000000000000000555111512312578 1:54 2:61 3:3156 4:143 5:74 6:94 #
-0.10000000000000000555111512312578 1:44 2:53 3:2259 4:131 5:71 6:87 #
-0.10000000000000000555111512312578 1:60 2:77 3:4354 4:151 5:102 6:110 #
0.10000000000000000555111512312578 1:48 2:55 3:2480 4:144 5:90 6:105 #
0.10000000000000000555111512312578 1:68 2:81 3:5177 4:131 5:70 6:77 #
0.10000000000000000555111512312578 1:70 2:79 3:5121 4:140 5:80 6:90 #
0.10000000000000000555111512312578 1:74 2:87 3:5951 4:128 5:78 6:84 #
-0.10000000000000000555111512312578 1:78 2:89 3:6446 4:116 5:68 6:74 #
-0.10000000000000000555111512312578 1:62 2:71 3:4131 4:148 5:98 6:112 #
-0.10000000000000000555111512312578 1:66 2:67 3:4246 4:103 5:50 6:61 #
0.10000000000000000555111512312578 1:72 2:87 3:5889 4:116 5:67 6:75 #
-0.10000000000000000555111512312578 1:66 2:81 3:5114 4:129 5:77 6:85 #
0.10000000000000000555111512312578 1:72 2:83 3:5622 4:137 5:82 6:84 #
-0.10000000000000000555111512312578 1:44 2:53 3:2259 4:131 5:71 6:87 #
-0.10000000000000000555111512312578 1:62 2:77 3:4535 4:130 5:78 6:92 #
0.10000000000000000555111512312578 1:60 2:73 3:4198 4:132 5:75 6:89 #
0.10000000000000000555111512312578 1:46 2:59 3:2617 4:124 5:61 6:66 #
0.10000000000000000555111512312578 1:66 2:75 3:4696 4:141 5:91 6:103 #
-0.10000000000000000555111512312578 1:34 2:37 3:1244 4:172 5:87 6:113 #
-0.10000000000000000555111512312578 1:60 2:75 3:4224 4:126 5:73 6:87 #
0.10000000000000000555111512312578 1:74 2:87 3:5998 4:130 5:75 6:87 #
-0.10000000000000000555111512312578 1:64 2:83 3:5077 4:119 5:61 6:72 #
-0.10000000000000000555111512312578 1:64 2:79 3:4788 4:130 5:77 6:85 #
-0.10000000000000000555111512312578 1:60 2:73 3:4148 4:106 5:56 6:65 #
-0.10000000000000000555111512312578 1:54 2:65 3:3297 4:113 5:61 6:76 #
-0.10000000000000000555111512312578 1:42 2:51 3:2072 4:116 5:60 6:75 #
-0.10000000000000000555111512312578 1:62 2:77 3:4535 4:130 5:78 6:92 #
-0.10000000000000000555111512312578 1:78 2:89 3:6446 4:116 5:68 6:74 #
-0.10000000000000000555111512312578 1:62 2:67 3:4013 4:129 5:69 6:85 #
-0.10000000000000000555111512312578 1:64 2:67 3:4109 4:109 5:61 6:64 #
0.10000000000000000555111512312578 1:56 2:61 3:3305 4:141 5:85 6:97 #
0.10000000000000000555111512312578 1:78 2:87 3:6238 4:143 5:86 6:95 #
0.10000000000000000555111512312578 1:56 2:61 3:3305 4:141 5:85 6:97 #
0.10000000000000000555111512312578 1:80 2:93 3:6890 4:119 5:58 6:58 #
-0.10000000000000000555111512312578 1:66 2:83 3:5126 4:115 5:62 6:68 #
0.10000000000000000555111512312578 1:66 2:81 3:5170 4:119 5:70 6:76 #
0.10000000000000000555111512312578 1:48 2:55 3:2480 4:144 5:90 6:105 #
-0.10000000000000000555111512312578 1:64 2:83 3:5077 4:119 5:61 6:72 #
0.10000000000000000555111512312578 1:60 2:77 3:4354 4:151 5:102 6:110 #
0.10000000000000000555111512312578 1:56 2:61 3:3274 4:141 5:78 6:90 #
-0.10000000000000000555111512312578 1:40 2:49 3:1934 4:97 5:33 6:40 #
0.10000000000000000555111512312578 1:56 2:63 3:3435 4:138 5:79 6:91 #
0.10000000000000000555111512312578 1:32 2:35 3:1102 4:130 5:74 6:83 #
-0.10000000000000000555111512312578 1:72 2:87 3:5802 4:136 5:84 6:91 #
-0.10000000000000000555111512312578 1:78 2:89 3:6446 4:116 5:68 6:74 #
0.10000000000000000555111512312578 1:44 2:49 3:2133 4:106 5:55 6:63 #
-0.10000000000000000555111512312578 1:56 2:61 3:3305 4:141 5:85 6:97 #
-0.10000000000000000555111512312578 1:56 2:65 3:3504 4:114 5:58 6:62 #
0.10000000000000000555111512312578 1:68 2:83 3:5248 4:151 5:101 6:107 #
0.10000000000000000555111512312578 1:44 2:49 3:2121 4:154 5:101 6:113 #
0.10000000000000000555111512312578 1:62 2:79 3:4641 4:109 5:60 6:70 #
0.10000000000000000555111512312578 1:56 2:63 3:3410 4:104 5:52 6:62 #
-0.10000000000000000555111512312578 1:66 2:73 3:4568 4:141 5:84 6:91 #
-0.10000000000000000555111512312578 1:74 2:91 3:6165 4:124 5:72 6:78 #
0.10000000000000000555111512312578 1:60 2:71 3:4040 4:115 5:63 6:72 #
0.10000000000000000555111512312578 1:49 2:57 3:2756 4:105 5:38 6:42 #
-0.10000000000000000555111512312578 1:54 2:63 3:3280 4:106 5:53 6:69 #
0.10000000000000000555111512312578 1:64 2:79 3:4761 4:110 5:60 6:71 #
0.10000000000000000555111512312578 1:58 2:73 3:4061 4:121 5:65 6:74 #
0.10000000000000000555111512312578 1:50 2:61 3:2942 4:151 5:92 6:97 #
0.10000000000000000555111512312578 1:54 2:57 3:2959 4:127 5:69 6:84 #
0.10000000000000000555111512312578 1:44 2:51 3:2160 4:112 5:63 6:69 #
0.10000000000000000555111512312578 1:48 2:51 3:2354 4:129 5:72 6:87 #
0.10000000000000000555111512312578 1:62 2:75 3:4377 4:116 5:63 6:72 #
0.10000000000000000555111512312578 1:42 2:49 3:2035 4:133 5:81 6:90 #
0.10000000000000000555111512312578 1:64 2:79 3:4788 4:130 5:77 6:85 #
-0.10000000000000000555111512312578 1:66 2:73 3:4568 4:141 5:84 6:91 #
-0.10000000000000000555111512312578 1:44 2:53 3:2259 4:131 5:71 6:87 #
-0.10000000000000000555111512312578 1:74 2:83 3:5730 4:115 5:60 6:68 #
0.10000000000000000555111512312578 1:72 2:83 3:5623 4:137 5:82 6:83 #
0.10000000000000000555111512312578 1:52 2:63 3:3136 4:130 5:73 6:79 #
0.10000000000000000555111512312578 1:58 2:63 3:3580 4:124 5:68 6:76 #
0.10000000000000000555111512312578 1:38 2:43 3:1610 4:113 5:63 6:70 #
-0.10000000000000000555111512312578 1:44 2:53 3:2259 4:131 5:71 6:87 #
-0.10000000000000000555111512312578 1:34 2:41 3:1362 4:145 5:75 6:96 #
0.10000000000000000555111512312578 1:56 2:69 3:3666 4:117 5:67 6:75 #
0.10000000000000000555111512312578 1:57 2:73 3:3979 4:130 5:82 6:96 #
0.10000000000000000555111512312578 1:70 2:85 3:5522 4:118 5:68 6:76 #
-0.10000000000000000555111512312578 1:56 2:69 3:3659 4:124 5:68 6:84 #
0.10000000000000000555111512312578 1:66 2:81 3:5089 4:123 5:75 6:82 #
-0.10000000000000000555111512312578 1:52 2:63 3:3111 4:110 5:58 6:74 #
0.10000000000000000555111512312578 1:55 2:69 3:3664 4:110 5:60 6:67 #
-0.10000000000000000555111512312578 1:32 2:37 3:1181 4:93 5:12 6:18 #
-0.10000000000000000555111512312578 1:66 2:67 3:4240 4:137 5:79 6:94 #
0.10000000000000000555111512312578 1:64 2:79 3:4849 4:115 5:67 6:75 #
0.10000000000000000555111512312578 1:54 2:59 3:3091 4:111 5:61 6:76 #
0.10000000000000000555111512312578 1:60 2:77 3:4354 4:151 5:102 6:110 #
-0.10000000000000000555111512312578 1:38 2:43 3:1604 4:142 5:62 6:78 #
0.10000000000000000555111512312578 1:48 2:51 3:2334 4:135 5:80 6:94 #
0.10000000000000000555111512312578 1:50 2:53 3:2554 4:152 5:96 6:107 #
0.10000000000000000555111512312578 1:68 2:79 3:5109 4:110 5:42 6:40 #
0.10000000000000000555111512312578 1:50 2:53 3:2561 4:108 5:61 6:63 #
-0.10000000000000000555111512312578 1:40 2:41 3:1628 4:158 5:76 6:100 #
-0.10000000000000000555111512312578 1:64 2:71 3:4272 4:126 5:70 6:86 #
-0.10000000000000000555111512312578 1:42 2:47 3:1956 4:169 5:78 6:99 #
0.10000000000000000555111512312578 1:56 2:63 3:3438 4:115 5:63 6:70 #
-0.10000000000000000555111512312578 1:70 2:79 3:5217 4:132 5:79 6:92 #
0.10000000000000000555111512312578 1:48 2:55 3:2552 4:108 5:65 6:68 #
0.10000000000000000555111512312578 1:60 2:63 3:3718 4:178 5:140 6:134 #
-0.10000000000000000555111512312578 1:60 2:71 3:4039 4:115 5:64 6:78 #
-0.10000000000000000555111512312578 1:34 2:39 3:1310 4:130 5:64 6:82 #
-0.10000000000000000555111512312578 1:56 2:71 3:3762 4:122 5:64 6:74 #
-0.10000000000000000555111512312578 1:38 2:43 3:1604 4:142 5:62 6:78 #
0.10000000000000000555111512312578 1:50 2:53 3:2543 4:156 5:98 6:110 #
-0.10000000000000000555111512312578 1:68 2:75 3:4877 4:133 5:76 6:90 #
-0.10000000000000000555111512312578 1:60 2:73 3:4198 4:132 5:75 6:89 #
0.10000000000000000555111512312578 1:58 2:65 3:3484 4:151 5:98 6:114 #
-0.10000000000000000555111512312578 1:58 2:59 3:3358 4:121 5:57 6:78 #
0.10000000000000000555111512312578 1:52 2:55 3:2734 4:116 5:62 6:71 #
-0.10000000000000000555111512312578 1:60 2:73 3:4198 4:132 5:75 6:89 #
-0.10000000000000000555111512312578 1:54 2:61 3:3156 4:143 5:74 6:94 #
-0.10000000000000000555111512312578 1:64 2:71 3:4254 4:108 5:56 6:66 #
-0.10000000000000000555111512312578 1:58 2:59 3:3358 4:121 5:57 6:78 #
0.10000000000000000555111512312578 1:46 2:51 3:2260 4:111 5:61 6:67 #
-0.10000000000000000555111512312578 1:84 2:91 3:7028 4:118 5:70 6:76 #
-0.10000000000000000555111512312578 1:60 2:63 3:3615 4:101 5:49 6:61 #
0.10000000000000000555111512312578 1:56 2:59 3:3124 4:146 5:95 6:110 #
-0.10000000000000000555111512312578 1:46 2:53 3:2369 4:151 5:78 6:100 #
-0.10000000000000000555111512312578 1:64 2:79 3:4788 4:130 5:77 6:85 #
-0.10000000000000000555111512312578 1:60 2:69 3:3959 4:134 5:78 6:94 #
-0.10000000000000000555111512312578 1:74 2:89 3:6087 4:137 5:85 6:92 #
0.10000000000000000555111512312578 1:58 2:65 3:3665 4:130 5:69 6:78 #
0.10000000000000000555111512312578 1:64 2:75 3:4614 4:126 5:67 6:70 #
0.10000000000000000555111512312578 1:69 2:81 3:5266 4:117 5:62 6:58 #
-0.10000000000000000555111512312578 1:60 2:73 3:4199 4:123 5:67 6:77 #
0.10000000000000000555111512312578 1:60 2:73 3:4119 4:134 5:76 6:77 #
0.10000000000000000555111512312578 1:50 2:57 3:2634 4:151 5:98 6:115 #
-0.10000000000000000555111512312578 1:32 2:33 3:1050 4:153 5:73 6:97 #
0.10000000000000000555111512312578 1:52 2:57 3:2805 4:124 5:65 6:75 #
-0.10000000000000000555111512312578 1:72 2:79 3:5331 4:125 5:74 6:87 #
-0.10000000000000000555111512312578 1:64 2:71 3:4272 4:126 5:70 6:86 #
-0.10000000000000000555111512312578 1:40 2:45 3:1780 4:135 5:60 6:78 #
0.10000000000000000555111512312578 1:53 2:61 3:3123 4:112 5:61 6:68 #
0.10000000000000000555111512312578 1:30 2:31 3:928 4:165 5:136 6:142 #
0.10000000000000000555111512312578 1:56 2:59 3:3139 4:107 5:59 6:61 #
0.10000000000000000555111512312578 1:46 2:51 3:2254 4:113 5:64 6:70 #
0.10000000000000000555111512312578 1:40 2:41 3:1623 4:127 5:74 6:82 #
-0.10000000000000000555111512312578 1:64 2:71 3:4272 4:126 5:70 6:86 #
-0.10000000000000000555111512312578 1:56 2:71 3:3771 4:126 5:70 6:84 #
-0.10000000000000000555111512312578 1:84 2:91 3:7028 4:118 5:70 6:76 #
-0.10000000000000000555111512312578 1:72 2:85 3:5641 4:119 5:65 6:72 #
-0.10000000000000000555111512312578 1:74 2:89 3:6070 4:118 5:70 6:76 #
0.10000000000000000555111512312578 1:46 2:53 3:2391 4:146 5:83 6:90 #
-0.10000000000000000555111512312578 1:56 2:69 3:3659 4:124 5:68 6:84 #
0.10000000000000000555111512312578 1:64 2:75 3:4614 4:126 5:67 6:70 #
0.10000000000000000555111512312578 1:64 2:81 3:5009 4:133 5:80 6:80 #
-0.10000000000000000555111512312578 1:56 2:71 3:3762 4:122 5:64 6:74 #
0.10000000000000000555111512312578 1:52 2:59 3:2925 4:108 5:61 6:67 #
0.10000000000000000555111512312578 1:58 2:73 3:3989 4:128 5:68 6:70 #
-0.10000000000000000555111512312578 1:72 2:87 3:5802 4:136 5:84 6:91 #
0.10000000000000000555111512312578 1:48 2:55 3:2552 4:108 5:65 6:68 #
0.10000000000000000555111512312578 1:52 2:69 3:3386 4:115 5:68 6:69 #
0.10000000000000000555111512312578 1:54 2:69 3:3514 4:145 5:85 6:87 #
0.10000000000000000555111512312578 1:57 2:69 3:3755 4:136 5:84 6:91 #
-0.10000000000000000555111512312578 1:74 2:91 3:6165 4:124 5:72 6:78 #
-0.10000000000000000555111512312578 1:40 2:45 3:1780 4:135 5:60 6:78 #
0.10000000000000000555111512312578 1:46 2:61 3:2746 4:102 5:57 6:58 #
0.10000000000000000555111512312578 1:60 2:63 3:3609 4:118 5:65 6:72 #
-0.10000000000000000555111512312578 1:66 2:83 3:5126 4:115 5:62 6:68 #
0.10000000000000000555111512312578 1:68 2:75 3:4802 4:181 5:138 6:132 #
0.10000000000000000555111512312578 1:46 2:49 3:2192 4:128 5:76 6:83 #
-0.10000000000000000555111512312578 1:74 2:89 3:6070 4:118 5:70 6:76 #
0.10000000000000000555111512312578 1:68 2:79 3:5120 4:148 5:94 6:95 #
0.10000000000000000555111512312578 1:58 2:75 3:4218 4:134 5:83 6:77 #
-0.10000000000000000555111512312578 1:68 2:81 3:5172 4:137 5:82 6:95 #
-0.10000000000000000555111512312578 1:60 2:69 3:3959 4:134 5:78 6:94 #
-0.10000000000000000555111512312578 1:48 2:49 3:2331 4:144 5:78 6:105 #
0.10000000000000000555111512312578 1:64 2:71 3:4295 4:96 5:61 6:49 #
0.10000000000000000555111512312578 1:64 2:73 3:4426 4:179 5:137 6:131 #
0.10000000000000000555111512312578 1:50 2:61 3:2939 4:181 5:143 6:137 #
0.10000000000000000555111512312578 1:32 2:35 3:1108 4:167 5:95 6:91 #
0.10000000000000000555111512312578 1:40 2:47 3:1831 4:107 5:65 6:67 #
0.10000000000000000555111512312578 1:42 2:45 3:1835 4:146 5:108 6:110 #
0.10000000000000000555111512312578 1:52 2:61 3:3026 4:110 5:56 6:50 #
0.10000000000000000555111512312578 1:52 2:61 3:3026 4:110 5:56 6:50 #
