SVM-light Version V6.02
0 # kernel type
3 # kernel parameter -d 
1 # kernel parameter -g 
1 # kernel parameter -s 
1 # kernel parameter -r 
empty# kernel parameter -u 
6 # highest feature index 
325 # number of training documents 
197 # number of support vectors plus 1 
3.919576 # threshold b, each following line is a SV (starting with alpha*y)
-0.36524815803413979153901891550049 1:48 2:49 3:1744 4:118 5:98 6:184 #
0.2743806052998793987285353068728 1:64 2:73 3:3468 4:58 5:56 6:152 #
2.5045520342455347417853772640228 1:34 2:47 3:1170 4:134 5:105 6:186 #
3.151977461305591532436665147543 1:26 2:29 3:534 4:103 5:86 6:159 #
-1.4320309914052520294802661737776 1:28 2:33 3:664 4:202 5:118 6:166 #
0.30249245219380815896670355868991 1:86 2:105 3:6794 4:94 5:88 6:150 #
0.99479569881144325194100019871257 1:38 2:49 3:1362 4:141 5:126 6:194 #
2.4889959295091301783031667582691 1:32 2:39 3:904 4:85 5:74 6:166 #
-0.13839096840895048767805519673857 1:54 2:61 3:2450 4:52 5:52 6:131 #
-0.66780476285724077456507075112313 1:38 2:45 3:1250 4:75 5:57 6:149 #
0.78526338174072307651840674225241 1:56 2:63 3:2620 4:96 5:88 6:154 #
-0.53264338900406471566384425386786 1:36 2:41 3:1076 4:97 5:104 6:159 #
5 1:34 2:41 3:1018 4:205 5:126 6:172 #
-0.26458168332862896932056173682213 1:32 2:37 3:856 4:73 5:91 6:139 #
-4.3663315001728051356622017920017 1:42 2:49 3:1518 4:206 5:144 6:199 #
-0.48443859592052640472559232875938 1:38 2:43 3:1198 4:91 5:73 6:171 #
-2.7502518414137613333991794206668 1:28 2:35 3:704 4:92 5:75 6:164 #
-0.89759659887419041002232233950053 1:42 2:43 3:1330 4:108 5:85 6:174 #
4.0015307978833192237289040349424 1:40 2:43 3:1260 4:124 5:94 6:174 #
-0.0096372130310368731009873499715468 1:70 2:79 3:4146 4:62 5:74 6:132 #
2.5574923901981616580769696156494 1:36 2:37 3:972 4:91 5:92 6:151 #
2.3308162969236692063645932648797 1:32 2:39 3:904 4:92 5:92 6:153 #
0.89507007775397495752400800483883 1:92 2:101 3:7000 4:95 5:89 6:165 #
1.1599583804698561095847253454849 1:32 2:45 3:1064 4:86 5:72 6:138 #
-0.67360052351096300071731093339622 1:30 2:43 3:930 4:243 5:215 6:232 #
-1.2179307140613637727710738545284 1:52 2:57 3:2192 4:135 5:99 6:188 #
-4.3246774827081368997028221201617 1:86 2:105 3:6746 4:97 5:94 6:160 #
0.15714334353744671690655820839311 1:34 2:47 3:1170 4:146 5:111 6:201 #
-1.2624913930763859148953542899108 1:28 2:31 3:624 4:127 5:97 6:187 #
-0.090027897885875063366256654262543 1:60 2:71 3:3172 4:184 5:191 6:237 #
0.81939412172768621989149551154696 1:42 2:45 3:1398 4:129 5:104 6:181 #
1.7224085240027131593620879357331 1:92 2:107 3:7388 4:105 5:100 6:166 #
-3.1380123729479478811299486551434 1:34 2:41 3:1018 4:60 5:77 6:137 #
-1.5889085832991334257258131401613 1:38 2:45 3:1250 4:99 5:76 6:151 #
-0.26289991989529548632731348334346 1:32 2:39 3:904 4:101 5:119 6:176 #
-0.5004562920537409809185191988945 1:60 2:67 3:2988 4:62 5:55 6:139 #
-0.4319296124532119307559696608223 1:48 2:55 3:1952 4:137 5:108 6:201 #
0.23050467605927504877172395936213 1:50 2:61 3:2270 4:202 5:162 6:213 #
-0.28225151038712170681321822485188 1:22 2:23 3:354 4:145 5:103 6:206 #
1.7558584271017432243411349190865 1:34 2:37 3:922 4:108 5:83 6:171 #
-0.27770255207240990280581627303036 1:30 2:43 3:930 4:96 5:87 6:151 #
4.1602276864466034567158203572035 1:32 2:35 3:812 4:107 5:100 6:164 #
-0.0072069473747648502351403898558146 1:20 2:29 3:420 4:134 5:117 6:209 #
-0.0016667248959956193488096687360667 1:26 2:27 3:502 4:90 5:71 6:154 #
-0.42933330478097175841867283452302 1:44 2:55 3:1788 4:47 5:42 6:117 #
1.1077176997049811291162768611684 1:32 2:41 3:952 4:147 5:119 6:197 #
-1.0468540548090459196828305721283 1:69 2:81 3:4235 4:71 5:77 6:145 #
-0.85376011958870634543927735649049 1:24 2:35 3:620 4:84 5:63 6:159 #
-0.24031781234672808245100839030783 1:30 2:43 3:930 4:96 5:108 6:161 #
-0.81247209170917500387076870538294 1:46 2:53 3:1790 4:97 5:71 6:152 #
-0.54169838907995027099673279735725 1:42 2:47 3:1450 4:137 5:106 6:201 #
-0.1479461591926360952697905304376 1:44 2:49 3:1584 4:79 5:93 6:161 #
-0.41722324251261255767531110905111 1:42 2:43 3:1330 4:141 5:106 6:200 #
-2.8863965073268524896832332160557 1:26 2:29 3:534 4:48 5:59 6:122 #
-0.014051470795317655415601620916277 1:28 2:33 3:656 4:89 5:83 6:139 #
-0.00047251860592276498373998094848503 1:38 2:45 3:1250 4:122 5:88 6:184 #
0.010136507808912315065086318099929 1:38 2:41 3:1142 4:181 5:136 6:204 #
-0.53931926920644812639693554956466 1:28 2:29 3:584 4:110 5:85 6:170 #
-0.50207957510235701192868873476982 1:38 2:45 3:1250 4:140 5:110 6:203 #
-0.10376675550293334993057214887813 1:44 2:53 3:1848 4:51 5:48 6:128 #
-1.5675556538760417879529995843768 1:32 2:41 3:944 4:108 5:92 6:180 #
-0.032870337408080763097473209199961 1:42 2:49 3:1518 4:52 5:50 6:122 #
-0.19110460660408534749876707792282 1:36 2:41 3:1068 4:92 5:87 6:177 #
0.61493786666642691329798253718764 1:38 2:45 3:1250 4:104 5:89 6:160 #
4.9540465728603004791352759639267 1:32 2:41 3:944 4:100 5:91 6:156 #
1.1362022626489534093963129635085 1:40 2:41 3:1216 4:225 5:153 6:204 #
-2.7165886227198967617368907667696 1:32 2:37 3:856 4:111 5:88 6:175 #
0.16601645762225425428937342076097 1:34 2:35 3:866 4:136 5:98 6:187 #
-0.026289329528220051201969909016043 1:43 2:73 3:2503 4:227 5:233 6:245 #
-0.014946361985893691359805757201684 1:24 2:35 3:620 4:147 5:97 6:168 #
-0.08561633375965937986507015011739 1:56 2:63 3:2620 4:163 5:170 6:224 #
-0.55465599740676907458691857755184 1:66 2:77 3:3790 4:154 5:138 6:207 #
-0.60832098042614735078359444742091 1:28 2:39 3:788 4:37 5:20 6:125 #
2.0996280468610279967833776026964 1:40 2:47 3:1372 4:142 5:114 6:207 #
0.092348850168721421938222704284271 1:96 2:101 3:7364 4:108 5:102 6:158 #
-0.20076549520901909584580380396801 1:40 2:41 3:1216 4:133 5:100 6:210 #
-0.75510295197465726602104041376151 1:50 2:57 3:2110 4:243 5:242 6:248 #
-1.0643285435091844881583256210433 1:60 2:63 3:2828 4:50 5:69 6:113 #
1.1939670150895445033256692113355 1:34 2:41 3:1018 4:133 5:95 6:185 #
-0.25790874820872500272628258244367 1:48 2:59 3:2084 4:43 5:41 6:120 #
-0.3725410801392523008068735634879 1:32 2:37 3:856 4:248 5:172 6:213 #
-0.46316502222798849874862980868784 1:34 2:37 3:922 4:109 5:87 6:175 #
2.7910158576157897414304898120463 1:46 2:51 3:1738 4:180 5:154 6:218 #
0.91957555982213179390782897826284 1:74 2:83 3:4622 4:148 5:119 6:190 #
-0.069689015757319339172681793570518 1:46 2:49 3:1654 4:201 5:202 6:243 #
-0.035162296770904682974290267338802 1:42 2:47 3:1450 4:105 5:80 6:171 #
-0.41252381373173818701616255566478 1:56 2:56 3:2478 4:223 5:223 6:241 #
-0.36577430936984356435459631029516 1:28 2:31 3:624 4:143 5:110 6:209 #
-0.020048616196033597347536669985857 1:26 2:29 3:534 4:87 5:81 6:141 #
0.23482846423182479611568851396441 1:38 2:47 3:1310 4:124 5:105 6:179 #
-1.1859436050498723957957736274693 1:38 2:43 3:1190 4:44 5:46 6:124 #
-0.62517552762531636290077585726976 1:44 2:45 3:1472 4:107 5:81 6:171 #
-0.035803634028866326843854039907455 1:26 2:27 3:502 4:138 5:106 6:209 #
-0.11617437529746357793847266748344 1:38 2:47 3:1310 4:243 5:242 6:247 #
5 1:34 2:39 3:966 4:87 5:71 6:139 #
-5 1:30 2:35 3:758 4:202 5:128 6:183 #
2.9896259010215828766376944258809 1:34 2:43 3:1054 4:108 5:89 6:175 #
-0.60054528342237745164311490952969 1:30 2:37 3:790 4:34 5:26 6:118 #
1.7648707520349080635213567802566 1:89 2:107 3:7197 4:104 5:98 6:159 #
-0.0011230407021189936500604744651355 1:32 2:37 3:856 4:149 5:97 6:169 #
-0.37366568670722405398620935557119 1:52 2:59 3:2280 4:73 5:83 6:155 #
0.2985459859482944011688232421875 1:88 2:101 3:6676 4:92 5:89 6:146 #
0.56847968209396526617638301104307 1:38 2:43 3:1198 4:103 5:79 6:153 #
-0.34008037493420628649687387223821 1:52 2:59 3:2288 4:45 5:65 6:109 #
-0.55952101784858232491615126491524 1:30 2:35 3:758 4:102 5:77 6:160 #
-0.15394342651004055966268424526788 1:38 2:43 3:1198 4:241 5:229 6:243 #
2.1087101432394170785755704855546 1:36 2:37 3:972 4:96 5:80 6:155 #
-0.21950695275837661668560940597672 1:44 2:49 3:1584 4:239 5:243 6:248 #
0.89785068564336256713431794196367 1:40 2:47 3:1364 4:117 5:98 6:171 #
-0.16334720248416678689551417846815 1:46 2:51 3:1738 4:105 5:109 6:162 #
-0.21421075445186943397857248783112 1:28 2:31 3:624 4:76 5:62 6:155 #
0.388752385136147182720378623344 1:44 2:45 3:1472 4:171 5:107 6:170 #
-0.18851478187102685413201186293009 1:50 2:57 3:2102 4:59 5:56 6:138 #
2.2755157731791086916928179562092 1:30 2:41 3:902 4:125 5:107 6:185 #
-0.0027445191908839206007542088627815 1:30 2:43 3:946 4:195 5:198 6:240 #
-0.70081777336241746212408543215133 1:36 2:49 3:1296 4:125 5:97 6:182 #
-0.32883549282678536940238700481132 1:50 2:55 3:2038 4:62 5:50 6:140 #
-0.24786054787546163424849510192871 1:26 2:29 3:534 4:71 5:85 6:149 #
-0.28275486573922692379312593402574 1:54 2:57 3:2298 4:56 5:51 6:135 #
-0.11533426584971742667740102206153 1:36 2:41 3:1068 4:234 5:235 6:244 #
5 1:32 2:35 3:812 4:107 5:100 6:164 #
-0.0049162985636006795164831828515162 1:32 2:35 3:812 4:198 5:208 6:246 #
-3.011610962851012374130732496269 1:36 2:37 3:972 4:71 5:76 6:136 #
-0.51487216850716399640930376335746 1:36 2:37 3:972 4:96 5:89 6:151 #
-0.28367382090469384081643511308357 1:34 2:35 3:866 4:246 5:250 6:251 #
-0.2360504496025157550320727750659 1:58 2:65 3:2794 4:66 5:63 6:144 #
-0.014808675389790693088798434473574 1:34 2:41 3:1018 4:106 5:84 6:179 #
-0.00052520700239977458068096893839538 1:40 2:47 3:1372 4:68 5:82 6:136 #
-0.40615010182899968782521682442166 1:24 2:33 3:580 4:154 5:92 6:163 #
-0.20843968911123189613476824888494 1:36 2:37 3:972 4:97 5:73 6:156 #
-0.033733567276542197888034024799708 1:40 2:47 3:1372 4:133 5:110 6:180 #
0.015287496232985284955185889543827 1:40 2:43 3:1260 4:163 5:118 6:186 #
-0.1103828933821300178896862576039 1:30 2:35 3:758 4:45 5:25 6:151 #
0.36326351741587359356344677507877 1:34 2:41 3:1018 4:102 5:86 6:180 #
-0.55357053970513736551595229684608 1:22 2:25 3:382 4:175 5:123 6:204 #
-0.39349174816133736243273233412765 1:40 2:47 3:1364 4:145 5:115 6:189 #
-0.46219726895440066405384982317628 1:42 2:49 3:1518 4:242 5:246 6:250 #
-0.00700262234423498775015559658641 1:23 2:35 3:609 4:42 5:50 6:116 #
-0.16326724244316537237864395137876 1:36 2:41 3:1076 4:92 5:87 6:177 #
-0.11256220173575570697721559554338 1:46 2:59 3:2102 4:81 5:96 6:144 #
-1.9495910939945080286861411877908 1:28 2:33 3:664 4:120 5:105 6:180 #
-0.39741271754263235438386914211151 1:47 2:81 3:3029 4:106 5:117 6:165 #
0.97283474225729449358368583489209 1:28 2:39 3:788 4:108 5:82 6:171 #
-0.020051413508468840518617071211338 1:32 2:41 3:960 4:177 5:119 6:191 #
-0.060202451950806090685830440634163 1:42 2:43 3:1330 4:224 5:227 6:242 #
-0.03802727276168660353050654521212 1:46 2:51 3:1738 4:224 5:227 6:243 #
-0.62856980190745304071242571808398 1:28 2:33 3:656 4:56 5:74 6:126 #
-1.0132795744167104601274331798777 1:24 2:25 3:416 4:192 5:119 6:186 #
-0.046856169116878246261315155152261 1:44 2:51 3:1644 4:69 5:80 6:150 #
-0.00046581113695381981543164329195861 1:44 2:53 3:1708 4:209 5:204 6:226 #
-5 1:40 2:47 3:1372 4:132 5:94 6:183 #
-0.060915862396790518284994675468624 1:44 2:49 3:1584 4:214 5:227 6:244 #
0.018702698720745761923334171683564 1:90 2:107 3:7214 4:85 5:82 6:139 #
-0.42614651762356453579272397291788 1:24 2:25 3:416 4:33 5:10 6:135 #
-0.014415804882172311707222434051801 1:50 2:57 3:2110 4:80 5:95 6:153 #
0.27723814664042212285721689113416 1:28 2:39 3:800 4:138 5:105 6:191 #
-0.11666715864116383727377979084849 1:36 2:41 3:1068 4:55 5:74 6:126 #
-0.32904937539083078945623128674924 1:26 2:27 3:502 4:138 5:106 6:209 #
0.053936366995685602887533605098724 1:34 2:41 3:1018 4:97 5:93 6:159 #
-0.053683983977595772785207373090088 1:40 2:43 3:1260 4:77 5:62 6:152 #
-0.09147071151679853073801496066153 1:40 2:47 3:1372 4:34 5:26 6:120 #
-0.24168801380841742343363875988871 1:36 2:37 3:972 4:243 5:197 6:225 #
1.0413869306883043464040383696556 1:50 2:57 3:2110 4:193 5:125 6:181 #
-0.10816766104837460815701888350304 1:68 2:71 3:3648 4:181 5:193 6:238 #
-0.75856900337349475460513303914922 1:16 2:27 3:312 4:151 5:89 6:161 #
-0.020952309339602681603764722240157 1:28 2:29 3:584 4:86 5:60 6:145 #
-0.1602766845203871248770610691281 1:16 2:25 3:292 4:132 5:98 6:189 #
-0.01347293029765239680273225530982 1:28 2:29 3:584 4:77 5:59 6:137 #
-0.090727651944256137994671007618308 1:26 2:27 3:502 4:144 5:104 6:206 #
-0.044812026815117221578699258088818 1:54 2:61 3:2442 4:76 5:84 6:145 #
-0.12237731769587689711897837696597 1:42 2:51 3:1566 4:226 5:233 6:244 #
-0.071662779407734078507274944058736 1:38 2:43 3:1190 4:234 5:240 6:247 #
-0.13736693582981729377934243530035 1:44 2:57 3:1852 4:229 5:229 6:241 #
-0.035485005538066438646183087257668 1:34 2:45 3:1222 4:24 5:35 6:100 #
-0.077992540898812023897335166111588 1:30 2:31 3:678 4:137 5:105 6:205 #
-0.082217428977504392051400827767793 1:54 2:63 3:2510 4:175 5:183 6:234 #
-0.01340677263818531445016546399529 1:16 2:27 3:312 4:246 5:234 6:239 #
-0.00033663626134128321609750855714083 1:62 2:79 3:3670 4:167 5:172 6:222 #
0.24256132722417741987008810156112 1:50 2:53 3:1970 4:180 5:117 6:176 #
-0.042867447449200110631828408713773 1:16 2:25 3:292 4:132 5:98 6:189 #
-0.017008379514054983161486234166659 1:28 2:33 3:664 4:111 5:95 6:177 #
-0.10843222956154363600944634526968 1:44 2:51 3:1652 4:79 5:68 6:145 #
-0.082386788160564564109655805168586 1:44 2:47 3:1528 4:32 5:27 6:117 #
-1.957657749926053347699905771151e-07 1:32 2:35 3:812 4:136 5:97 6:202 #
-0.064441758766466961105834343470633 1:36 2:41 3:1076 4:33 5:23 6:126 #
-0.01683221423388295279188753283961 1:52 2:59 3:2288 4:43 5:63 6:107 #
0.0051977110601129083988780621439219 1:58 2:71 3:3062 4:102 5:87 6:155 #
-0.017826115679311804740336810937151 1:56 2:67 3:2784 4:218 5:224 6:242 #
-0.003098460525854940250667368673021 1:46 2:57 3:1926 4:244 5:243 6:249 #
-0.019597218631247415032703429460526 1:30 2:35 3:766 4:142 5:101 6:205 #
-0.0012378800990466842790738155599684 1:26 2:27 3:502 4:232 5:237 6:246 #
-0.0028051294352025024636532180011272 1:60 2:75 3:3352 4:49 5:64 6:111 #
-1.0137924135512270222558850463201e-05 1:16 2:25 3:292 4:230 5:237 6:246 #
-9.6729610125933541964204920304837e-07 1:28 2:33 3:664 4:246 5:249 6:251 #
-0.00066632891772377966788099001860246 1:44 2:53 3:1708 4:46 5:61 6:108 #
1.11820181586380799297055985142e-05 1:58 2:73 3:3154 4:212 5:141 6:185 #
