SVM-light Version V6.02
0 # kernel type
3 # kernel parameter -d 
1 # kernel parameter -g 
1 # kernel parameter -s 
1 # kernel parameter -r 
empty# kernel parameter -u 
6 # highest feature index 
1029 # number of training documents 
723 # number of support vectors plus 1 
9.9434936 # threshold b, each following line is a SV (starting with alpha*y)
-0.010000000000000000208166817117217 1:58 2:63 3:2726 4:87 5:80 6:139 #
0.010000000000000000208166817117217 1:66 2:71 3:3514 4:98 5:88 6:153 #
-0.010000000000000000208166817117217 1:48 2:51 3:1824 4:83 5:80 6:141 #
0.010000000000000000208166817117217 1:48 2:55 3:1952 4:78 5:63 6:132 #
-0.010000000000000000208166817117217 1:74 2:91 3:5026 4:95 5:88 6:152 #
0.010000000000000000208166817117217 1:60 2:63 3:2828 4:50 5:69 6:113 #
-0.010000000000000000208166817117217 1:66 2:83 3:4078 4:85 5:77 6:144 #
0.010000000000000000208166817117217 1:84 2:101 3:6368 4:101 5:96 6:153 #
-0.010000000000000000208166817117217 1:66 2:83 3:4078 4:85 5:77 6:144 #
-0.010000000000000000208166817117217 1:66 2:83 3:4078 4:85 5:77 6:144 #
0.010000000000000000208166817117217 1:40 2:47 3:1364 4:90 5:87 6:143 #
-0.010000000000000000208166817117217 1:86 2:101 3:6506 4:103 5:99 6:159 #
-0.010000000000000000208166817117217 1:58 2:63 3:2726 4:87 5:80 6:139 #
-0.010000000000000000208166817117217 1:74 2:89 3:4942 4:93 5:86 6:145 #
0.010000000000000000208166817117217 1:84 2:101 3:6368 4:101 5:96 6:153 #
0.010000000000000000208166817117217 1:72 2:89 3:4780 4:109 5:103 6:162 #
-0.010000000000000000208166817117217 1:46 2:47 3:1606 4:42 5:62 6:107 #
0.010000000000000000208166817117217 1:52 2:55 3:2140 4:90 5:79 6:148 #
-0.010000000000000000208166817117217 1:50 2:53 3:1970 4:81 5:78 6:139 #
-0.010000000000000000208166817117217 1:50 2:53 3:1970 4:81 5:78 6:139 #
-0.010000000000000000208166817117217 1:36 2:37 3:972 4:93 5:94 6:153 #
0.010000000000000000208166817117217 1:72 2:89 3:4780 4:109 5:103 6:162 #
0.010000000000000000208166817117217 1:66 2:81 3:3994 4:103 5:95 6:156 #
0.010000000000000000208166817117217 1:60 2:63 3:2828 4:75 5:67 6:150 #
0.010000000000000000208166817117217 1:92 2:99 3:6896 4:90 5:85 6:142 #
-0.010000000000000000208166817117217 1:52 2:55 3:2140 4:67 5:56 6:144 #
-0.010000000000000000208166817117217 1:80 2:93 3:5584 4:96 5:89 6:152 #
0.010000000000000000208166817117217 1:92 2:99 3:6896 4:90 5:85 6:142 #
0.010000000000000000208166817117217 1:50 2:57 3:2102 4:86 5:80 6:138 #
-0.010000000000000000208166817117217 1:52 2:65 3:2496 4:81 5:68 6:134 #
-0.010000000000000000208166817117217 1:74 2:91 3:5026 4:95 5:88 6:152 #
0.010000000000000000208166817117217 1:72 2:89 3:4780 4:109 5:103 6:162 #
-0.010000000000000000208166817117217 1:36 2:41 3:1068 4:87 5:77 6:143 #
0.010000000000000000208166817117217 1:92 2:105 3:7396 4:87 5:83 6:140 #
-0.010000000000000000208166817117217 1:86 2:101 3:6506 4:103 5:99 6:159 #
0.010000000000000000208166817117217 1:60 2:63 3:2828 4:75 5:67 6:150 #
-0.010000000000000000208166817117217 1:86 2:101 3:6506 4:103 5:99 6:159 #
0.010000000000000000208166817117217 1:86 2:105 3:6896 4:86 5:82 6:139 #
-0.010000000000000000208166817117217 1:82 2:99 3:6110 4:102 5:97 6:159 #
-0.010000000000000000208166817117217 1:86 2:101 3:6506 4:103 5:99 6:159 #
-0.010000000000000000208166817117217 1:46 2:61 3:2082 4:75 5:75 6:134 #
0.010000000000000000208166817117217 1:82 2:95 3:5814 4:97 5:90 6:150 #
0.010000000000000000208166817117217 1:40 2:47 3:1364 4:90 5:87 6:143 #
-0.010000000000000000208166817117217 1:42 2:45 3:1398 4:89 5:87 6:146 #
0.010000000000000000208166817117217 1:34 2:39 3:966 4:88 5:84 6:139 #
0.010000000000000000208166817117217 1:80 2:95 3:5712 4:103 5:97 6:155 #
-0.010000000000000000208166817117217 1:34 2:39 3:966 4:88 5:84 6:139 #
0.010000000000000000208166817117217 1:48 2:55 3:1952 4:78 5:63 6:132 #
0.010000000000000000208166817117217 1:72 2:87 3:4684 4:100 5:92 6:152 #
-0.010000000000000000208166817117217 1:36 2:37 3:972 4:93 5:94 6:153 #
0.010000000000000000208166817117217 1:40 2:47 3:1364 4:90 5:87 6:143 #
-0.010000000000000000208166817117217 1:86 2:101 3:6506 4:103 5:99 6:159 #
-0.010000000000000000208166817117217 1:80 2:93 3:5584 4:96 5:89 6:152 #
-0.010000000000000000208166817117217 1:66 2:83 3:4078 4:85 5:77 6:144 #
-0.010000000000000000208166817117217 1:44 2:47 3:1528 4:84 5:78 6:134 #
-0.010000000000000000208166817117217 1:74 2:91 3:5026 4:95 5:88 6:152 #
0.010000000000000000208166817117217 1:76 2:93 3:5280 4:96 5:90 6:149 #
0.010000000000000000208166817117217 1:52 2:55 3:2140 4:83 5:69 6:141 #
0.010000000000000000208166817117217 1:64 2:79 3:3764 4:96 5:86 6:148 #
-0.010000000000000000208166817117217 1:60 2:63 3:2828 4:75 5:67 6:150 #
0.010000000000000000208166817117217 1:58 2:63 3:2726 4:90 5:78 6:146 #
0.010000000000000000208166817117217 1:64 2:67 3:3224 4:81 5:78 6:138 #
-0.010000000000000000208166817117217 1:34 2:39 3:966 4:88 5:84 6:139 #
-0.010000000000000000208166817117217 1:42 2:45 3:1398 4:89 5:87 6:146 #
0.010000000000000000208166817117217 1:40 2:47 3:1364 4:90 5:87 6:143 #
0.010000000000000000208166817117217 1:52 2:55 3:2140 4:90 5:79 6:148 #
0.010000000000000000208166817117217 1:56 2:69 3:2864 4:95 5:86 6:150 #
-0.010000000000000000208166817117217 1:74 2:91 3:5026 4:95 5:88 6:152 #
0.010000000000000000208166817117217 1:56 2:63 3:2620 4:80 5:67 6:134 #
-0.010000000000000000208166817117217 1:36 2:37 3:972 4:93 5:94 6:153 #
0.010000000000000000208166817117217 1:56 2:63 3:2620 4:80 5:67 6:134 #
-0.010000000000000000208166817117217 1:72 2:85 3:4584 4:87 5:79 6:145 #
0.010000000000000000208166817117217 1:80 2:95 3:5712 4:103 5:97 6:155 #
0.010000000000000000208166817117217 1:84 2:101 3:6368 4:101 5:96 6:153 #
0.010000000000000000208166817117217 1:28 2:33 3:656 4:88 5:84 6:139 #
-0.010000000000000000208166817117217 1:80 2:93 3:5584 4:96 5:89 6:152 #
-0.010000000000000000208166817117217 1:34 2:39 3:966 4:88 5:84 6:139 #
-0.010000000000000000208166817117217 1:46 2:47 3:1606 4:42 5:62 6:107 #
0.010000000000000000208166817117217 1:82 2:95 3:5814 4:97 5:90 6:150 #
-0.010000000000000000208166817117217 1:46 2:47 3:1606 4:42 5:62 6:107 #
-0.010000000000000000208166817117217 1:74 2:91 3:5026 4:95 5:88 6:152 #
0.010000000000000000208166817117217 1:64 2:67 3:3224 4:81 5:78 6:138 #
0.010000000000000000208166817117217 1:60 2:63 3:2828 4:75 5:67 6:150 #
-0.010000000000000000208166817117217 1:42 2:45 3:1398 4:89 5:87 6:146 #
-0.010000000000000000208166817117217 1:82 2:99 3:6110 4:102 5:97 6:159 #
0.010000000000000000208166817117217 1:86 2:105 3:6896 4:86 5:82 6:139 #
0.010000000000000000208166817117217 1:24 2:35 3:620 4:83 5:68 6:142 #
-0.010000000000000000208166817117217 1:42 2:45 3:1398 4:89 5:87 6:146 #
0.010000000000000000208166817117217 1:80 2:95 3:5712 4:103 5:97 6:155 #
-0.010000000000000000208166817117217 1:36 2:37 3:972 4:93 5:94 6:153 #
-0.010000000000000000208166817117217 1:66 2:83 3:4078 4:85 5:77 6:144 #
0.010000000000000000208166817117217 1:60 2:63 3:2828 4:92 5:82 6:149 #
0.010000000000000000208166817117217 1:36 2:37 3:972 4:95 5:80 6:153 #
0.010000000000000000208166817117217 1:64 2:67 3:3224 4:81 5:78 6:138 #
0.010000000000000000208166817117217 1:62 2:75 3:3446 4:89 5:78 6:144 #
-0.010000000000000000208166817117217 1:52 2:65 3:2496 4:81 5:68 6:134 #
0.010000000000000000208166817117217 1:82 2:95 3:5814 4:97 5:90 6:150 #
-0.010000000000000000208166817117217 1:74 2:91 3:5026 4:95 5:88 6:152 #
0.010000000000000000208166817117217 1:64 2:71 3:3492 4:107 5:101 6:171 #
-0.010000000000000000208166817117217 1:66 2:75 3:3698 4:81 5:70 6:140 #
-0.010000000000000000208166817117217 1:60 2:63 3:2828 4:75 5:67 6:150 #
0.010000000000000000208166817117217 1:70 2:83 3:4330 4:105 5:96 6:157 #
0.010000000000000000208166817117217 1:92 2:99 3:6896 4:90 5:85 6:142 #
-0.010000000000000000208166817117217 1:66 2:83 3:4078 4:85 5:77 6:144 #
0.010000000000000000208166817117217 1:36 2:37 3:972 4:95 5:80 6:153 #
-0.010000000000000000208166817117217 1:36 2:37 3:972 4:93 5:94 6:153 #
-0.010000000000000000208166817117217 1:66 2:83 3:4078 4:85 5:77 6:144 #
0.010000000000000000208166817117217 1:52 2:55 3:2140 4:90 5:79 6:148 #
0.010000000000000000208166817117217 1:28 2:33 3:664 4:87 5:84 6:146 #
0.010000000000000000208166817117217 1:92 2:99 3:6896 4:90 5:85 6:142 #
0.010000000000000000208166817117217 1:80 2:95 3:5712 4:103 5:97 6:155 #
0.010000000000000000208166817117217 1:70 2:85 3:4470 4:93 5:84 6:145 #
-0.010000000000000000208166817117217 1:36 2:41 3:1068 4:87 5:77 6:143 #
-0.010000000000000000208166817117217 1:36 2:41 3:1068 4:87 5:77 6:143 #
-0.010000000000000000208166817117217 1:36 2:37 3:972 4:93 5:94 6:153 #
0.010000000000000000208166817117217 1:36 2:37 3:972 4:95 5:80 6:153 #
-0.010000000000000000208166817117217 1:82 2:99 3:6110 4:102 5:97 6:159 #
-0.010000000000000000208166817117217 1:34 2:39 3:966 4:88 5:84 6:139 #
-0.010000000000000000208166817117217 1:52 2:65 3:2496 4:81 5:68 6:134 #
-0.010000000000000000208166817117217 1:36 2:37 3:972 4:93 5:94 6:153 #
-0.010000000000000000208166817117217 1:36 2:41 3:1068 4:87 5:77 6:143 #
-0.010000000000000000208166817117217 1:34 2:39 3:966 4:88 5:84 6:139 #
0.010000000000000000208166817117217 1:82 2:95 3:5814 4:97 5:90 6:150 #
0.010000000000000000208166817117217 1:24 2:35 3:620 4:83 5:68 6:142 #
-0.010000000000000000208166817117217 1:74 2:91 3:5026 4:95 5:88 6:152 #
0.010000000000000000208166817117217 1:64 2:79 3:3764 4:96 5:86 6:148 #
0.010000000000000000208166817117217 1:97 2:107 3:8051 4:86 5:82 6:139 #
-0.010000000000000000208166817117217 1:52 2:65 3:2496 4:81 5:68 6:134 #
0.010000000000000000208166817117217 1:86 2:97 3:6270 4:92 5:86 6:144 #
-0.010000000000000000208166817117217 1:74 2:91 3:5026 4:95 5:88 6:152 #
-0.010000000000000000208166817117217 1:36 2:37 3:972 4:93 5:94 6:153 #
0.010000000000000000208166817117217 1:84 2:101 3:6368 4:101 5:96 6:153 #
0.010000000000000000208166817117217 1:50 2:53 3:1970 4:81 5:78 6:139 #
0.010000000000000000208166817117217 1:92 2:105 3:7396 4:87 5:83 6:140 #
-0.010000000000000000208166817117217 1:74 2:91 3:5026 4:95 5:88 6:152 #
-0.010000000000000000208166817117217 1:42 2:45 3:1398 4:89 5:87 6:146 #
-0.010000000000000000208166817117217 1:38 2:43 3:1190 4:90 5:90 6:148 #
-0.010000000000000000208166817117217 1:46 2:61 3:2082 4:75 5:75 6:134 #
-0.010000000000000000208166817117217 1:52 2:65 3:2496 4:81 5:68 6:134 #
-0.010000000000000000208166817117217 1:74 2:91 3:5026 4:95 5:88 6:152 #
-0.010000000000000000208166817117217 1:36 2:41 3:1068 4:87 5:77 6:143 #
0.010000000000000000208166817117217 1:80 2:95 3:5712 4:103 5:97 6:155 #
-0.010000000000000000208166817117217 1:60 2:73 3:3248 4:83 5:71 6:135 #
-0.010000000000000000208166817117217 1:66 2:83 3:4078 4:85 5:77 6:144 #
-0.010000000000000000208166817117217 1:38 2:43 3:1190 4:90 5:90 6:148 #
0.010000000000000000208166817117217 1:52 2:55 3:2140 4:90 5:79 6:148 #
0.010000000000000000208166817117217 1:82 2:95 3:5814 4:97 5:90 6:150 #
0.010000000000000000208166817117217 1:92 2:105 3:7396 4:87 5:83 6:140 #
-0.010000000000000000208166817117217 1:52 2:65 3:2496 4:81 5:68 6:134 #
-0.010000000000000000208166817117217 1:36 2:41 3:1068 4:87 5:77 6:143 #
-0.010000000000000000208166817117217 1:64 2:67 3:3224 4:81 5:78 6:138 #
-0.010000000000000000208166817117217 1:80 2:97 3:5792 4:91 5:86 6:144 #
0.010000000000000000208166817117217 1:68 2:71 3:3648 4:93 5:84 6:150 #
0.010000000000000000208166817117217 1:58 2:73 3:3154 4:87 5:76 6:142 #
0.010000000000000000208166817117217 1:52 2:55 3:2140 4:67 5:56 6:144 #
-0.010000000000000000208166817117217 1:34 2:39 3:966 4:88 5:84 6:139 #
-0.010000000000000000208166817117217 1:38 2:43 3:1190 4:90 5:90 6:148 #
-0.010000000000000000208166817117217 1:80 2:93 3:5584 4:96 5:89 6:152 #
-0.010000000000000000208166817117217 1:44 2:47 3:1528 4:84 5:78 6:134 #
-0.010000000000000000208166817117217 1:80 2:93 3:5584 4:96 5:89 6:152 #
-0.010000000000000000208166817117217 1:86 2:101 3:6506 4:103 5:99 6:159 #
0.010000000000000000208166817117217 1:70 2:83 3:4330 4:105 5:96 6:157 #
-0.010000000000000000208166817117217 1:74 2:89 3:4942 4:93 5:86 6:145 #
0.010000000000000000208166817117217 1:97 2:107 3:8051 4:86 5:82 6:139 #
0.0068256805767853362745811729439538 1:34 2:47 3:1178 4:91 5:88 6:144 #
-0.010000000000000000208166817117217 1:80 2:93 3:5584 4:96 5:89 6:152 #
0.010000000000000000208166817117217 1:68 2:79 3:4012 4:88 5:77 6:141 #
0.010000000000000000208166817117217 1:38 2:47 3:1318 4:84 5:69 6:147 #
-0.010000000000000000208166817117217 1:36 2:37 3:972 4:93 5:94 6:153 #
0.010000000000000000208166817117217 1:80 2:95 3:5712 4:103 5:97 6:155 #
0.010000000000000000208166817117217 1:36 2:37 3:972 4:95 5:80 6:153 #
0.010000000000000000208166817117217 1:40 2:47 3:1364 4:90 5:87 6:143 #
-0.010000000000000000208166817117217 1:36 2:37 3:972 4:93 5:94 6:153 #
0.010000000000000000208166817117217 1:72 2:89 3:4780 4:109 5:103 6:162 #
0.0082971804329486538442939291826406 1:54 2:57 3:2434 4:58 5:76 6:120 #
-0.010000000000000000208166817117217 1:82 2:99 3:6110 4:102 5:97 6:159 #
-0.010000000000000000208166817117217 1:52 2:65 3:2496 4:81 5:68 6:134 #
0.010000000000000000208166817117217 1:80 2:95 3:5712 4:103 5:97 6:155 #
-0.010000000000000000208166817117217 1:80 2:93 3:5584 4:96 5:89 6:152 #
0.010000000000000000208166817117217 1:80 2:97 3:5792 4:91 5:86 6:144 #
-0.010000000000000000208166817117217 1:52 2:65 3:2496 4:81 5:68 6:134 #
-0.010000000000000000208166817117217 1:60 2:63 3:2828 4:75 5:67 6:150 #
-0.010000000000000000208166817117217 1:64 2:67 3:3224 4:81 5:78 6:138 #
0.010000000000000000208166817117217 1:46 2:55 3:1866 4:92 5:80 6:155 #
-0.010000000000000000208166817117217 1:52 2:65 3:2496 4:81 5:68 6:134 #
-0.010000000000000000208166817117217 1:80 2:93 3:5584 4:96 5:89 6:152 #
-0.010000000000000000208166817117217 1:60 2:63 3:2828 4:75 5:67 6:150 #
0.010000000000000000208166817117217 1:40 2:47 3:1364 4:90 5:87 6:143 #
0.010000000000000000208166817117217 1:92 2:105 3:7396 4:87 5:83 6:140 #
0.010000000000000000208166817117217 1:56 2:65 3:2770 4:86 5:80 6:138 #
-0.010000000000000000208166817117217 1:34 2:39 3:966 4:88 5:84 6:139 #
0.010000000000000000208166817117217 1:40 2:47 3:1364 4:90 5:87 6:143 #
0.010000000000000000208166817117217 1:56 2:63 3:2620 4:80 5:67 6:134 #
-0.010000000000000000208166817117217 1:80 2:93 3:5584 4:96 5:89 6:152 #
0.010000000000000000208166817117217 1:72 2:89 3:4780 4:109 5:103 6:162 #
-0.010000000000000000208166817117217 1:34 2:39 3:966 4:88 5:84 6:139 #
0.010000000000000000208166817117217 1:52 2:61 3:2344 4:105 5:94 6:164 #
-0.010000000000000000208166817117217 1:56 2:59 3:2460 4:78 5:75 6:136 #
0.010000000000000000208166817117217 1:40 2:47 3:1364 4:90 5:87 6:143 #
0.010000000000000000208166817117217 1:52 2:55 3:2140 4:83 5:69 6:141 #
-0.010000000000000000208166817117217 1:56 2:59 3:2460 4:78 5:75 6:136 #
0.010000000000000000208166817117217 1:40 2:47 3:1364 4:90 5:87 6:143 #
0.010000000000000000208166817117217 1:32 2:37 3:856 4:41 5:61 6:106 #
0.010000000000000000208166817117217 1:72 2:89 3:4780 4:109 5:103 6:162 #
0.010000000000000000208166817117217 1:64 2:71 3:3396 4:82 5:69 6:134 #
0.010000000000000000208166817117217 1:34 2:39 3:966 4:88 5:84 6:139 #
0.010000000000000000208166817117217 1:76 2:93 3:5280 4:96 5:90 6:149 #
-0.010000000000000000208166817117217 1:36 2:37 3:972 4:93 5:94 6:153 #
0.010000000000000000208166817117217 1:46 2:47 3:1606 4:67 5:54 6:143 #
0.010000000000000000208166817117217 1:30 2:43 3:930 4:92 5:79 6:149 #
0.010000000000000000208166817117217 1:34 2:39 3:966 4:88 5:84 6:139 #
-0.010000000000000000208166817117217 1:64 2:67 3:3224 4:81 5:78 6:138 #
-0.010000000000000000208166817117217 1:64 2:67 3:3224 4:81 5:78 6:138 #
0.010000000000000000208166817117217 1:40 2:47 3:1364 4:90 5:87 6:143 #
-0.010000000000000000208166817117217 1:46 2:61 3:2082 4:75 5:75 6:134 #
-0.010000000000000000208166817117217 1:66 2:83 3:4078 4:85 5:77 6:144 #
0.010000000000000000208166817117217 1:46 2:47 3:1606 4:67 5:54 6:143 #
-0.010000000000000000208166817117217 1:34 2:39 3:966 4:88 5:84 6:139 #
-1.7313505222605129664915479120735e-06 1:46 2:47 3:1606 4:67 5:54 6:143 #
0.010000000000000000208166817117217 1:36 2:41 3:1076 4:87 5:85 6:147 #
-0.010000000000000000208166817117217 1:34 2:39 3:966 4:88 5:84 6:139 #
0.0056072395925476636868722835060908 1:30 2:35 3:758 4:93 5:96 6:154 #
-0.010000000000000000208166817117217 1:38 2:43 3:1190 4:90 5:90 6:148 #
0.010000000000000000208166817117217 1:64 2:71 3:3396 4:92 5:83 6:149 #
0.010000000000000000208166817117217 1:28 2:39 3:808 4:87 5:84 6:139 #
0.010000000000000000208166817117217 1:34 2:47 3:1178 4:91 5:88 6:144 #
-0.010000000000000000208166817117217 1:50 2:53 3:1970 4:81 5:78 6:139 #
0.010000000000000000208166817117217 1:40 2:47 3:1364 4:90 5:87 6:143 #
-0.010000000000000000208166817117217 1:86 2:101 3:6506 4:103 5:99 6:159 #
-0.010000000000000000208166817117217 1:50 2:53 3:1970 4:81 5:78 6:139 #
0.010000000000000000208166817117217 1:78 2:91 3:5318 4:109 5:103 6:162 #
0.010000000000000000208166817117217 1:60 2:63 3:2828 4:50 5:69 6:113 #
0.0080895701945122421711031890367849 1:54 2:57 3:2434 4:58 5:76 6:120 #
0.010000000000000000208166817117217 1:60 2:63 3:2828 4:50 5:69 6:113 #
0.010000000000000000208166817117217 1:42 2:45 3:1398 4:89 5:87 6:146 #
0.010000000000000000208166817117217 1:28 2:29 3:584 4:144 5:139 6:186 #
-0.010000000000000000208166817117217 1:46 2:47 3:1606 4:42 5:62 6:107 #
0.010000000000000000208166817117217 1:68 2:71 3:3648 4:93 5:84 6:150 #
0.010000000000000000208166817117217 1:56 2:65 3:2770 4:86 5:80 6:138 #
-0.010000000000000000208166817117217 1:34 2:39 3:966 4:88 5:84 6:139 #
-0.010000000000000000208166817117217 1:34 2:39 3:966 4:88 5:84 6:139 #
-0.010000000000000000208166817117217 1:46 2:61 3:2082 4:75 5:75 6:134 #
0.010000000000000000208166817117217 1:46 2:47 3:1606 4:67 5:54 6:143 #
-0.010000000000000000208166817117217 1:34 2:39 3:966 4:88 5:84 6:139 #
0.010000000000000000208166817117217 1:66 2:81 3:3994 4:103 5:95 6:156 #
0.010000000000000000208166817117217 1:52 2:55 3:2140 4:83 5:69 6:141 #
-0.010000000000000000208166817117217 1:34 2:39 3:966 4:88 5:84 6:139 #
0.010000000000000000208166817117217 1:76 2:87 3:4960 4:93 5:84 6:145 #
0.010000000000000000208166817117217 1:36 2:41 3:1068 4:41 5:60 6:105 #
-0.010000000000000000208166817117217 1:46 2:47 3:1606 4:42 5:62 6:107 #
0.010000000000000000208166817117217 1:30 2:43 3:930 4:92 5:79 6:149 #
-0.010000000000000000208166817117217 1:46 2:61 3:2082 4:75 5:75 6:134 #
-0.010000000000000000208166817117217 1:46 2:61 3:2082 4:75 5:75 6:134 #
-0.010000000000000000208166817117217 1:36 2:37 3:972 4:93 5:94 6:153 #
-0.010000000000000000208166817117217 1:36 2:41 3:1068 4:87 5:77 6:143 #
-0.010000000000000000208166817117217 1:48 2:51 3:1824 4:83 5:80 6:141 #
0.010000000000000000208166817117217 1:34 2:39 3:966 4:88 5:84 6:139 #
0.010000000000000000208166817117217 1:46 2:47 3:1606 4:67 5:54 6:143 #
0.010000000000000000208166817117217 1:28 2:33 3:656 4:88 5:84 6:139 #
0.010000000000000000208166817117217 1:28 2:33 3:656 4:88 5:84 6:139 #
-0.010000000000000000208166817117217 1:50 2:53 3:1970 4:81 5:78 6:139 #
0.010000000000000000208166817117217 1:28 2:39 3:808 4:87 5:84 6:139 #
0.010000000000000000208166817117217 1:46 2:47 3:1606 4:67 5:54 6:143 #
0.010000000000000000208166817117217 1:40 2:47 3:1364 4:90 5:87 6:143 #
0.010000000000000000208166817117217 1:66 2:71 3:3514 4:98 5:88 6:153 #
0.010000000000000000208166817117217 1:62 2:75 3:3446 4:89 5:78 6:144 #
-0.010000000000000000208166817117217 1:48 2:51 3:1824 4:83 5:80 6:141 #
0.010000000000000000208166817117217 1:28 2:33 3:664 4:87 5:84 6:146 #
0.010000000000000000208166817117217 1:28 2:33 3:664 4:87 5:84 6:146 #
-0.010000000000000000208166817117217 1:80 2:97 3:5792 4:91 5:86 6:144 #
-0.010000000000000000208166817117217 1:42 2:45 3:1398 4:89 5:87 6:146 #
0.010000000000000000208166817117217 1:64 2:79 3:3764 4:96 5:86 6:148 #
-0.010000000000000000208166817117217 1:50 2:53 3:1970 4:81 5:78 6:139 #
-0.010000000000000000208166817117217 1:80 2:97 3:5792 4:91 5:86 6:144 #
0.010000000000000000208166817117217 1:34 2:39 3:966 4:88 5:84 6:139 #
-0.010000000000000000208166817117217 1:34 2:39 3:966 4:88 5:84 6:139 #
0.010000000000000000208166817117217 1:34 2:39 3:966 4:88 5:84 6:139 #
-0.010000000000000000208166817117217 1:34 2:39 3:966 4:88 5:84 6:139 #
0.010000000000000000208166817117217 1:34 2:39 3:966 4:88 5:84 6:139 #
-0.010000000000000000208166817117217 1:36 2:37 3:972 4:93 5:94 6:153 #
-0.010000000000000000208166817117217 1:52 2:55 3:2140 4:67 5:56 6:144 #
0.010000000000000000208166817117217 1:56 2:59 3:2460 4:78 5:75 6:136 #
-0.010000000000000000208166817117217 1:42 2:45 3:1398 4:89 5:87 6:146 #
-0.010000000000000000208166817117217 1:42 2:45 3:1398 4:89 5:87 6:146 #
0.010000000000000000208166817117217 1:28 2:29 3:584 4:144 5:139 6:186 #
-0.010000000000000000208166817117217 1:42 2:45 3:1398 4:89 5:87 6:146 #
-0.010000000000000000208166817117217 1:66 2:83 3:4078 4:85 5:77 6:144 #
-0.010000000000000000208166817117217 1:42 2:45 3:1398 4:89 5:87 6:146 #
0.010000000000000000208166817117217 1:38 2:47 3:1318 4:84 5:69 6:147 #
-0.010000000000000000208166817117217 1:42 2:45 3:1398 4:89 5:87 6:146 #
0.0062714572969138644015218986282889 1:68 2:79 3:4260 4:114 5:109 6:177 #
-0.010000000000000000208166817117217 1:66 2:83 3:4078 4:85 5:77 6:144 #
0.010000000000000000208166817117217 1:70 2:85 3:4470 4:93 5:84 6:145 #
0.010000000000000000208166817117217 1:42 2:45 3:1398 4:89 5:87 6:146 #
0.010000000000000000208166817117217 1:56 2:63 3:2620 4:80 5:67 6:134 #
-0.010000000000000000208166817117217 1:42 2:45 3:1398 4:89 5:87 6:146 #
0.010000000000000000208166817117217 1:42 2:45 3:1398 4:89 5:87 6:146 #
0.010000000000000000208166817117217 1:42 2:45 3:1398 4:89 5:87 6:146 #
-0.010000000000000000208166817117217 1:38 2:43 3:1190 4:90 5:90 6:148 #
0.010000000000000000208166817117217 1:42 2:45 3:1398 4:89 5:87 6:146 #
0.010000000000000000208166817117217 1:68 2:79 3:4012 4:88 5:77 6:141 #
0.010000000000000000208166817117217 1:76 2:93 3:5280 4:96 5:90 6:149 #
0.010000000000000000208166817117217 1:68 2:79 3:4012 4:88 5:77 6:141 #
-0.010000000000000000208166817117217 1:52 2:55 3:2140 4:67 5:56 6:144 #
0.010000000000000000208166817117217 1:42 2:45 3:1398 4:89 5:87 6:146 #
-0.010000000000000000208166817117217 1:36 2:37 3:972 4:93 5:94 6:153 #
-0.010000000000000000208166817117217 1:38 2:43 3:1190 4:90 5:90 6:148 #
-0.0099999959075328746088695552884928 1:46 2:47 3:1606 4:67 5:54 6:143 #
-0.010000000000000000208166817117217 1:66 2:83 3:4078 4:85 5:77 6:144 #
-0.010000000000000000208166817117217 1:38 2:43 3:1190 4:90 5:90 6:148 #
-0.010000000000000000208166817117217 1:42 2:45 3:1398 4:89 5:87 6:146 #
0.010000000000000000208166817117217 1:42 2:45 3:1398 4:89 5:87 6:146 #
-0.010000000000000000208166817117217 1:42 2:45 3:1398 4:89 5:87 6:146 #
0.010000000000000000208166817117217 1:56 2:63 3:2620 4:80 5:67 6:134 #
-0.010000000000000000208166817117217 1:42 2:45 3:1398 4:89 5:87 6:146 #
0.010000000000000000208166817117217 1:68 2:79 3:4012 4:88 5:77 6:141 #
0.010000000000000000208166817117217 1:68 2:79 3:4012 4:88 5:77 6:141 #
0.010000000000000000208166817117217 1:76 2:87 3:4960 4:93 5:84 6:145 #
-0.010000000000000000208166817117217 1:42 2:45 3:1398 4:89 5:87 6:146 #
-0.010000000000000000208166817117217 1:86 2:101 3:6506 4:103 5:99 6:159 #
0.010000000000000000208166817117217 1:28 2:29 3:584 4:144 5:139 6:186 #
0.010000000000000000208166817117217 1:76 2:93 3:5280 4:96 5:90 6:149 #
0.010000000000000000208166817117217 1:42 2:45 3:1398 4:89 5:87 6:146 #
0.010000000000000000208166817117217 1:60 2:63 3:2828 4:50 5:69 6:113 #
-0.010000000000000000208166817117217 1:38 2:43 3:1190 4:90 5:90 6:148 #
-0.010000000000000000208166817117217 1:72 2:85 3:4584 4:87 5:79 6:145 #
-0.010000000000000000208166817117217 1:66 2:83 3:4078 4:85 5:77 6:144 #
-0.010000000000000000208166817117217 1:38 2:43 3:1190 4:90 5:90 6:148 #
0.010000000000000000208166817117217 1:68 2:79 3:4012 4:88 5:77 6:141 #
0.010000000000000000208166817117217 1:38 2:47 3:1318 4:84 5:69 6:147 #
-0.010000000000000000208166817117217 1:36 2:37 3:972 4:93 5:94 6:153 #
0.010000000000000000208166817117217 1:52 2:55 3:2140 4:83 5:69 6:141 #
-0.010000000000000000208166817117217 1:46 2:47 3:1606 4:67 5:54 6:143 #
0.010000000000000000208166817117217 1:56 2:63 3:2620 4:80 5:67 6:134 #
-0.010000000000000000208166817117217 1:42 2:45 3:1398 4:89 5:87 6:146 #
-0.010000000000000000208166817117217 1:42 2:45 3:1398 4:89 5:87 6:146 #
-0.010000000000000000208166817117217 1:42 2:45 3:1398 4:89 5:87 6:146 #
-0.010000000000000000208166817117217 1:82 2:99 3:6110 4:102 5:97 6:159 #
-0.010000000000000000208166817117217 1:42 2:45 3:1398 4:89 5:87 6:146 #
0.010000000000000000208166817117217 1:76 2:87 3:4960 4:93 5:84 6:145 #
0.010000000000000000208166817117217 1:52 2:55 3:2140 4:83 5:69 6:141 #
0.010000000000000000208166817117217 1:52 2:55 3:2140 4:83 5:69 6:141 #
-0.0099999919649895550183282821876674 1:46 2:47 3:1606 4:67 5:54 6:143 #
0.0037307098769855384645666163123678 1:32 2:37 3:856 4:41 5:61 6:106 #
0.010000000000000000208166817117217 1:28 2:29 3:584 4:144 5:139 6:186 #
-0.010000000000000000208166817117217 1:42 2:45 3:1398 4:89 5:87 6:146 #
-0.010000000000000000208166817117217 1:42 2:45 3:1398 4:89 5:87 6:146 #
0.010000000000000000208166817117217 1:76 2:93 3:5280 4:96 5:90 6:149 #
0.010000000000000000208166817117217 1:36 2:41 3:1068 4:41 5:60 6:105 #
-0.010000000000000000208166817117217 1:48 2:51 3:1824 4:83 5:80 6:141 #
0.010000000000000000208166817117217 1:52 2:55 3:2140 4:67 5:56 6:144 #
0.010000000000000000208166817117217 1:52 2:55 3:2140 4:67 5:56 6:144 #
-1.2735032911461580118483993828704e-08 1:46 2:47 3:1606 4:67 5:54 6:143 #
0.010000000000000000208166817117217 1:46 2:47 3:1606 4:67 5:54 6:143 #
-0.010000000000000000208166817117217 1:50 2:53 3:1970 4:81 5:78 6:139 #
0.010000000000000000208166817117217 1:60 2:63 3:2828 4:75 5:67 6:150 #
-0.010000000000000000208166817117217 1:50 2:55 3:2038 4:87 5:81 6:139 #
-0.010000000000000000208166817117217 1:44 2:47 3:1528 4:84 5:78 6:134 #
-0.010000000000000000208166817117217 1:56 2:59 3:2460 4:78 5:75 6:136 #
-0.010000000000000000208166817117217 1:50 2:53 3:1970 4:81 5:78 6:139 #
0.010000000000000000208166817117217 1:60 2:63 3:2828 4:75 5:67 6:150 #
-0.010000000000000000208166817117217 1:56 2:59 3:2460 4:78 5:75 6:136 #
-0.010000000000000000208166817117217 1:56 2:59 3:2460 4:78 5:75 6:136 #
-0.010000000000000000208166817117217 1:48 2:51 3:1824 4:83 5:80 6:141 #
-0.010000000000000000208166817117217 1:60 2:73 3:3248 4:83 5:71 6:135 #
0.010000000000000000208166817117217 1:28 2:33 3:656 4:42 5:61 6:107 #
-0.010000000000000000208166817117217 1:80 2:93 3:5584 4:96 5:89 6:152 #
-0.010000000000000000208166817117217 1:50 2:53 3:1970 4:81 5:78 6:139 #
0.010000000000000000208166817117217 1:46 2:47 3:1606 4:67 5:54 6:143 #
-0.010000000000000000208166817117217 1:46 2:47 3:1606 4:67 5:54 6:143 #
-0.010000000000000000208166817117217 1:52 2:65 3:2496 4:81 5:68 6:134 #
0.010000000000000000208166817117217 1:50 2:53 3:1970 4:81 5:78 6:139 #
-0.010000000000000000208166817117217 1:50 2:53 3:1970 4:81 5:78 6:139 #
0.010000000000000000208166817117217 1:76 2:93 3:5280 4:96 5:90 6:149 #
0.010000000000000000208166817117217 1:46 2:47 3:1606 4:67 5:54 6:143 #
-0.010000000000000000208166817117217 1:50 2:53 3:1970 4:81 5:78 6:139 #
-0.010000000000000000208166817117217 1:36 2:37 3:972 4:93 5:94 6:153 #
0.010000000000000000208166817117217 1:60 2:63 3:2828 4:75 5:67 6:150 #
-0.010000000000000000208166817117217 1:50 2:53 3:1970 4:81 5:78 6:139 #
-0.010000000000000000208166817117217 1:36 2:37 3:972 4:93 5:94 6:153 #
-0.010000000000000000208166817117217 1:52 2:65 3:2496 4:81 5:68 6:134 #
-0.010000000000000000208166817117217 1:48 2:51 3:1824 4:83 5:80 6:141 #
0.010000000000000000208166817117217 1:60 2:63 3:2828 4:75 5:67 6:150 #
0.010000000000000000208166817117217 1:28 2:33 3:656 4:42 5:61 6:107 #
0.010000000000000000208166817117217 1:48 2:55 3:1952 4:88 5:84 6:140 #
0.010000000000000000208166817117217 1:28 2:33 3:656 4:42 5:61 6:107 #
0.010000000000000000208166817117217 1:46 2:47 3:1606 4:67 5:54 6:143 #
-0.010000000000000000208166817117217 1:52 2:65 3:2496 4:81 5:68 6:134 #
0.010000000000000000208166817117217 1:48 2:55 3:1952 4:78 5:63 6:132 #
-0.010000000000000000208166817117217 1:48 2:51 3:1824 4:83 5:80 6:141 #
-0.010000000000000000208166817117217 1:50 2:53 3:1970 4:81 5:78 6:139 #
0.0099933937197282940445575150079094 1:32 2:37 3:856 4:41 5:61 6:106 #
-0.010000000000000000208166817117217 1:48 2:51 3:1824 4:83 5:80 6:141 #
-0.010000000000000000208166817117217 1:86 2:101 3:6506 4:103 5:99 6:159 #
0.010000000000000000208166817117217 1:46 2:47 3:1606 4:67 5:54 6:143 #
-0.010000000000000000208166817117217 1:36 2:37 3:972 4:93 5:94 6:153 #
-0.0093517536836317666226747746804904 1:46 2:47 3:1606 4:67 5:54 6:143 #
-0.010000000000000000208166817117217 1:50 2:53 3:1970 4:81 5:78 6:139 #
-0.010000000000000000208166817117217 1:48 2:51 3:1824 4:83 5:80 6:141 #
0.010000000000000000208166817117217 1:36 2:41 3:1068 4:41 5:60 6:105 #
-0.010000000000000000208166817117217 1:46 2:57 3:1934 4:80 5:67 6:134 #
-0.010000000000000000208166817117217 1:46 2:57 3:1934 4:80 5:67 6:134 #
-0.010000000000000000208166817117217 1:48 2:51 3:1824 4:83 5:80 6:141 #
-0.010000000000000000208166817117217 1:46 2:57 3:1934 4:80 5:67 6:134 #
0.010000000000000000208166817117217 1:28 2:33 3:656 4:42 5:61 6:107 #
-0.010000000000000000208166817117217 1:50 2:55 3:2038 4:87 5:81 6:139 #
-0.010000000000000000208166817117217 1:52 2:65 3:2496 4:81 5:68 6:134 #
0.010000000000000000208166817117217 1:68 2:79 3:4012 4:88 5:77 6:141 #
-0.010000000000000000208166817117217 1:50 2:53 3:1970 4:81 5:78 6:139 #
0.010000000000000000208166817117217 1:70 2:85 3:4470 4:93 5:84 6:145 #
-0.010000000000000000208166817117217 1:46 2:57 3:1934 4:80 5:67 6:134 #
0.010000000000000000208166817117217 1:56 2:65 3:2770 4:86 5:80 6:138 #
-0.010000000000000000208166817117217 1:52 2:65 3:2496 4:81 5:68 6:134 #
-0.010000000000000000208166817117217 1:82 2:99 3:6110 4:102 5:97 6:159 #
0.010000000000000000208166817117217 1:60 2:63 3:2828 4:92 5:82 6:149 #
-0.010000000000000000208166817117217 1:36 2:37 3:972 4:93 5:94 6:153 #
0.010000000000000000208166817117217 1:44 2:49 3:1584 4:86 5:81 6:138 #
-0.010000000000000000208166817117217 1:50 2:53 3:1970 4:81 5:78 6:139 #
-0.010000000000000000208166817117217 1:86 2:101 3:6506 4:103 5:99 6:159 #
0.010000000000000000208166817117217 1:40 2:55 3:1624 4:88 5:83 6:140 #
-0.010000000000000000208166817117217 1:58 2:63 3:2726 4:87 5:80 6:139 #
0.010000000000000000208166817117217 1:70 2:83 3:4330 4:105 5:96 6:157 #
0.010000000000000000208166817117217 1:48 2:55 3:1952 4:88 5:84 6:140 #
0.010000000000000000208166817117217 1:64 2:71 3:3396 4:82 5:69 6:134 #
0.010000000000000000208166817117217 1:50 2:53 3:1970 4:81 5:78 6:139 #
-0.010000000000000000208166817117217 1:86 2:101 3:6506 4:103 5:99 6:159 #
0.010000000000000000208166817117217 1:64 2:79 3:3764 4:96 5:86 6:148 #
-0.010000000000000000208166817117217 1:52 2:55 3:2140 4:67 5:56 6:144 #
0.010000000000000000208166817117217 1:56 2:65 3:2770 4:86 5:80 6:138 #
0.010000000000000000208166817117217 1:44 2:53 3:1708 4:96 5:83 6:157 #
0.010000000000000000208166817117217 1:36 2:41 3:1068 4:41 5:60 6:105 #
0.010000000000000000208166817117217 1:56 2:63 3:2620 4:91 5:82 6:149 #
-0.010000000000000000208166817117217 1:46 2:57 3:1934 4:80 5:67 6:134 #
0.010000000000000000208166817117217 1:70 2:83 3:4330 4:105 5:96 6:157 #
0.010000000000000000208166817117217 1:36 2:41 3:1068 4:41 5:60 6:105 #
0.010000000000000000208166817117217 1:48 2:55 3:1952 4:88 5:84 6:140 #
0.010000000000000000208166817117217 1:58 2:63 3:2726 4:90 5:78 6:146 #
0.010000000000000000208166817117217 1:48 2:55 3:1952 4:89 5:79 6:148 #
-0.010000000000000000208166817117217 1:50 2:53 3:1970 4:81 5:78 6:139 #
0.010000000000000000208166817117217 1:44 2:49 3:1584 4:91 5:88 6:150 #
0.010000000000000000208166817117217 1:68 2:71 3:3648 4:93 5:84 6:150 #
-0.010000000000000000208166817117217 1:46 2:57 3:1934 4:80 5:67 6:134 #
0.010000000000000000208166817117217 1:48 2:55 3:1952 4:88 5:84 6:140 #
0.010000000000000000208166817117217 1:50 2:53 3:1970 4:100 5:90 6:157 #
0.010000000000000000208166817117217 1:48 2:55 3:1952 4:88 5:84 6:140 #
-0.010000000000000000208166817117217 1:44 2:49 3:1584 4:86 5:75 6:141 #
0.010000000000000000208166817117217 1:68 2:71 3:3648 4:98 5:88 6:153 #
0.010000000000000000208166817117217 1:28 2:33 3:656 4:42 5:61 6:107 #
0.010000000000000000208166817117217 1:42 2:53 3:1634 4:92 5:80 6:146 #
-0.010000000000000000208166817117217 1:66 2:75 3:3698 4:81 5:70 6:140 #
-0.010000000000000000208166817117217 1:42 2:45 3:1398 4:89 5:87 6:146 #
0.010000000000000000208166817117217 1:70 2:83 3:4330 4:105 5:96 6:157 #
-0.010000000000000000208166817117217 1:50 2:53 3:1970 4:81 5:78 6:139 #
0.010000000000000000208166817117217 1:46 2:51 3:1738 4:82 5:79 6:140 #
0.0041345225140219481196890427554536 1:54 2:57 3:2434 4:58 5:76 6:120 #
0.010000000000000000208166817117217 1:50 2:53 3:1970 4:81 5:78 6:139 #
-0.010000000000000000208166817117217 1:44 2:47 3:1528 4:84 5:78 6:134 #
-0.010000000000000000208166817117217 1:44 2:49 3:1584 4:86 5:75 6:141 #
0.010000000000000000208166817117217 1:48 2:55 3:1952 4:88 5:84 6:140 #
0.010000000000000000208166817117217 1:46 2:55 3:1866 4:92 5:80 6:155 #
-0.010000000000000000208166817117217 1:80 2:97 3:5792 4:91 5:86 6:144 #
0.010000000000000000208166817117217 1:56 2:63 3:2620 4:91 5:82 6:149 #
-0.010000000000000000208166817117217 1:48 2:51 3:1824 4:83 5:80 6:141 #
-0.010000000000000000208166817117217 1:50 2:53 3:1970 4:81 5:78 6:139 #
-0.010000000000000000208166817117217 1:86 2:101 3:6506 4:103 5:99 6:159 #
0.010000000000000000208166817117217 1:48 2:55 3:1952 4:88 5:84 6:140 #
0.010000000000000000208166817117217 1:28 2:33 3:656 4:42 5:61 6:107 #
-0.010000000000000000208166817117217 1:50 2:55 3:2038 4:87 5:81 6:139 #
-0.010000000000000000208166817117217 1:38 2:43 3:1190 4:90 5:90 6:148 #
0.010000000000000000208166817117217 1:56 2:59 3:2460 4:78 5:75 6:136 #
-0.010000000000000000208166817117217 1:82 2:99 3:6110 4:102 5:97 6:159 #
0.010000000000000000208166817117217 1:64 2:71 3:3396 4:92 5:83 6:149 #
-0.010000000000000000208166817117217 1:50 2:53 3:1970 4:81 5:78 6:139 #
-0.010000000000000000208166817117217 1:74 2:89 3:4942 4:93 5:86 6:145 #
0.010000000000000000208166817117217 1:56 2:59 3:2460 4:78 5:75 6:136 #
-0.010000000000000000208166817117217 1:82 2:99 3:6110 4:102 5:97 6:159 #
0.010000000000000000208166817117217 1:44 2:53 3:1708 4:96 5:83 6:157 #
0.010000000000000000208166817117217 1:50 2:57 3:2102 4:86 5:80 6:138 #
0.010000000000000000208166817117217 1:60 2:63 3:2828 4:92 5:82 6:149 #
-0.010000000000000000208166817117217 1:36 2:37 3:972 4:93 5:94 6:153 #
0.010000000000000000208166817117217 1:64 2:79 3:3764 4:96 5:86 6:148 #
-0.010000000000000000208166817117217 1:46 2:57 3:1934 4:80 5:67 6:134 #
-0.010000000000000000208166817117217 1:52 2:55 3:2140 4:67 5:56 6:144 #
-0.010000000000000000208166817117217 1:48 2:51 3:1824 4:83 5:80 6:141 #
0.010000000000000000208166817117217 1:58 2:63 3:2726 4:90 5:78 6:146 #
0.010000000000000000208166817117217 1:60 2:63 3:2828 4:92 5:82 6:149 #
0.010000000000000000208166817117217 1:46 2:51 3:1738 4:82 5:79 6:140 #
-0.010000000000000000208166817117217 1:72 2:85 3:4584 4:87 5:79 6:145 #
-0.010000000000000000208166817117217 1:52 2:55 3:2140 4:67 5:56 6:144 #
0.010000000000000000208166817117217 1:60 2:63 3:2828 4:92 5:82 6:149 #
-0.010000000000000000208166817117217 1:82 2:99 3:6110 4:102 5:97 6:159 #
0.010000000000000000208166817117217 1:48 2:55 3:1952 4:88 5:84 6:140 #
0.010000000000000000208166817117217 1:52 2:55 3:2140 4:90 5:79 6:148 #
0.010000000000000000208166817117217 1:42 2:45 3:1398 4:99 5:86 6:156 #
-0.010000000000000000208166817117217 1:82 2:99 3:6110 4:102 5:97 6:159 #
0.010000000000000000208166817117217 1:42 2:45 3:1398 4:99 5:86 6:156 #
-0.010000000000000000208166817117217 1:50 2:55 3:2038 4:87 5:81 6:139 #
0.010000000000000000208166817117217 1:48 2:55 3:1952 4:88 5:84 6:140 #
-0.010000000000000000208166817117217 1:48 2:51 3:1824 4:83 5:80 6:141 #
0.010000000000000000208166817117217 1:50 2:57 3:2102 4:86 5:80 6:138 #
0.010000000000000000208166817117217 1:36 2:41 3:1068 4:41 5:60 6:105 #
0.010000000000000000208166817117217 1:42 2:53 3:1634 4:92 5:80 6:146 #
0.010000000000000000208166817117217 1:46 2:51 3:1738 4:82 5:79 6:140 #
0.010000000000000000208166817117217 1:44 2:49 3:1584 4:86 5:81 6:138 #
-0.010000000000000000208166817117217 1:82 2:99 3:6110 4:102 5:97 6:159 #
0.010000000000000000208166817117217 1:50 2:53 3:1970 4:100 5:90 6:157 #
-0.010000000000000000208166817117217 1:50 2:55 3:2038 4:87 5:81 6:139 #
-0.010000000000000000208166817117217 1:46 2:57 3:1934 4:80 5:67 6:134 #
0.010000000000000000208166817117217 1:50 2:53 3:1970 4:81 5:78 6:139 #
-0.010000000000000000208166817117217 1:46 2:57 3:1934 4:80 5:67 6:134 #
-0.010000000000000000208166817117217 1:50 2:53 3:1970 4:81 5:78 6:139 #
0.010000000000000000208166817117217 1:52 2:55 3:2140 4:67 5:56 6:144 #
0.010000000000000000208166817117217 1:56 2:63 3:2620 4:91 5:82 6:149 #
-0.010000000000000000208166817117217 1:44 2:49 3:1584 4:86 5:75 6:141 #
-0.010000000000000000208166817117217 1:50 2:53 3:1970 4:81 5:78 6:139 #
0.010000000000000000208166817117217 1:66 2:71 3:3514 4:98 5:88 6:153 #
-0.010000000000000000208166817117217 1:50 2:55 3:2038 4:87 5:81 6:139 #
0.010000000000000000208166817117217 1:42 2:53 3:1634 4:92 5:80 6:146 #
-0.010000000000000000208166817117217 1:44 2:49 3:1584 4:86 5:75 6:141 #
0.010000000000000000208166817117217 1:50 2:53 3:1970 4:100 5:90 6:157 #
-0.010000000000000000208166817117217 1:50 2:53 3:1970 4:81 5:78 6:139 #
-0.010000000000000000208166817117217 1:36 2:37 3:972 4:93 5:94 6:153 #
0.010000000000000000208166817117217 1:70 2:83 3:4330 4:105 5:96 6:157 #
0.010000000000000000208166817117217 1:52 2:55 3:2140 4:90 5:79 6:148 #
0.010000000000000000208166817117217 1:44 2:49 3:1584 4:86 5:81 6:138 #
0.010000000000000000208166817117217 1:46 2:51 3:1738 4:82 5:79 6:140 #
-0.010000000000000000208166817117217 1:58 2:63 3:2726 4:87 5:80 6:139 #
0.010000000000000000208166817117217 1:46 2:55 3:1866 4:92 5:80 6:155 #
0.010000000000000000208166817117217 1:68 2:71 3:3648 4:93 5:84 6:150 #
0.010000000000000000208166817117217 1:64 2:71 3:3396 4:82 5:69 6:134 #
-0.010000000000000000208166817117217 1:46 2:47 3:1606 4:67 5:54 6:143 #
-0.010000000000000000208166817117217 1:46 2:57 3:1934 4:80 5:67 6:134 #
0.010000000000000000208166817117217 1:44 2:49 3:1584 4:91 5:88 6:150 #
-0.010000000000000000208166817117217 1:50 2:53 3:1970 4:81 5:78 6:139 #
0.010000000000000000208166817117217 1:44 2:53 3:1708 4:96 5:83 6:157 #
0.010000000000000000208166817117217 1:50 2:57 3:2102 4:86 5:80 6:138 #
0.010000000000000000208166817117217 1:48 2:55 3:1952 4:89 5:79 6:148 #
-0.010000000000000000208166817117217 1:48 2:51 3:1824 4:83 5:80 6:141 #
0.010000000000000000208166817117217 1:48 2:55 3:1952 4:88 5:84 6:140 #
0.010000000000000000208166817117217 1:36 2:41 3:1068 4:41 5:60 6:105 #
-0.010000000000000000208166817117217 1:44 2:49 3:1584 4:86 5:75 6:141 #
0.010000000000000000208166817117217 1:60 2:63 3:2828 4:50 5:69 6:113 #
0.0043782868523631075091673281463045 1:30 2:35 3:758 4:93 5:96 6:154 #
0.010000000000000000208166817117217 1:44 2:49 3:1584 4:91 5:88 6:150 #
-0.010000000000000000208166817117217 1:82 2:99 3:6110 4:102 5:97 6:159 #
0.010000000000000000208166817117217 1:52 2:55 3:2140 4:67 5:56 6:144 #
-0.010000000000000000208166817117217 1:82 2:99 3:6110 4:102 5:97 6:159 #
-0.010000000000000000208166817117217 1:64 2:67 3:3224 4:81 5:78 6:138 #
-0.010000000000000000208166817117217 1:66 2:75 3:3698 4:81 5:70 6:140 #
0.010000000000000000208166817117217 1:42 2:53 3:1634 4:92 5:80 6:146 #
0.010000000000000000208166817117217 1:32 2:37 3:856 4:41 5:61 6:106 #
0.010000000000000000208166817117217 1:60 2:63 3:2828 4:75 5:67 6:150 #
0.010000000000000000208166817117217 1:44 2:53 3:1708 4:96 5:83 6:157 #
0.010000000000000000208166817117217 1:60 2:63 3:2828 4:75 5:67 6:150 #
0.010000000000000000208166817117217 1:70 2:83 3:4330 4:105 5:96 6:157 #
-0.010000000000000000208166817117217 1:64 2:67 3:3224 4:81 5:78 6:138 #
-0.010000000000000000208166817117217 1:56 2:59 3:2460 4:78 5:75 6:136 #
-0.010000000000000000208166817117217 1:66 2:75 3:3698 4:81 5:70 6:140 #
-0.010000000000000000208166817117217 1:44 2:47 3:1528 4:84 5:78 6:134 #
-0.010000000000000000208166817117217 1:72 2:85 3:4584 4:87 5:79 6:145 #
-0.010000000000000000208166817117217 1:74 2:89 3:4942 4:93 5:86 6:145 #
-0.010000000000000000208166817117217 1:66 2:75 3:3698 4:81 5:70 6:140 #
-0.010000000000000000208166817117217 1:72 2:85 3:4584 4:87 5:79 6:145 #
0.010000000000000000208166817117217 1:70 2:83 3:4330 4:105 5:96 6:157 #
0.010000000000000000208166817117217 1:40 2:43 3:1260 4:41 5:60 6:105 #
0.010000000000000000208166817117217 1:48 2:55 3:1952 4:88 5:84 6:140 #
-0.010000000000000000208166817117217 1:74 2:89 3:4942 4:93 5:86 6:145 #
0.010000000000000000208166817117217 1:32 2:37 3:856 4:41 5:61 6:106 #
-0.010000000000000000208166817117217 1:64 2:67 3:3224 4:81 5:78 6:138 #
0.010000000000000000208166817117217 1:64 2:71 3:3492 4:107 5:101 6:171 #
-0.010000000000000000208166817117217 1:74 2:89 3:4942 4:93 5:86 6:145 #
0.010000000000000000208166817117217 1:66 2:81 3:3994 4:103 5:95 6:156 #
0.010000000000000000208166817117217 1:52 2:55 3:2140 4:67 5:56 6:144 #
-0.010000000000000000208166817117217 1:38 2:43 3:1190 4:90 5:90 6:148 #
-0.010000000000000000208166817117217 1:66 2:75 3:3698 4:81 5:70 6:140 #
-0.010000000000000000208166817117217 1:74 2:89 3:4942 4:93 5:86 6:145 #
-0.010000000000000000208166817117217 1:72 2:85 3:4584 4:87 5:79 6:145 #
0.010000000000000000208166817117217 1:52 2:61 3:2344 4:105 5:94 6:164 #
-0.010000000000000000208166817117217 1:74 2:89 3:4942 4:93 5:86 6:145 #
-0.010000000000000000208166817117217 1:60 2:73 3:3248 4:83 5:71 6:135 #
-0.010000000000000000208166817117217 1:72 2:85 3:4584 4:87 5:79 6:145 #
0.010000000000000000208166817117217 1:70 2:83 3:4330 4:105 5:96 6:157 #
-0.010000000000000000208166817117217 1:74 2:89 3:4942 4:93 5:86 6:145 #
0.010000000000000000208166817117217 1:48 2:55 3:1952 4:88 5:84 6:140 #
-0.010000000000000000208166817117217 1:66 2:75 3:3698 4:81 5:70 6:140 #
-0.010000000000000000208166817117217 1:66 2:75 3:3698 4:81 5:70 6:140 #
-0.010000000000000000208166817117217 1:72 2:85 3:4584 4:87 5:79 6:145 #
-0.010000000000000000208166817117217 1:72 2:85 3:4584 4:87 5:79 6:145 #
0.010000000000000000208166817117217 1:52 2:55 3:2140 4:67 5:56 6:144 #
-0.010000000000000000208166817117217 1:60 2:73 3:3248 4:83 5:71 6:135 #
-0.010000000000000000208166817117217 1:74 2:89 3:4942 4:93 5:86 6:145 #
0.010000000000000000208166817117217 1:60 2:63 3:2828 4:75 5:67 6:150 #
-0.010000000000000000208166817117217 1:72 2:85 3:4584 4:87 5:79 6:145 #
-0.010000000000000000208166817117217 1:60 2:73 3:3248 4:83 5:71 6:135 #
-0.010000000000000000208166817117217 1:66 2:75 3:3698 4:81 5:70 6:140 #
-0.010000000000000000208166817117217 1:44 2:47 3:1528 4:84 5:78 6:134 #
-0.010000000000000000208166817117217 1:60 2:73 3:3248 4:83 5:71 6:135 #
-0.010000000000000000208166817117217 1:56 2:59 3:2460 4:78 5:75 6:136 #
-0.010000000000000000208166817117217 1:56 2:59 3:2460 4:78 5:75 6:136 #
-0.010000000000000000208166817117217 1:36 2:37 3:972 4:93 5:94 6:153 #
-0.010000000000000000208166817117217 1:36 2:37 3:972 4:93 5:94 6:153 #
0.010000000000000000208166817117217 1:70 2:85 3:4470 4:93 5:84 6:145 #
0.010000000000000000208166817117217 1:32 2:37 3:856 4:41 5:61 6:106 #
-0.010000000000000000208166817117217 1:72 2:85 3:4584 4:87 5:79 6:145 #
-0.010000000000000000208166817117217 1:36 2:37 3:972 4:93 5:94 6:153 #
-0.010000000000000000208166817117217 1:36 2:37 3:972 4:93 5:94 6:153 #
0.010000000000000000208166817117217 1:78 2:91 3:5318 4:109 5:103 6:162 #
0.010000000000000000208166817117217 1:70 2:83 3:4330 4:105 5:96 6:157 #
-0.010000000000000000208166817117217 1:36 2:37 3:972 4:93 5:94 6:153 #
0.010000000000000000208166817117217 1:70 2:83 3:4330 4:105 5:96 6:157 #
0.010000000000000000208166817117217 1:72 2:87 3:4684 4:100 5:92 6:152 #
-0.010000000000000000208166817117217 1:74 2:89 3:4942 4:93 5:86 6:145 #
-0.010000000000000000208166817117217 1:36 2:37 3:972 4:93 5:94 6:153 #
0.010000000000000000208166817117217 1:58 2:73 3:3154 4:87 5:76 6:142 #
0.010000000000000000208166817117217 1:78 2:91 3:5318 4:109 5:103 6:162 #
-0.010000000000000000208166817117217 1:60 2:73 3:3248 4:83 5:71 6:135 #
-0.010000000000000000208166817117217 1:60 2:73 3:3248 4:83 5:71 6:135 #
-0.010000000000000000208166817117217 1:72 2:85 3:4584 4:87 5:79 6:145 #
0.010000000000000000208166817117217 1:72 2:87 3:4684 4:100 5:92 6:152 #
-0.010000000000000000208166817117217 1:36 2:37 3:972 4:93 5:94 6:153 #
-0.010000000000000000208166817117217 1:80 2:97 3:5792 4:91 5:86 6:144 #
-0.010000000000000000208166817117217 1:36 2:37 3:972 4:93 5:94 6:153 #
0.010000000000000000208166817117217 1:50 2:61 3:2270 4:94 5:83 6:148 #
-0.010000000000000000208166817117217 1:36 2:37 3:972 4:93 5:94 6:153 #
0.010000000000000000208166817117217 1:78 2:91 3:5318 4:109 5:103 6:162 #
0.010000000000000000208166817117217 1:58 2:73 3:3154 4:87 5:76 6:142 #
0.010000000000000000208166817117217 1:68 2:79 3:4012 4:88 5:77 6:141 #
0.010000000000000000208166817117217 1:68 2:79 3:4012 4:88 5:77 6:141 #
-0.010000000000000000208166817117217 1:74 2:89 3:4942 4:93 5:86 6:145 #
0.010000000000000000208166817117217 1:48 2:55 3:1952 4:88 5:84 6:140 #
-0.010000000000000000208166817117217 1:36 2:37 3:972 4:93 5:94 6:153 #
0.010000000000000000208166817117217 1:62 2:75 3:3446 4:89 5:78 6:144 #
-0.010000000000000000208166817117217 1:36 2:37 3:972 4:93 5:94 6:153 #
0.010000000000000000208166817117217 1:50 2:61 3:2270 4:94 5:83 6:148 #
-0.010000000000000000208166817117217 1:36 2:37 3:972 4:93 5:94 6:153 #
0.010000000000000000208166817117217 1:78 2:91 3:5318 4:109 5:103 6:162 #
0.010000000000000000208166817117217 1:50 2:61 3:2270 4:94 5:83 6:148 #
0.010000000000000000208166817117217 1:48 2:55 3:1952 4:88 5:84 6:140 #
0.010000000000000000208166817117217 1:62 2:75 3:3446 4:89 5:78 6:144 #
-0.010000000000000000208166817117217 1:60 2:73 3:3248 4:83 5:71 6:135 #
0.010000000000000000208166817117217 1:64 2:71 3:3396 4:92 5:83 6:149 #
0.010000000000000000208166817117217 1:60 2:63 3:2828 4:75 5:67 6:150 #
0.010000000000000000208166817117217 1:62 2:75 3:3446 4:89 5:78 6:144 #
0.010000000000000000208166817117217 1:62 2:75 3:3446 4:89 5:78 6:144 #
0.010000000000000000208166817117217 1:36 2:41 3:1068 4:41 5:60 6:105 #
0.010000000000000000208166817117217 1:78 2:91 3:5318 4:109 5:103 6:162 #
-0.010000000000000000208166817117217 1:80 2:97 3:5792 4:91 5:86 6:144 #
0.010000000000000000208166817117217 1:72 2:87 3:4684 4:100 5:92 6:152 #
-0.010000000000000000208166817117217 1:66 2:75 3:3698 4:81 5:70 6:140 #
0.010000000000000000208166817117217 1:50 2:61 3:2270 4:94 5:83 6:148 #
-0.010000000000000000208166817117217 1:60 2:73 3:3248 4:83 5:71 6:135 #
0.010000000000000000208166817117217 1:70 2:85 3:4470 4:93 5:84 6:145 #
0.010000000000000000208166817117217 1:70 2:85 3:4470 4:93 5:84 6:145 #
-0.010000000000000000208166817117217 1:36 2:37 3:972 4:93 5:94 6:153 #
0.010000000000000000208166817117217 1:60 2:63 3:2828 4:75 5:67 6:150 #
-0.010000000000000000208166817117217 1:72 2:85 3:4584 4:87 5:79 6:145 #
0.010000000000000000208166817117217 1:78 2:91 3:5318 4:109 5:103 6:162 #
0.005006783494565281850130489260664 1:34 2:47 3:1178 4:91 5:88 6:144 #
0.010000000000000000208166817117217 1:56 2:65 3:2770 4:86 5:80 6:138 #
-0.010000000000000000208166817117217 1:86 2:101 3:6506 4:103 5:99 6:159 #
-0.010000000000000000208166817117217 1:56 2:59 3:2460 4:78 5:75 6:136 #
-0.010000000000000000208166817117217 1:56 2:59 3:2460 4:78 5:75 6:136 #
0.010000000000000000208166817117217 1:40 2:43 3:1260 4:41 5:60 6:105 #
0.010000000000000000208166817117217 1:62 2:75 3:3446 4:89 5:78 6:144 #
0.010000000000000000208166817117217 1:56 2:69 3:2864 4:95 5:86 6:150 #
0.010000000000000000208166817117217 1:62 2:75 3:3446 4:89 5:78 6:144 #
-0.010000000000000000208166817117217 1:56 2:59 3:2460 4:78 5:75 6:136 #
0.010000000000000000208166817117217 1:48 2:55 3:1952 4:88 5:84 6:140 #
0.010000000000000000208166817117217 1:62 2:75 3:3446 4:89 5:78 6:144 #
0.010000000000000000208166817117217 1:68 2:79 3:4260 4:114 5:109 6:177 #
-0.010000000000000000208166817117217 1:64 2:67 3:3224 4:81 5:78 6:138 #
-0.010000000000000000208166817117217 1:64 2:67 3:3224 4:81 5:78 6:138 #
-0.010000000000000000208166817117217 1:80 2:93 3:5584 4:96 5:89 6:152 #
-0.010000000000000000208166817117217 1:80 2:97 3:5792 4:91 5:86 6:144 #
0.010000000000000000208166817117217 1:78 2:91 3:5318 4:109 5:103 6:162 #
-0.010000000000000000208166817117217 1:60 2:73 3:3248 4:83 5:71 6:135 #
0.010000000000000000208166817117217 1:78 2:91 3:5318 4:109 5:103 6:162 #
0.010000000000000000208166817117217 1:40 2:43 3:1260 4:41 5:60 6:105 #
-0.010000000000000000208166817117217 1:64 2:67 3:3224 4:81 5:78 6:138 #
0.010000000000000000208166817117217 1:46 2:47 3:1606 4:42 5:62 6:107 #
0.010000000000000000208166817117217 1:40 2:43 3:1260 4:41 5:60 6:105 #
-0.0047702319034310970702339460558505 1:46 2:47 3:1606 4:67 5:54 6:143 #
0.010000000000000000208166817117217 1:78 2:91 3:5318 4:109 5:103 6:162 #
-0.010000000000000000208166817117217 1:56 2:59 3:2460 4:78 5:75 6:136 #
0.010000000000000000208166817117217 1:64 2:71 3:3492 4:107 5:101 6:171 #
0.010000000000000000208166817117217 1:40 2:43 3:1260 4:41 5:60 6:105 #
-0.010000000000000000208166817117217 1:56 2:59 3:2460 4:78 5:75 6:136 #
-0.010000000000000000208166817117217 1:74 2:89 3:4942 4:93 5:86 6:145 #
0.010000000000000000208166817117217 1:58 2:63 3:2726 4:98 5:89 6:162 #
-0.010000000000000000208166817117217 1:80 2:97 3:5792 4:91 5:86 6:144 #
-0.010000000000000000208166817117217 1:60 2:73 3:3248 4:83 5:71 6:135 #
0.010000000000000000208166817117217 1:78 2:91 3:5318 4:109 5:103 6:162 #
-0.010000000000000000208166817117217 1:64 2:67 3:3224 4:81 5:78 6:138 #
-0.010000000000000000208166817117217 1:80 2:97 3:5792 4:91 5:86 6:144 #
-0.010000000000000000208166817117217 1:74 2:89 3:4942 4:93 5:86 6:145 #
-0.010000000000000000208166817117217 1:60 2:73 3:3248 4:83 5:71 6:135 #
-0.010000000000000000208166817117217 1:74 2:89 3:4942 4:93 5:86 6:145 #
-0.010000000000000000208166817117217 1:36 2:37 3:972 4:93 5:94 6:153 #
-0.010000000000000000208166817117217 1:44 2:47 3:1528 4:84 5:78 6:134 #
-0.010000000000000000208166817117217 1:36 2:37 3:972 4:93 5:94 6:153 #
0.010000000000000000208166817117217 1:72 2:89 3:4780 4:109 5:103 6:162 #
-0.010000000000000000208166817117217 1:80 2:97 3:5792 4:91 5:86 6:144 #
0.010000000000000000208166817117217 1:60 2:63 3:2828 4:50 5:69 6:113 #
0.010000000000000000208166817117217 1:52 2:61 3:2344 4:105 5:94 6:164 #
0.010000000000000000208166817117217 1:36 2:41 3:1068 4:41 5:60 6:105 #
0.010000000000000000208166817117217 1:66 2:81 3:3994 4:103 5:95 6:156 #
0.010000000000000000208166817117217 1:32 2:37 3:856 4:41 5:61 6:106 #
-0.010000000000000000208166817117217 1:58 2:63 3:2726 4:87 5:80 6:139 #
0.010000000000000000208166817117217 1:72 2:89 3:4780 4:109 5:103 6:162 #
-0.010000000000000000208166817117217 1:58 2:63 3:2726 4:87 5:80 6:139 #
0.010000000000000000208166817117217 1:66 2:81 3:3994 4:103 5:95 6:156 #
-0.010000000000000000208166817117217 1:80 2:97 3:5792 4:91 5:86 6:144 #
0.010000000000000000208166817117217 1:32 2:37 3:856 4:41 5:61 6:106 #
-0.010000000000000000208166817117217 1:74 2:89 3:4942 4:93 5:86 6:145 #
-0.010000000000000000208166817117217 1:74 2:89 3:4942 4:93 5:86 6:145 #
-0.0001676703698689444715919094619494 1:46 2:47 3:1606 4:67 5:54 6:143 #
-0.0019697416438900910984344250209688 1:46 2:47 3:1606 4:67 5:54 6:143 #
-0.00047551929648394870506211695726506 1:46 2:47 3:1606 4:67 5:54 6:143 #
0.0045741607076236895368381851767481 1:54 2:57 3:2434 4:58 5:76 6:120 #
-0.00011728050733172956654470908688381 1:46 2:47 3:1606 4:67 5:54 6:143 #
-3.9988740223742894053238217111357e-05 1:46 2:47 3:1606 4:67 5:54 6:143 #
-1.5067156053339639948385197953939e-05 1:46 2:47 3:1606 4:67 5:54 6:143 #
