SVM-light Version V6.02
0 # kernel type
3 # kernel parameter -d 
1 # kernel parameter -g 
1 # kernel parameter -s 
1 # kernel parameter -r 
empty# kernel parameter -u 
6 # highest feature index 
325 # number of training documents 
202 # number of support vectors plus 1 
6.8872742 # threshold b, each following line is a SV (starting with alpha*y)
-1 1:48 2:49 3:1744 4:118 5:98 6:184 #
1 1:46 2:51 3:1738 4:180 5:154 6:218 #
1 1:34 2:39 3:966 4:87 5:71 6:139 #
1 1:26 2:29 3:534 4:103 5:86 6:159 #
-1 1:28 2:33 3:664 4:202 5:118 6:166 #
-1 1:30 2:43 3:930 4:96 5:87 6:151 #
1 1:34 2:37 3:922 4:108 5:83 6:171 #
1 1:32 2:39 3:904 4:85 5:74 6:166 #
-1 1:24 2:33 3:580 4:154 5:92 6:163 #
-1 1:38 2:45 3:1250 4:75 5:57 6:149 #
1 1:56 2:63 3:2620 4:96 5:88 6:154 #
1 1:38 2:47 3:1310 4:124 5:105 6:179 #
1 1:34 2:41 3:1018 4:205 5:126 6:172 #
-1 1:60 2:71 3:3172 4:184 5:191 6:237 #
1 1:48 2:59 3:2092 4:133 5:114 6:179 #
0.4123536930736317329682094623422 1:89 2:107 3:7197 4:104 5:98 6:159 #
1 1:52 2:61 3:2336 4:158 5:141 6:216 #
-1 1:42 2:43 3:1330 4:108 5:85 6:174 #
1 1:40 2:43 3:1260 4:124 5:94 6:174 #
1 1:34 2:41 3:1018 4:102 5:86 6:180 #
1 1:36 2:37 3:972 4:91 5:92 6:151 #
-1 1:32 2:35 3:812 4:136 5:97 6:202 #
-1 1:58 2:65 3:2794 4:66 5:63 6:144 #
-1 1:36 2:37 3:972 4:97 5:73 6:156 #
1 1:34 2:43 3:1054 4:108 5:89 6:175 #
1 1:32 2:39 3:904 4:92 5:92 6:153 #
-1 1:86 2:105 3:6746 4:97 5:94 6:160 #
-1 1:54 2:63 3:2510 4:175 5:183 6:234 #
-1 1:30 2:35 3:758 4:45 5:25 6:151 #
-1 1:52 2:59 3:2288 4:45 5:65 6:109 #
1 1:42 2:45 3:1398 4:129 5:104 6:181 #
1 1:92 2:107 3:7388 4:105 5:100 6:166 #
-1 1:54 2:61 3:2450 4:52 5:52 6:131 #
1 1:28 2:39 3:800 4:138 5:105 6:191 #
-1 1:42 2:47 3:1450 4:55 5:74 6:126 #
-1 1:60 2:67 3:2988 4:62 5:55 6:139 #
1 1:32 2:41 3:952 4:147 5:119 6:197 #
-1 1:32 2:37 3:856 4:149 5:97 6:169 #
-1 1:30 2:35 3:758 4:202 5:128 6:183 #
1 1:40 2:41 3:1216 4:225 5:153 6:204 #
-1 1:44 2:53 3:1708 4:46 5:61 6:108 #
1 1:30 2:41 3:902 4:125 5:107 6:185 #
-1 1:30 2:33 3:706 4:136 5:107 6:205 #
-1 1:34 2:37 3:922 4:109 5:87 6:175 #
0.95061145511197675528336503703031 1:90 2:107 3:7214 4:85 5:82 6:139 #
-1 1:58 2:69 3:2962 4:183 5:195 6:241 #
1 1:50 2:61 3:2270 4:202 5:162 6:213 #
-1 1:30 2:35 3:766 4:142 5:101 6:205 #
1 1:28 2:39 3:788 4:108 5:82 6:171 #
1 1:38 2:41 3:1142 4:181 5:136 6:204 #
-1 1:42 2:49 3:1518 4:206 5:144 6:199 #
-1 1:52 2:57 3:2192 4:135 5:99 6:188 #
1 1:32 2:35 3:812 4:107 5:100 6:164 #
1 1:32 2:35 3:812 4:107 5:100 6:164 #
-1 1:28 2:29 3:584 4:125 5:88 6:190 #
0.59072169440390598360579588188557 1:92 2:101 3:7000 4:95 5:89 6:165 #
1 1:36 2:39 3:1020 4:130 5:99 6:188 #
1 1:38 2:49 3:1362 4:141 5:126 6:194 #
1 1:40 2:47 3:1364 4:117 5:98 6:171 #
-1 1:24 2:25 3:416 4:33 5:10 6:135 #
-1 1:69 2:81 3:4235 4:71 5:77 6:145 #
-1 1:66 2:77 3:3790 4:154 5:138 6:207 #
-0.26445158818413766477206650051812 1:36 2:37 3:972 4:243 5:197 6:225 #
1 1:32 2:37 3:856 4:41 5:47 6:140 #
-1 1:32 2:41 3:960 4:177 5:119 6:191 #
1 1:36 2:37 3:972 4:96 5:80 6:155 #
-0.9671496165175691439586103115289 1:28 2:31 3:624 4:143 5:110 6:209 #
1 1:40 2:43 3:1260 4:163 5:118 6:186 #
1 1:34 2:41 3:1018 4:97 5:93 6:159 #
-1 1:56 2:67 3:2784 4:218 5:224 6:242 #
-1 1:44 2:47 3:1528 4:32 5:27 6:117 #
-1 1:28 2:39 3:788 4:37 5:20 6:125 #
-1 1:40 2:47 3:1372 4:133 5:110 6:180 #
-1 1:54 2:57 3:2298 4:56 5:51 6:135 #
-1 1:38 2:45 3:1250 4:99 5:76 6:151 #
0.057713095285035521941896519138027 1:88 2:101 3:6676 4:92 5:89 6:146 #
-1 1:40 2:41 3:1216 4:133 5:100 6:210 #
-1 1:38 2:43 3:1190 4:44 5:46 6:124 #
1 1:38 2:45 3:1250 4:104 5:89 6:160 #
-0.13352135945175802600459746827255 1:36 2:37 3:972 4:96 5:89 6:151 #
1 1:38 2:43 3:1198 4:103 5:79 6:153 #
1 1:32 2:41 3:944 4:100 5:91 6:156 #
1 1:32 2:45 3:1064 4:86 5:72 6:138 #
-1 1:30 2:35 3:758 4:102 5:77 6:160 #
-0.92476400033116590293502667918801 1:44 2:53 3:1708 4:209 5:204 6:226 #
1 1:34 2:35 3:866 4:136 5:98 6:187 #
1 1:34 2:47 3:1170 4:134 5:105 6:186 #
-1 1:62 2:79 3:3670 4:167 5:172 6:222 #
-1 1:54 2:61 3:2442 4:76 5:84 6:145 #
-1 1:32 2:37 3:856 4:111 5:88 6:175 #
-1 1:32 2:37 3:856 4:250 5:168 6:212 #
1 1:34 2:41 3:1018 4:133 5:95 6:185 #
-1 1:24 2:35 3:620 4:147 5:97 6:168 #
-1 1:47 2:81 3:3029 4:106 5:117 6:165 #
-1 1:68 2:71 3:3648 4:181 5:193 6:238 #
-1 1:60 2:75 3:3352 4:49 5:64 6:111 #
1 1:40 2:41 3:1216 4:98 5:90 6:157 #
-1 1:48 2:59 3:2084 4:43 5:41 6:120 #
-1 1:32 2:37 3:856 4:248 5:172 6:213 #
-1 1:38 2:45 3:1250 4:140 5:110 6:203 #
-1 1:43 2:73 3:2503 4:109 5:120 6:168 #
1 1:34 2:47 3:1170 4:146 5:111 6:201 #
1 1:56 2:59 3:2460 4:93 5:84 6:153 #
1 1:38 2:45 3:1250 4:81 5:71 6:158 #
-1 1:44 2:53 3:1848 4:51 5:48 6:128 #
1 1:34 2:47 3:1178 4:91 5:88 6:144 #
1 1:36 2:49 3:1288 4:108 5:91 6:169 #
1 1:42 2:45 3:1398 4:87 5:85 6:147 #
-1 1:24 2:25 3:416 4:192 5:119 6:186 #
0.25100662070938672965070281861699 1:50 2:57 3:2102 4:75 5:66 6:165 #
1 1:39 2:49 3:1495 4:125 5:113 6:186 #
1 1:38 2:45 3:1250 4:100 5:91 6:182 #
-1 1:70 2:79 3:4146 4:62 5:74 6:132 #
1 1:38 2:45 3:1250 4:118 5:102 6:189 #
-1 1:50 2:55 3:2038 4:62 5:50 6:140 #
1 1:32 2:45 3:1056 4:98 5:90 6:171 #
1 1:40 2:43 3:1260 4:83 5:86 6:188 #
1 1:46 2:51 3:1738 4:82 5:75 6:134 #
1 1:38 2:41 3:1142 4:72 5:75 6:177 #
-1 1:60 2:63 3:2828 4:50 5:69 6:113 #
1 1:44 2:49 3:1584 4:102 5:86 6:162 #
-1 1:48 2:55 3:1952 4:137 5:108 6:201 #
-1 1:46 2:53 3:1790 4:97 5:71 6:152 #
1 1:46 2:53 3:1790 4:108 5:104 6:180 #
1 1:52 2:55 3:2140 4:140 5:127 6:195 #
1 1:46 2:47 3:1606 4:131 5:116 6:190 #
0.025746242862101371973171382023793 1:44 2:45 3:1472 4:171 5:107 6:170 #
-1 1:64 2:71 3:3396 4:68 5:78 6:138 #
1 1:44 2:59 3:1916 4:121 5:107 6:179 #
-1 1:42 2:47 3:1450 4:137 5:106 6:201 #
1 1:28 2:29 3:584 4:36 5:52 6:173 #
1 1:38 2:45 3:1250 4:91 5:64 6:177 #
1 1:48 2:53 3:1880 4:114 5:101 6:168 #
1 1:40 2:45 3:1316 4:84 5:76 6:140 #
1 1:48 2:55 3:1936 4:85 5:80 6:138 #
1 1:44 2:53 3:1708 4:94 5:87 6:150 #
1 1:42 2:45 3:1398 4:85 5:69 6:135 #
1 1:52 2:61 3:2344 4:105 5:94 6:164 #
-1 1:40 2:47 3:1372 4:132 5:94 6:183 #
-1 1:38 2:45 3:1250 4:122 5:88 6:184 #
-1 1:52 2:59 3:2288 4:43 5:63 6:107 #
1 1:96 2:101 3:7364 4:108 5:102 6:158 #
1 1:42 2:49 3:1510 4:83 5:80 6:148 #
-1 1:36 2:49 3:1296 4:125 5:97 6:182 #
1 1:30 2:41 3:902 4:45 5:41 6:148 #
1 1:54 2:59 3:2366 4:100 5:88 6:158 #
1 1:44 2:51 3:1644 4:67 5:66 6:120 #
1 1:44 2:53 3:1708 4:115 5:93 6:172 #
1 1:38 2:45 3:1250 4:86 5:79 6:140 #
-1 1:46 2:51 3:1738 4:105 5:109 6:162 #
-0.99999891975817012390592708470649 1:43 2:73 3:2503 4:227 5:233 6:245 #
1 1:48 2:59 3:2092 4:106 5:91 6:161 #
-1 1:42 2:43 3:1330 4:141 5:106 6:200 #
-1 1:36 2:41 3:1068 4:92 5:87 6:177 #
-1 1:42 2:47 3:1450 4:105 5:80 6:171 #
-1 1:44 2:45 3:1472 4:107 5:81 6:171 #
-1 1:52 2:59 3:2280 4:73 5:83 6:155 #
1 1:56 2:61 3:2556 4:112 5:100 6:165 #
-1 1:42 2:49 3:1518 4:52 5:50 6:122 #
1 1:40 2:47 3:1372 4:142 5:114 6:207 #
-1 1:56 2:63 3:2620 4:163 5:170 6:224 #
1 1:42 2:51 3:1566 4:110 5:93 6:178 #
-1 1:34 2:43 3:1054 4:107 5:88 6:178 #
1 1:48 2:57 3:2024 4:90 5:74 6:143 #
-1 1:32 2:35 3:812 4:143 5:111 6:209 #
1 1:50 2:51 3:1910 4:145 5:117 6:205 #
-1 1:34 2:41 3:1018 4:106 5:84 6:179 #
1 1:50 2:57 3:2102 4:86 5:82 6:140 #
-1 1:40 2:47 3:1364 4:145 5:115 6:189 #
-1 1:44 2:51 3:1652 4:79 5:68 6:145 #
1 1:46 2:61 3:2066 4:94 5:85 6:145 #
-1 1:50 2:57 3:2102 4:59 5:56 6:138 #
1 1:48 2:59 3:2084 4:129 5:118 6:187 #
-1 1:40 2:43 3:1260 4:77 5:62 6:152 #
-1 1:38 2:43 3:1198 4:91 5:73 6:171 #
-1 1:44 2:51 3:1644 4:69 5:80 6:150 #
-1 1:30 2:31 3:678 4:137 5:105 6:205 #
-1 1:40 2:47 3:1372 4:34 5:26 6:120 #
-1 1:44 2:55 3:1788 4:47 5:42 6:117 #
1 1:56 2:57 3:2396 4:88 5:77 6:147 #
1 1:44 2:55 3:1788 4:127 5:108 6:180 #
1 1:42 2:49 3:1518 4:71 5:57 6:154 #
1 1:46 2:49 3:1654 4:144 5:117 6:209 #
-1 1:32 2:41 3:944 4:108 5:92 6:180 #
1 1:40 2:53 3:1572 4:67 5:58 6:155 #
-1 1:44 2:49 3:1584 4:79 5:93 6:161 #
-1 1:36 2:41 3:1076 4:33 5:23 6:126 #
-1 1:52 2:59 3:2280 4:174 5:180 6:225 #
1 1:40 2:55 3:1624 4:130 5:124 6:193 #
1 1:50 2:57 3:2110 4:115 5:101 6:182 #
-1 1:46 2:59 3:2102 4:81 5:96 6:144 #
-1 1:50 2:57 3:2110 4:80 5:95 6:153 #
-1 1:30 2:37 3:790 4:34 5:26 6:118 #
1 1:44 2:59 3:1916 4:89 5:82 6:145 #
-1 1:36 2:41 3:1076 4:92 5:87 6:177 #
1 1:48 2:59 3:2084 4:129 5:118 6:187 #
1 1:44 2:59 3:1916 4:74 5:70 6:136 #
0.540472545698595707719391612045 1:54 2:59 3:2366 4:115 5:101 6:182 #
0.20574028774824049126124236863689 1:90 2:103 3:6962 4:91 5:87 6:143 #
1 1:52 2:61 3:2336 4:135 5:118 6:190 #
-0.74448015065008077417729737135232 1:24 2:35 3:620 4:84 5:63 6:159 #
