SVM-light Version V6.02
0 # kernel type
3 # kernel parameter -d 
1 # kernel parameter -g 
1 # kernel parameter -s 
1 # kernel parameter -r 
empty# kernel parameter -u 
6 # highest feature index 
1029 # number of training documents 
214 # number of support vectors plus 1 
-4.7078052 # threshold b, each following line is a SV (starting with alpha*y)
-0.46118027785399817730649374425411 1:86 2:101 3:6506 4:103 5:99 6:159 #
-0.48775570685916136426385492086411 1:42 2:45 3:1398 4:89 5:87 6:146 #
-0.49311196351394182002536581421737 1:46 2:57 3:1934 4:80 5:67 6:134 #
2.3280320653008432785213699389715 1:66 2:71 3:3514 4:98 5:88 6:153 #
-1.8652644026599869420124377938919 1:36 2:37 3:972 4:93 5:94 6:153 #
1.1817782859819687679703292815248 1:52 2:55 3:2140 4:67 5:56 6:144 #
-3.4860261337401845516126286383951 1:46 2:57 3:1934 4:80 5:67 6:134 #
-1.6311386700389647330666775815189 1:66 2:83 3:4078 4:85 5:77 6:144 #
-1.5734742631411897662019327981398 1:86 2:101 3:6506 4:103 5:99 6:159 #
4.9668440677385241599495202535763 1:46 2:47 3:1606 4:67 5:54 6:143 #
-0.76043237694421605965544586069882 1:84 2:91 3:5748 4:93 5:85 6:144 #
0.30276266869294976569193522664136 1:84 2:101 3:6368 4:101 5:96 6:153 #
0.080354630495003576129420252982527 1:48 2:55 3:1952 4:88 5:84 6:140 #
0.36900003724882424194220220670104 1:52 2:55 3:2140 4:67 5:56 6:144 #
0.74537469203366679693090190994553 1:40 2:53 3:1572 4:72 5:72 6:133 #
0.034600091466500781933746111462824 1:92 2:99 3:6896 4:90 5:85 6:142 #
0.076115101247473518353281463078019 1:97 2:107 3:8051 4:86 5:82 6:139 #
-0.29234545850137150235781291485182 1:46 2:61 3:2082 4:75 5:75 6:134 #
-0.12875352111836946278344839811325 1:50 2:53 3:1970 4:81 5:78 6:139 #
1.7891039086167912497415954931057 1:44 2:49 3:1584 4:86 5:81 6:138 #
-0.87762218468578434560356527072145 1:46 2:61 3:2082 4:75 5:75 6:134 #
-0.20913764536332449250899401249626 1:46 2:47 3:1606 4:67 5:54 6:143 #
1.063510788376093696427915347158 1:28 2:33 3:656 4:88 5:84 6:139 #
-0.41818149453122543945937650278211 1:48 2:51 3:1824 4:83 5:80 6:141 #
-1.0650697451572557206134206353454 1:74 2:89 3:4942 4:93 5:86 6:145 #
0.22425004315118102216075612886925 1:84 2:101 3:6368 4:101 5:96 6:153 #
-0.70667487220591773677824676269665 1:46 2:47 3:1606 4:67 5:54 6:143 #
-1.2253019784204322029097511403961 1:46 2:61 3:2082 4:75 5:75 6:134 #
1.9686647757024360316790989600122 1:48 2:55 3:1952 4:78 5:63 6:132 #
1.8398817757653573856657658325275 1:92 2:99 3:6896 4:90 5:85 6:142 #
0.67059097687273672150354286713991 1:46 2:47 3:1606 4:67 5:54 6:143 #
0.52851398586987108352275299694156 1:48 2:55 3:1952 4:88 5:84 6:140 #
-1.4575896411323370216450712177902 1:80 2:97 3:5792 4:91 5:86 6:144 #
-0.19508797123355436919922567540198 1:46 2:61 3:2082 4:75 5:75 6:134 #
-2.2045014610047157788130789413117 1:36 2:37 3:972 4:93 5:94 6:153 #
1.9627157722271848516726322486647 1:24 2:35 3:620 4:83 5:68 6:142 #
-0.83779390280001564406120451167226 1:46 2:57 3:1934 4:80 5:67 6:134 #
-1.8362532933375419474941736552864 1:50 2:53 3:1970 4:81 5:78 6:139 #
1.1414532572523041764611662074458 1:50 2:57 3:2102 4:86 5:80 6:138 #
0.29764676674527584809837321699888 1:46 2:47 3:1606 4:67 5:54 6:143 #
-1.8712730673391781976988568203524 1:38 2:43 3:1190 4:90 5:90 6:148 #
3.0057420493563058450092739803949 1:30 2:35 3:758 4:93 5:96 6:154 #
-1.8411776515281417232472449541092 1:52 2:65 3:2496 4:81 5:68 6:134 #
-0.19690732159555679459117527585477 1:82 2:99 3:6110 4:102 5:97 6:159 #
-0.25272378219574442859141072403872 1:42 2:45 3:1398 4:89 5:87 6:146 #
0.729779019965006048309419384168 1:50 2:57 3:2102 4:86 5:80 6:138 #
1.5085515269553724237994174472988 1:52 2:55 3:2140 4:67 5:56 6:144 #
-5 1:28 2:33 3:656 4:80 5:68 6:134 #
0.021294440664917146932566538453102 1:56 2:69 3:2864 4:95 5:86 6:150 #
0.25401281552163279542355667217635 1:40 2:53 3:1572 4:72 5:72 6:133 #
-0.10276379875102843730605428618219 1:46 2:47 3:1606 4:67 5:54 6:143 #
5 1:52 2:55 3:2140 4:44 5:64 6:109 #
1.0494911499898762485827319324017 1:92 2:105 3:7396 4:87 5:83 6:140 #
-0.12991913553787171053954807575792 1:46 2:47 3:1606 4:67 5:54 6:143 #
-0.96679306389966512824685196392238 1:46 2:57 3:1934 4:80 5:67 6:134 #
-0.17499376655614184983278391882777 1:46 2:47 3:1606 4:67 5:54 6:143 #
-0.22689708009726494708502286812291 1:86 2:101 3:6506 4:103 5:99 6:159 #
0.066578525371600250082337879575789 1:46 2:61 3:2082 4:75 5:75 6:134 #
-0.10737767980684509439015528187156 1:42 2:45 3:1398 4:89 5:87 6:146 #
4.0538399126603037458949074789416 1:48 2:55 3:1952 4:78 5:63 6:132 #
2.4936491160329192773303930152906 1:24 2:35 3:620 4:83 5:68 6:142 #
-0.050142603404985164328167002167902 1:86 2:101 3:6506 4:103 5:99 6:159 #
-0.53614042112608761847525329358177 1:92 2:105 3:7396 4:87 5:83 6:140 #
-0.072082926688999293673987267538905 1:86 2:101 3:6506 4:103 5:99 6:159 #
-0.16601147125811249738447372692463 1:46 2:57 3:1934 4:80 5:67 6:134 #
-0.023616789737174296442967502684951 1:52 2:55 3:2140 4:67 5:56 6:144 #
0.35626208401075132314872462302446 1:40 2:53 3:1572 4:72 5:72 6:133 #
0.034475058157660581903414254156814 1:46 2:61 3:2082 4:75 5:75 6:134 #
-2.0843585441856333773102960549295 1:46 2:61 3:2082 4:75 5:75 6:134 #
-0.10236144323998208616188776431954 1:50 2:55 3:2038 4:87 5:81 6:139 #
0.5368698128324324025939517923689 1:30 2:35 3:758 4:93 5:96 6:154 #
-0.031927319888922056634328328073025 1:86 2:101 3:6506 4:103 5:99 6:159 #
0.073640170658908488121596747078001 1:46 2:61 3:2082 4:75 5:75 6:134 #
-0.87906623772864189714226768046501 1:46 2:57 3:1934 4:80 5:67 6:134 #
-0.97871121977215125298243947327137 1:52 2:55 3:2140 4:67 5:56 6:144 #
0.087496615980924730138212908059359 1:46 2:47 3:1606 4:67 5:54 6:143 #
0.13848009158288365760824945027707 1:92 2:99 3:6896 4:90 5:85 6:142 #
-0.073247873802927188080502673983574 1:46 2:47 3:1606 4:67 5:54 6:143 #
0.088190339781752349890275866073353 1:46 2:47 3:1606 4:67 5:54 6:143 #
0.017645621997584480522558436632607 1:92 2:99 3:6896 4:90 5:85 6:142 #
0.65005876454365063565887794538867 1:48 2:55 3:1952 4:78 5:63 6:132 #
2.9246434174456936716524069197476e-06 1:56 2:67 3:2776 4:73 5:71 6:154 #
0.0028049487925295990553564706715406 1:40 2:53 3:1572 4:72 5:72 6:133 #
-0.19434656391918148088393536454532 1:86 2:101 3:6506 4:103 5:99 6:159 #
0.069925377656566367612356316385558 1:92 2:105 3:7396 4:87 5:83 6:140 #
-0.067310665512929745979420204093913 1:86 2:101 3:6506 4:103 5:99 6:159 #
0.013335416987489401990929493990734 1:72 2:89 3:4780 4:109 5:103 6:162 #
1.7464989471746044102928863139823 1:62 2:75 3:3446 4:89 5:78 6:144 #
1.8066631473582367428676320741943e-07 1:64 2:75 3:3572 4:89 5:86 6:161 #
-0.099946381671443873528914991766214 1:46 2:47 3:1606 4:67 5:54 6:143 #
0.23925847527601540321029460756108 1:44 2:57 3:1844 4:65 5:58 6:143 #
-0.53684001264225156280218698157114 1:46 2:47 3:1606 4:67 5:54 6:143 #
0.032886807539771467645550728775561 1:46 2:51 3:1738 4:82 5:79 6:140 #
-0.058258415728841939085214107763022 1:46 2:47 3:1606 4:67 5:54 6:143 #
-5 1:52 2:55 3:2140 4:67 5:56 6:144 #
-5 1:46 2:47 3:1606 4:67 5:54 6:143 #
0.1211613600887346819945378229022 1:44 2:57 3:1844 4:65 5:58 6:143 #
0.72351989617270395793724446775741 1:34 2:39 3:966 4:88 5:84 6:139 #
1.0385512067871704999788562417962 1:40 2:53 3:1572 4:72 5:72 6:133 #
-1.4999303131264971611358305381145 1:46 2:47 3:1606 4:67 5:54 6:143 #
0.067968889277878474786120932549238 1:46 2:47 3:1606 4:67 5:54 6:143 #
0.1926971114515525773658310981773 1:40 2:47 3:1364 4:90 5:87 6:143 #
-0.036914825538719754638439241034575 1:86 2:101 3:6506 4:103 5:99 6:159 #
0.022599777895855301113048341221656 1:66 2:81 3:3994 4:103 5:95 6:156 #
0.15423134065013921478737302095396 1:46 2:47 3:1606 4:67 5:54 6:143 #
0.085206909734892699592734288671636 1:64 2:75 3:3572 4:89 5:86 6:161 #
0.76009318174162388004333479329944 1:46 2:47 3:1606 4:67 5:54 6:143 #
4.8933814429059712125535952509381 1:46 2:47 3:1606 4:67 5:54 6:143 #
0.89488547980727162212133407592773 1:52 2:55 3:2140 4:67 5:56 6:144 #
-0.42296049242421945857373088983877 1:46 2:47 3:1606 4:67 5:54 6:143 #
-0.13162715215343345764864579905407 1:50 2:55 3:2038 4:77 5:62 6:131 #
-5 1:46 2:61 3:2082 4:75 5:75 6:134 #
0.037528353845534767607716730708489 1:52 2:55 3:2140 4:67 5:56 6:144 #
0.70129439195233411741270401762449 1:62 2:75 3:3446 4:89 5:78 6:144 #
-4.9964432552699236111948266625404 1:46 2:47 3:1606 4:67 5:54 6:143 #
2.3915582396042495084888951373259e-07 1:92 2:105 3:7396 4:87 5:83 6:140 #
0.0042636713221713270702273312906527 1:38 2:47 3:1318 4:84 5:69 6:147 #
-0.74661495125398014138795588223729 1:46 2:47 3:1606 4:67 5:54 6:143 #
0.086232214143242086334950613490946 1:72 2:89 3:4804 4:117 5:117 6:179 #
0.16024449858830180914992524776608 1:38 2:47 3:1318 4:84 5:69 6:147 #
-0.36757057299850093290416452873615 1:82 2:99 3:6110 4:102 5:97 6:159 #
-0.19763025282498342116710432492255 1:46 2:47 3:1606 4:42 5:62 6:107 #
-0.36927429006908735198422277790087 1:46 2:47 3:1606 4:67 5:54 6:143 #
2.734013566696755326290713128401 1:34 2:39 3:966 4:41 5:61 6:106 #
-0.85354989441039563757840369362384 1:46 2:47 3:1606 4:42 5:62 6:107 #
0.65258210275896999519318342208862 1:64 2:79 3:3764 4:96 5:86 6:148 #
-0.10488707513441039576029822910641 1:46 2:57 3:1934 4:80 5:67 6:134 #
-0.079918247077404913625287008471787 1:46 2:47 3:1606 4:67 5:54 6:143 #
0.0034924853791489240961709583643824 1:62 2:75 3:3446 4:89 5:78 6:144 #
-4.9958732511893799710378516465425 1:46 2:47 3:1606 4:42 5:62 6:107 #
0.14236505609990768306261088582687 1:28 2:29 3:584 4:144 5:139 6:186 #
-0.0018590433679817053302940621506423 1:86 2:101 3:6506 4:103 5:99 6:159 #
2.6675314945961980939159730041865e-06 1:64 2:79 3:3764 4:96 5:86 6:148 #
-0.32897941231693383912215722375549 1:52 2:55 3:2140 4:67 5:56 6:144 #
4.7368340446452030789714626735076 1:46 2:61 3:2082 4:75 5:75 6:134 #
0.74914309377104770781841125426581 1:52 2:65 3:2496 4:80 5:76 6:156 #
0.028635106351036276883803566306597 1:58 2:73 3:3154 4:87 5:76 6:142 #
0.13687220400305122325335105415434 1:68 2:79 3:4012 4:88 5:77 6:141 #
0.00010031330688386325133976129109215 1:76 2:93 3:5280 4:96 5:90 6:149 #
0.12912460683892490465041191782802 1:62 2:75 3:3446 4:89 5:78 6:144 #
0.059841057181927226338302716612816 1:72 2:89 3:4780 4:109 5:103 6:162 #
0.014448818360684135761462520974874 1:62 2:75 3:3446 4:89 5:78 6:144 #
4.1077769866171287560518976533785e-07 1:64 2:75 3:3572 4:89 5:86 6:161 #
0.40391258977843991218037444923539 1:44 2:57 3:1844 4:65 5:58 6:143 #
0.042889141681842254949508230765787 1:62 2:75 3:3446 4:89 5:78 6:144 #
2.3447056068365386138907524582464 1:68 2:79 3:4012 4:88 5:77 6:141 #
-0.09998085337723799925768730645359 1:46 2:47 3:1606 4:67 5:54 6:143 #
4.8060277479944346623597084544599e-08 1:76 2:93 3:5280 4:96 5:90 6:149 #
2.0171274316638232448894996196032e-05 1:62 2:75 3:3446 4:89 5:78 6:144 #
0.074289953424248267310758819803596 1:40 2:53 3:1572 4:72 5:72 6:133 #
6.1659139721781386356269649695605e-07 1:70 2:85 3:4470 4:93 5:84 6:145 #
0.026825593684350224066292867064476 1:52 2:65 3:2496 4:80 5:76 6:156 #
0.082222497989665160877947869266791 1:72 2:87 3:4684 4:100 5:92 6:152 #
0.0052191669802592599580748355947435 1:66 2:81 3:3994 4:103 5:95 6:156 #
0.25473229707551392486664099124027 1:68 2:79 3:4012 4:88 5:77 6:141 #
0.71175855413481226019456471476587 1:68 2:79 3:4012 4:88 5:77 6:141 #
-0.001785788025212428241014772645201 1:46 2:47 3:1606 4:42 5:62 6:107 #
4.5600549556433360720575365121476 1:52 2:55 3:2140 4:67 5:56 6:144 #
-0.48574889477335148058045888319612 1:86 2:101 3:6506 4:103 5:99 6:159 #
-2.784968731897421001519887795439 1:46 2:57 3:1934 4:80 5:67 6:134 #
-1.5444568612439993349205735739815e-05 1:97 2:107 3:8051 4:86 5:82 6:139 #
-1.1720767437673167421507969265804 1:86 2:101 3:6506 4:103 5:99 6:159 #
0.96282504120436840366892283782363 1:70 2:85 3:4470 4:93 5:84 6:145 #
-0.04801119958714705759916796523612 1:86 2:101 3:6506 4:103 5:99 6:159 #
-0.12410312296265413323226312058978 1:52 2:55 3:2140 4:67 5:56 6:144 #
-0.12699270312896260293200612068176 1:36 2:41 3:1068 4:87 5:77 6:143 #
2.1869129624985106374879251234233e-06 1:68 2:79 3:4012 4:88 5:77 6:141 #
4.5160365820251513468974735587835e-06 1:68 2:79 3:4012 4:88 5:77 6:141 #
2.9077407206513916637646843810217e-07 1:72 2:89 3:4780 4:109 5:103 6:162 #
0.034057107292302768453140515703126 1:62 2:75 3:3446 4:89 5:78 6:144 #
-0.15843599770437855056570697342977 1:58 2:63 3:2726 4:87 5:80 6:139 #
4.8645855121494385731040210885112e-06 1:70 2:85 3:4470 4:93 5:84 6:145 #
0.19056266648442965472298737950041 1:76 2:93 3:5280 4:96 5:90 6:149 #
0.00015825336136310319545827951515093 1:56 2:67 3:2784 4:73 5:71 6:154 #
0.0032867000850274052936583757400513 1:64 2:79 3:3764 4:96 5:86 6:148 #
2.9856974817221715312598462332971e-06 1:72 2:89 3:4780 4:109 5:103 6:162 #
0.016261244549080133142693327386041 1:66 2:81 3:3994 4:103 5:95 6:156 #
-0.1055192182445859189199310890217 1:46 2:47 3:1606 4:42 5:62 6:107 #
-0.29301838684190784078964497894049 1:66 2:83 3:4078 4:85 5:77 6:144 #
-8.6882750431258996881621423785669e-07 1:46 2:47 3:1606 4:67 5:54 6:143 #
0.076089798971224809065461158752441 1:52 2:69 3:2744 4:85 5:84 6:141 #
1.1679791109215145739064212193625e-06 1:72 2:87 3:4684 4:100 5:92 6:152 #
-0.15479471665518573786357592325658 1:56 2:59 3:2460 4:78 5:75 6:136 #
-0.0075432061113510640026902365207206 1:52 2:55 3:2140 4:67 5:56 6:144 #
7.4442885892450627594030265754554e-07 1:72 2:87 3:4684 4:100 5:92 6:152 #
2.9968196390531449957439491527111e-07 1:64 2:75 3:3572 4:89 5:86 6:161 #
0.029610544538728241631408977241335 1:72 2:87 3:4684 4:100 5:92 6:152 #
0.0030392228460255077404639223459526 1:56 2:67 3:2784 4:73 5:71 6:154 #
0.74898037353284729888969195599202 1:72 2:89 3:4780 4:109 5:103 6:162 #
0.01227712859066798500862205401063 1:60 2:73 3:3256 4:97 5:95 6:169 #
0.093273852687595137922471622005105 1:60 2:73 3:3256 4:97 5:95 6:169 #
0.021858818080406801354076407051252 1:64 2:75 3:3572 4:89 5:86 6:161 #
1.1851245646635200081675520777935e-05 1:58 2:73 3:3154 4:87 5:76 6:142 #
0.047453559944058643083053539157845 1:60 2:73 3:3256 4:97 5:95 6:169 #
0.019636877993978424372656377272506 1:58 2:73 3:3154 4:87 5:76 6:142 #
0.5955351604732996850799509047647 1:52 2:69 3:2744 4:85 5:84 6:141 #
0.044482027461185680294875055551529 1:56 2:67 3:2776 4:73 5:71 6:154 #
0.080923917221582541969837620854378 1:56 2:67 3:2776 4:73 5:71 6:154 #
-0.020558113331956472114026013287003 1:46 2:57 3:1934 4:80 5:67 6:134 #
9.9456346308070264772283053389401e-07 1:56 2:67 3:2784 4:73 5:71 6:154 #
0.012818476617489076019307248088808 1:52 2:65 3:2496 4:80 5:76 6:156 #
3.1990716470569474649821017919749e-07 1:92 2:105 3:7396 4:87 5:83 6:140 #
1.0281325616392331150561120778342e-06 1:68 2:79 3:4012 4:88 5:77 6:141 #
0.01635332677438228188293578568846 1:72 2:89 3:4804 4:117 5:117 6:179 #
0.01666215741640336006623712705732 1:64 2:75 3:3572 4:89 5:86 6:161 #
0.029765811965816624251601751893759 1:64 2:81 3:3872 4:103 5:103 6:172 #
4.3912776795732022527829485625261e-07 1:70 2:85 3:4470 4:93 5:84 6:145 #
0.0037376591362203726021107286214828 1:42 2:45 3:1398 4:143 5:141 6:190 #
0.015346599268490579426327258261153 1:28 2:29 3:584 4:144 5:139 6:186 #
0.00056365341452268397873931471409037 1:64 2:79 3:3764 4:96 5:86 6:148 #
-2.9545156760235613546683453023434e-05 1:82 2:99 3:6110 4:102 5:97 6:159 #
6.2309995848017305647426056225413e-06 1:97 2:107 3:8051 4:86 5:82 6:139 #
2.8802754605035971944811470923931e-07 1:34 2:37 3:922 4:141 5:138 6:188 #
