SVM-light Version V6.02
0 # kernel type
3 # kernel parameter -d 
1 # kernel parameter -g 
1 # kernel parameter -s 
1 # kernel parameter -r 
empty# kernel parameter -u 
6 # highest feature index 
325 # number of training documents 
208 # number of support vectors plus 1 
6.4692076 # threshold b, each following line is a SV (starting with alpha*y)
-2.6162974663948261877521872520447 1:49 2:57 3:2095 4:54 5:49 6:138 #
-2.4584574452178458159323781728745 1:48 2:55 3:1952 4:137 5:108 6:201 #
-1.3892618829592890961066586896777 1:28 2:29 3:584 4:86 5:60 6:145 #
3.3792888922603196988347917795181 1:42 2:49 3:1518 4:71 5:57 6:154 #
0.56922507434286240268761503102724 1:38 2:45 3:1250 4:105 5:84 6:174 #
0.040412095577504913990196655504405 1:40 2:47 3:1372 4:142 5:114 6:207 #
-10 1:86 2:105 3:6746 4:97 5:94 6:160 #
10 1:40 2:41 3:1216 4:225 5:153 6:204 #
2.2629925792656999661289773939643 1:28 2:29 3:584 4:36 5:52 6:173 #
10 1:38 2:45 3:1250 4:97 5:86 6:160 #
0.28974593566522344190161675214767 1:32 2:41 3:952 4:147 5:119 6:197 #
-3.1712844154721531175766813248629e-05 1:28 2:31 3:624 4:127 5:97 6:187 #
2.2198589842459313103972817771137 1:28 2:39 3:800 4:138 5:105 6:191 #
-0.99360452578129354606062406674027 1:16 2:27 3:312 4:151 5:89 6:161 #
-1.3768271770387130459312174934894 1:40 2:49 3:1436 4:149 5:99 6:171 #
3.2446983105353908172219234984368 1:40 2:47 3:1364 4:117 5:98 6:171 #
10 1:18 2:27 3:350 4:61 5:57 6:153 #
-2.006071563082059583393856883049 1:24 2:25 3:416 4:33 5:10 6:135 #
4.2860521728480023284646449610591 1:34 2:37 3:922 4:70 5:69 6:173 #
0.79728433965073008948820643126965 1:40 2:47 3:1364 4:163 5:139 6:213 #
0.45644395749198451994743663817644 1:28 2:39 3:788 4:108 5:82 6:171 #
0.55293089060918276800293824635446 1:42 2:45 3:1398 4:87 5:85 6:147 #
2.9877930420674090328247984871268 1:32 2:45 3:1064 4:86 5:72 6:138 #
-0.013818554764270629675593227148056 1:36 2:37 3:972 4:96 5:89 6:151 #
0.49302977541816517259576357901096 1:42 2:49 3:1518 4:119 5:107 6:178 #
-1.9227435947403335170236005069455 1:36 2:41 3:1076 4:92 5:87 6:177 #
5.3876390808341056981589645147324 1:34 2:47 3:1178 4:91 5:88 6:144 #
2.2545105229330406615417814464308 1:52 2:61 3:2344 4:141 5:130 6:187 #
3.1546592650222464726539328694344 1:28 2:39 3:788 4:108 5:82 6:171 #
-1.5838368361791310690023237839341 1:36 2:39 3:1020 4:178 5:143 6:222 #
-0.76495948533656510370803971454734 1:32 2:37 3:856 4:73 5:91 6:139 #
-2.7583688685804190754424780607224 1:28 2:33 3:664 4:111 5:95 6:177 #
-10 1:44 2:51 3:1652 4:79 5:68 6:145 #
0.616491088743998716381611302495 1:46 2:51 3:1738 4:180 5:154 6:218 #
0.55689624904948686889838427305222 1:42 2:45 3:1398 4:99 5:76 6:157 #
-1.349759045946179014663357520476 1:36 2:43 3:1132 4:138 5:119 6:191 #
0.087573938931572836708028262364678 1:54 2:63 3:2510 4:150 5:125 6:199 #
-0.18570064393710516981172986561432 1:40 2:43 3:1260 4:77 5:62 6:152 #
-0.37307635552690410207787863328122 1:30 2:35 3:766 4:142 5:101 6:205 #
-0.42822593238485850974939239677042 1:46 2:51 3:1738 4:105 5:109 6:162 #
3.9413588387330804607699974440038 1:44 2:47 3:1528 4:86 5:75 6:136 #
1.2960772142148604402223099896219 1:48 2:53 3:1880 4:114 5:101 6:168 #
-2.0902120244550559391427668742836 1:16 2:25 3:292 4:132 5:98 6:189 #
9.6468072390532686455344446585514 1:89 2:107 3:7197 4:104 5:98 6:159 #
1.3474123655991547821031417697668 1:38 2:49 3:1362 4:141 5:126 6:194 #
-4.1649352889630772978080130997114 1:44 2:45 3:1472 4:137 5:96 6:204 #
-0.97267446221858122612502484116703 1:54 2:57 3:2298 4:56 5:51 6:135 #
-4.4164131707818832239809125894681 1:32 2:29 3:732 4:85 5:100 6:147 #
2.1126461212070921646954957395792 1:42 2:51 3:1570 4:107 5:92 6:173 #
-2.0844374979103617029352335521253 1:28 2:29 3:584 4:226 5:147 6:205 #
4.870924620746905020496342331171 1:30 2:41 3:902 4:45 5:41 6:148 #
2.2929461295671735854284634115174 1:34 2:47 3:1170 4:146 5:111 6:201 #
-0.05514428110233925844907432178843 1:32 2:37 3:856 4:250 5:168 6:212 #
-0.9517380071740625391285561818222 1:36 2:37 3:972 4:243 5:197 6:225 #
-2.9086628684257505028654122725129 1:42 2:49 3:1510 4:130 5:93 6:184 #
-0.47179281915386184209637576714158 1:46 2:59 3:2102 4:81 5:96 6:144 #
-1.3613895737809542652030359022319 1:32 2:35 3:812 4:143 5:118 6:189 #
5.9105087931051727423437114339322 1:34 2:39 3:966 4:87 5:71 6:139 #
2.9335402966611354713677428662777 1:50 2:61 3:2270 4:202 5:162 6:213 #
10 1:32 2:37 3:856 4:106 5:80 6:169 #
1.6351306258020485984161496162415 1:32 2:37 3:856 4:41 5:47 6:140 #
-3.5361725223534961060067871585488 1:34 2:41 3:1018 4:106 5:84 6:179 #
4.6886476814706270488386508077383 1:32 2:41 3:944 4:150 5:104 6:177 #
0.17718419292435766410065411946562 1:38 2:45 3:1250 4:86 5:79 6:140 #
-0.89617355483474625543749425560236 1:48 2:55 3:1952 4:56 5:67 6:127 #
-1.136140329983163610449992120266 1:40 2:47 3:1364 4:145 5:115 6:189 #
0.31701457614724404265871271491051 1:52 2:61 3:2336 4:135 5:118 6:190 #
0.6974896672734320901554383453913 1:46 2:51 3:1738 4:82 5:75 6:134 #
9.9356927229684686153632355853915 1:38 2:45 3:1250 4:81 5:71 6:158 #
-4.3356811374346193588280584663153 1:30 2:35 3:758 4:202 5:128 6:183 #
-1.4701237227268961760273668915033 1:16 2:25 3:292 4:132 5:98 6:189 #
1.2396634069742304973260615952313 1:44 2:59 3:1916 4:121 5:107 6:179 #
-3.5979821323233514007711164595094 1:42 2:47 3:1450 4:137 5:106 6:201 #
-3.6952865186752319459628779441118 1:60 2:63 3:2828 4:50 5:69 6:113 #
1.4222257061413148271356021723477 1:28 2:39 3:800 4:143 5:110 6:203 #
-2.1684992473611686136791831813753 1:30 2:31 3:678 4:137 5:105 6:205 #
1.5239107128582531913707498461008 1:48 2:59 3:2084 4:129 5:118 6:187 #
-0.018855373783372906398847490549997 1:46 2:53 3:1790 4:97 5:71 6:152 #
-3.6844496358387788248478500463534 1:44 2:53 3:1708 4:46 5:61 6:108 #
-0.062634295397799633065005764365196 1:30 2:31 3:678 4:131 5:97 6:184 #
-1.4783310080551927967462688684464 1:30 2:33 3:706 4:114 5:87 6:175 #
0.1525145983505353797227144241333 1:50 2:59 3:2194 4:145 5:112 6:193 #
0.38887292334581013975025598483626 1:34 2:47 3:1170 4:134 5:105 6:186 #
-2.4329271328038615251898590940982 1:40 2:43 3:1260 4:124 5:94 6:177 #
0.79380796910660933463077526539564 1:36 2:41 3:1068 4:77 5:72 6:129 #
-2.6511420644807301982837088871747 1:34 2:35 3:866 4:102 5:84 6:167 #
0.63220046691335607391692974488251 1:54 2:59 3:2366 4:115 5:101 6:182 #
-0.078025773116110030969139188528061 1:28 2:33 3:656 4:89 5:83 6:139 #
-0.20119305586399605090264230966568 1:52 2:59 3:2280 4:73 5:83 6:155 #
1.441532725512786328181391581893 1:44 2:47 3:1528 4:111 5:97 6:186 #
0.088483504271355428727474645711482 1:32 2:39 3:904 4:34 5:43 6:153 #
1.7806811494704519738263570616255 1:92 2:101 3:7000 4:95 5:89 6:165 #
-0.09888363299352143087617150740698 1:54 2:61 3:2442 4:76 5:84 6:145 #
-1.4468386464188438544908876792761 1:58 2:63 3:2726 4:130 5:111 6:188 #
-6.9792010513392028769885655492544 1:32 2:41 3:944 4:108 5:92 6:180 #
0.12101637636578743695281445980072 1:38 2:45 3:1250 4:100 5:91 6:182 #
-4.5462814630804473381431307643652 1:30 2:35 3:758 4:45 5:25 6:151 #
-0.35163142109882272734466823749244 1:30 2:43 3:930 4:96 5:87 6:151 #
-0.60998261302205492029315792024136 1:26 2:27 3:502 4:138 5:106 6:209 #
-1.8124173925876192470241221599281 1:30 2:43 3:930 4:243 5:215 6:232 #
-0.76745069047728620148518530186266 1:38 2:47 3:1350 4:89 5:92 6:158 #
-0.7941009816618382899378048023209 1:30 2:43 3:930 4:96 5:108 6:161 #
1.1732371554344780406609061174095 1:40 2:43 3:1260 4:92 5:90 6:158 #
0.15829351492237997423018214249169 1:56 2:61 3:2610 4:131 5:114 6:183 #
-2.9033333904068001629639184102416 1:52 2:57 3:2192 4:135 5:99 6:188 #
1.1816953187501724187313811853528 1:34 2:39 3:966 4:105 5:82 6:168 #
-4.7469784457678656508505810052156 1:32 2:41 3:944 4:115 5:97 6:171 #
0.06368505714678462936717551201582 1:54 2:63 3:2542 4:122 5:105 6:178 #
1.760066486431256294054037425667 1:44 2:47 3:1528 4:73 5:70 6:124 #
10 1:34 2:43 3:1054 4:108 5:89 6:175 #
-6.2733986787300022314184388960712e-07 1:28 2:33 3:664 4:202 5:118 6:166 #
-2.0140425598148965491418493911624 1:42 2:47 3:1450 4:105 5:80 6:171 #
1.2097389546170944640834932215512 1:52 2:61 3:2336 4:158 5:141 6:216 #
4.3975244271305626853063586167991 1:36 2:39 3:1020 4:130 5:99 6:188 #
0.060047387548560704484401640002034 1:30 2:43 3:946 4:73 5:69 6:125 #
-2.4030077181454103651958575937897 1:44 2:45 3:1472 4:107 5:81 6:171 #
6.7888373834186310773475270252675 1:34 2:41 3:1018 4:102 5:86 6:180 #
-5.8658387690146867043949896469712 1:28 2:33 3:664 4:120 5:105 6:180 #
0.012552684743965869529347401112318 1:46 2:49 3:1654 4:144 5:117 6:209 #
-2.062191984941549094401125330478 1:58 2:69 3:2970 4:111 5:120 6:176 #
0.034285073908449703594669699668884 1:40 2:49 3:1436 4:90 5:80 6:147 #
-0.022655519983750593837612541392446 1:24 2:35 3:620 4:84 5:63 6:159 #
-2.5781751766708396189642371609807 1:38 2:45 3:1250 4:99 5:76 6:151 #
4.103693024570702618802897632122 1:36 2:37 3:972 4:96 5:92 6:154 #
-0.041330347475053486050455830991268 1:28 2:29 3:584 4:77 5:59 6:137 #
0.62222446984655732649116544052958 1:88 2:101 3:6692 4:83 5:84 6:155 #
-1.5792048487332537298755141819129 1:44 2:55 3:1788 4:47 5:42 6:117 #
-2.0202111262855577678010376985185 1:44 2:53 3:1708 4:209 5:204 6:226 #
0.78711513006974975770191349511151 1:48 2:53 3:1880 4:118 5:98 6:168 #
1.384678836056178141689088079147 1:38 2:45 3:1250 4:100 5:91 6:182 #
-0.6188950075389954008642234839499 1:50 2:57 3:2102 4:59 5:56 6:138 #
-0.97529551440331374578818213194609 1:22 2:25 3:382 4:175 5:123 6:204 #
-0.18626082343996586132561787962914 1:42 2:43 3:1330 4:141 5:106 6:200 #
0.23248970933204304856189992278814 1:40 2:45 3:1324 4:94 5:72 6:163 #
0.038489473494280446175253018736839 1:46 2:47 3:1606 4:150 5:121 6:192 #
0.4416808913833509819824030273594 1:46 2:53 3:1790 4:108 5:104 6:180 #
-0.87351995094945067421576823107898 1:34 2:45 3:1222 4:24 5:35 6:100 #
0.040582872235916056524729356169701 1:32 2:33 3:764 4:148 5:110 6:204 #
4.5859129990144253952166764065623 1:34 2:41 3:1018 4:117 5:94 6:179 #
-0.15808193342934911962416322239733 1:36 2:41 3:1076 4:97 5:104 6:159 #
-0.13057384601381727406987920403481 1:40 2:47 3:1372 4:132 5:94 6:183 #
0.40880213128878750694639165885746 1:56 2:59 3:2460 4:120 5:103 6:172 #
0.36416402885132409528168295764772 1:40 2:43 3:1260 4:163 5:118 6:186 #
-8.8658216656626382956574161653407 1:34 2:43 3:1054 4:107 5:88 6:178 #
-2.0176818511664436073260731063783 1:40 2:43 3:1260 4:131 5:98 6:187 #
0.2209009017267078434088034555316 1:40 2:41 3:1216 4:98 5:90 6:157 #
-1.6464417943632838614576030522585 1:28 2:39 3:788 4:37 5:20 6:125 #
1.9088382157867482824542548769386 1:50 2:51 3:1910 4:81 5:77 6:133 #
-1.2917499501409492879133722453844 1:26 2:27 3:502 4:90 5:71 6:154 #
-2.8053807098206107184523716568947 1:28 2:29 3:584 4:103 5:83 6:159 #
3.1512666137566185398100060410798 1:50 2:53 3:1970 4:103 5:82 6:161 #
0.19954300609543906830367632210255 1:38 2:43 3:1198 4:54 5:71 6:153 #
-3.1490493776977928064297884702682 1:48 2:49 3:1744 4:118 5:98 6:184 #
1.8446474533570160758699785219505 1:50 2:53 3:1970 4:120 5:88 6:169 #
-1.4316166781026140597532503306866 1:54 2:61 3:2450 4:52 5:52 6:131 #
-1.466142144406106240239751059562 1:28 2:29 3:584 4:125 5:88 6:190 #
-2.0574663480888402133928138937335 1:26 2:29 3:534 4:87 5:81 6:141 #
-2.0672169605171575312851928174496 1:38 2:43 3:1198 4:91 5:73 6:171 #
-4.5626792118561132483023357053753 1:42 2:45 3:1398 4:233 5:159 6:209 #
-0.4440540818915650334020028822124 1:40 2:47 3:1372 4:68 5:82 6:136 #
4.0309469876559695933337934548035 1:38 2:43 3:1198 4:120 5:105 6:178 #
1.3400025778898907447000965476036 1:50 2:57 3:2102 4:75 5:66 6:165 #
-0.92539456053577850980218499898911 1:44 2:49 3:1584 4:79 5:93 6:161 #
-1.2242286885830315767975662311073 1:36 2:41 3:1068 4:92 5:87 6:177 #
0.04012534599748818209263845346868 1:52 2:55 3:2140 4:140 5:127 6:195 #
-1.5092893358425953920232132077217 1:24 2:35 3:620 4:147 5:97 6:168 #
-0.39174946006227173711522482335567 1:26 2:27 3:502 4:138 5:106 6:209 #
0.73213782650492476022918708622456 1:46 2:53 3:1790 4:128 5:108 6:189 #
-1.2059065052976194465372827835381 1:58 2:65 3:2810 4:84 5:97 6:150 #
-2.5051650901650646119378507137299 1:44 2:51 3:1644 4:69 5:80 6:150 #
-1.3084047537417688999994425103068 1:44 2:53 3:1848 4:51 5:48 6:128 #
-2.2503005589732945068703884317074 1:60 2:67 3:2988 4:62 5:55 6:139 #
2.3017546901789596169862761598779 1:44 2:49 3:1584 4:116 5:101 6:186 #
-0.61618303050677880605690006632358 1:32 2:35 3:812 4:143 5:111 6:209 #
-0.77026814101668605871964246034622 1:50 2:55 3:2038 4:62 5:50 6:140 #
-1.5906927370270311783428951457608 1:44 2:47 3:1528 4:32 5:27 6:117 #
0.49250017236693111044587567448616 1:54 2:57 3:2298 4:159 5:134 6:214 #
-0.26108814810615132984139563632198 1:64 2:71 3:3396 4:68 5:78 6:138 #
0.27476065974772462263686634287296 1:90 2:107 3:7214 4:85 5:82 6:139 #
-0.39784594618169677460173261351883 1:32 2:35 3:812 4:136 5:97 6:202 #
-3.7423843211751091075711883604527 1:22 2:23 3:354 4:145 5:103 6:206 #
7.0369061441676876711426302790642 1:36 2:37 3:972 4:91 5:92 6:151 #
-5.2741636677798453547438839450479 1:43 2:73 3:2503 4:109 5:120 6:168 #
0.078895427275313068093964830040932 1:50 2:53 3:1970 4:100 5:90 6:157 #
-0.017120709236692732702067587524652 1:30 2:35 3:758 4:102 5:77 6:160 #
1.5074635754301297652091307099909 1:66 2:81 3:3978 4:230 5:201 6:226 #
-1.7293860716370943464426090940833 1:32 2:45 3:1064 4:247 5:183 6:217 #
0.4851869301841347237314039375633 1:42 2:45 3:1398 4:129 5:104 6:181 #
-3.1783560816391371872668969444931 1:48 2:59 3:2084 4:43 5:41 6:120 #
-1.6296742620579820481907518114895 1:58 2:65 3:2794 4:66 5:63 6:144 #
-0.14448033694246831259988539386541 1:38 2:45 3:1250 4:75 5:57 6:149 #
-0.18172732264243229849398630904034 1:28 2:33 3:656 4:128 5:100 6:182 #
-0.89509740729784370572019724932034 1:47 2:81 3:3029 4:106 5:117 6:165 #
3.2266897842386015327065251767635 1:50 2:51 3:1910 4:196 5:118 6:174 #
0.011916330884446324489545077085495 1:52 2:59 3:2288 4:109 5:88 6:171 #
-1.8769063554839406915419885990559 1:42 2:47 3:1450 4:55 5:74 6:126 #
-0.31815687932742892085613561903301 1:28 2:31 3:624 4:76 5:62 6:155 #
0.04692494270102542941458523273468 1:42 2:45 3:1398 4:85 5:69 6:135 #
0.019520647443052041580813238397241 1:48 2:59 3:2092 4:133 5:114 6:179 #
-0.071437858070908077934291213750839 1:32 2:45 3:1064 4:41 5:29 6:129 #
-0.044632157300270591804292052984238 1:69 2:81 3:4235 4:71 5:77 6:145 #
-0.39845892709753627514146501198411 1:26 2:29 3:534 4:48 5:59 6:122 #
-0.0099508728610828711680369451642036 1:28 2:31 3:624 4:131 5:98 6:209 #
0.1275875067555602981883566826582 1:32 2:41 3:944 4:100 5:91 6:156 #
0.14456191754828751072636805474758 1:36 2:37 3:972 4:80 5:64 6:129 #
-0.041230946736842355448970920406282 1:32 2:39 3:904 4:101 5:119 6:176 #
-0.05526550837870658483552688267082 1:32 2:37 3:856 4:248 5:172 6:213 #
