SVM-light Version V6.02
0 # kernel type
3 # kernel parameter -d 
1 # kernel parameter -g 
1 # kernel parameter -s 
1 # kernel parameter -r 
empty# kernel parameter -u 
6 # highest feature index 
325 # number of training documents 
215 # number of support vectors plus 1 
3.1605398 # threshold b, each following line is a SV (starting with alpha*y)
-0.070771103001778357111106743104756 1:32 2:35 3:812 4:143 5:111 6:209 #
-0.30730406761805717508195812115446 1:40 2:43 3:1260 4:124 5:94 6:177 #
-0.90541063678392674773931503295898 1:38 2:43 3:1198 4:91 5:73 6:171 #
1 1:42 2:49 3:1518 4:71 5:57 6:154 #
0.31424879431509256111354488893994 1:38 2:45 3:1250 4:105 5:84 6:174 #
-0.95950158955002073923878924688324 1:44 2:53 3:1708 4:46 5:61 6:108 #
-1 1:86 2:105 3:6746 4:97 5:94 6:160 #
1 1:40 2:41 3:1216 4:225 5:153 6:204 #
1 1:34 2:47 3:1170 4:134 5:105 6:186 #
-0.6671011919059802730558317307441 1:32 2:41 3:944 4:108 5:92 6:180 #
1 1:28 2:39 3:788 4:108 5:82 6:171 #
-0.62922922235304667992750182747841 1:24 2:35 3:620 4:147 5:97 6:168 #
-0.88080588655399427722159089171328 1:40 2:41 3:1216 4:133 5:100 6:210 #
-0.001210479266433223122234608126746 1:30 2:37 3:790 4:34 5:26 6:118 #
-0.30752910102194164210231974720955 1:26 2:29 3:534 4:87 5:81 6:141 #
-0.85144008747780408619121317315148 1:36 2:41 3:1076 4:92 5:87 6:177 #
-0.96463856463084596271073678508401 1:24 2:25 3:416 4:33 5:10 6:135 #
-0.21547826863092467419846798293293 1:16 2:27 3:312 4:151 5:89 6:161 #
-1 1:50 2:55 3:2038 4:62 5:50 6:140 #
0.74801714315931300269824077986414 1:40 2:47 3:1364 4:163 5:139 6:213 #
0.61671533766254638120329900630168 1:42 2:51 3:1570 4:107 5:92 6:173 #
-0.051764915937943412060917580674868 1:46 2:55 3:1866 4:70 5:64 6:125 #
1 1:32 2:45 3:1064 4:86 5:72 6:138 #
-0.31648272739793026353538607509108 1:22 2:25 3:382 4:175 5:123 6:204 #
-0.47718295647251807167776860296726 1:26 2:27 3:502 4:90 5:71 6:154 #
1 1:38 2:49 3:1362 4:141 5:126 6:194 #
1 1:34 2:47 3:1178 4:91 5:88 6:144 #
0.2526630881496316760603804141283 1:48 2:53 3:1880 4:114 5:101 6:168 #
-0.26621857729481535059790076047648 1:34 2:45 3:1222 4:24 5:35 6:100 #
-0.40200767870220444066831078089308 1:28 2:31 3:624 4:76 5:62 6:155 #
-0.0062437990761736728018149733543396 1:28 2:35 3:704 4:92 5:75 6:164 #
-0.4181719481257418213893117808766 1:28 2:33 3:664 4:111 5:95 6:177 #
-1 1:44 2:51 3:1652 4:79 5:68 6:145 #
1 1:28 2:39 3:800 4:143 5:110 6:203 #
0.46826436105688173938688123598695 1:42 2:45 3:1398 4:99 5:76 6:157 #
0.25328913031476929518248653039336 1:38 2:45 3:1250 4:100 5:91 6:182 #
-0.98102480695791216547263502434362 1:32 2:29 3:732 4:85 5:100 6:147 #
-2.723894174039287463529035449028e-05 1:28 2:29 3:584 4:77 5:59 6:137 #
-0.28071571726328103935088620346505 1:30 2:35 3:766 4:142 5:101 6:205 #
-0.14428816909093944431674572115298 1:46 2:51 3:1738 4:105 5:109 6:162 #
1 1:38 2:45 3:1250 4:86 5:79 6:140 #
-0.34601392478676251673874730840907 1:26 2:29 3:534 4:48 5:59 6:122 #
-0.014380269618300189904402941465378 1:28 2:33 3:656 4:89 5:83 6:139 #
-1 1:44 2:53 3:1708 4:209 5:204 6:226 #
1 1:18 2:27 3:350 4:61 5:57 6:153 #
-1 1:44 2:45 3:1472 4:137 5:96 6:204 #
1 1:34 2:35 3:866 4:136 5:98 6:187 #
0.30195503133000295425958370287844 1:32 2:33 3:764 4:148 5:110 6:204 #
1 1:30 2:41 3:902 4:45 5:41 6:148 #
0.032491483881087468432724563172087 1:54 2:59 3:2366 4:147 5:119 6:206 #
1 1:50 2:61 3:2270 4:202 5:162 6:213 #
-1 1:58 2:69 3:2970 4:111 5:120 6:176 #
1 1:38 2:45 3:1250 4:97 5:86 6:160 #
1 1:34 2:37 3:922 4:70 5:69 6:173 #
1 1:36 2:39 3:1020 4:130 5:99 6:188 #
1 1:28 2:39 3:788 4:108 5:82 6:171 #
0.72365531015726303198931645965786 1:44 2:49 3:1584 4:116 5:101 6:186 #
-0.55947647076667017529416625620797 1:28 2:33 3:664 4:202 5:118 6:166 #
0.053290285138533732833820977248251 1:44 2:47 3:1528 4:73 5:70 6:124 #
1 1:34 2:39 3:966 4:87 5:71 6:139 #
1 1:50 2:53 3:1970 4:103 5:82 6:161 #
0.49717534205423935533829649102699 1:28 2:29 3:584 4:36 5:52 6:173 #
1 1:89 2:107 3:7197 4:104 5:98 6:159 #
0.2282333617282290560979163274169 1:46 2:49 3:1654 4:144 5:117 6:209 #
1 1:44 2:59 3:1916 4:121 5:107 6:179 #
0.99863923881238747526367660611868 1:28 2:39 3:800 4:138 5:105 6:191 #
-0.48169597236388028704823227599263 1:48 2:55 3:1952 4:56 5:67 6:127 #
-0.61903593419219848925649785087444 1:40 2:47 3:1364 4:145 5:115 6:189 #
0.2523420491894707851088242023252 1:52 2:61 3:2336 4:135 5:118 6:190 #
-1 1:58 2:63 3:2726 4:130 5:111 6:188 #
-0.77681215541029757787327980622649 1:42 2:47 3:1450 4:55 5:74 6:126 #
1 1:34 2:41 3:1018 4:117 5:94 6:179 #
0.9695248089638255351019324734807 1:50 2:57 3:2102 4:75 5:66 6:165 #
-1 1:54 2:57 3:2298 4:56 5:51 6:135 #
-0.69876716195111754359459155239165 1:42 2:43 3:1330 4:141 5:106 6:200 #
0.97224429735889117409897153265774 1:38 2:43 3:1198 4:120 5:105 6:178 #
-0.43892087141319113818838104634779 1:32 2:35 3:812 4:143 5:118 6:189 #
-0.99497476055648803594522178173065 1:24 2:33 3:580 4:154 5:92 6:163 #
1 1:32 2:41 3:944 4:150 5:104 6:177 #
-1 1:52 2:57 3:2192 4:135 5:99 6:188 #
-0.58463361133144242653969513412449 1:32 2:45 3:1064 4:247 5:183 6:217 #
-0.0015955394355806618023052578791976 1:36 2:41 3:1068 4:92 5:87 6:177 #
-0.22348924320226007389500466615573 1:28 2:39 3:788 4:37 5:20 6:125 #
-0.18990012178506177065173687878996 1:34 2:41 3:1018 4:106 5:84 6:179 #
-0.50625230026776302238999960536603 1:30 2:31 3:678 4:137 5:105 6:205 #
0.042065374474617556188604794442654 1:50 2:53 3:1970 4:100 5:90 6:157 #
0.28990863051483461987345435773022 1:48 2:59 3:2084 4:129 5:118 6:187 #
1 1:36 2:37 3:972 4:96 5:92 6:154 #
-0.41106144042072889632777332735714 1:30 2:33 3:706 4:114 5:87 6:175 #
-0.48548555580749663818096450995654 1:44 2:45 3:1472 4:107 5:81 6:171 #
-1 1:52 2:59 3:2288 4:43 5:63 6:107 #
1 1:44 2:47 3:1528 4:86 5:75 6:136 #
-1 1:58 2:65 3:2810 4:84 5:97 6:150 #
-0.10568614458757963348034536466002 1:24 2:35 3:620 4:84 5:63 6:159 #
0.78685501550415448690500852535479 1:42 2:49 3:1518 4:119 5:107 6:178 #
-0.9817563381931695420945516161737 1:32 2:45 3:1064 4:41 5:29 6:129 #
1 1:32 2:37 3:856 4:106 5:80 6:169 #
1 1:38 2:43 3:1198 4:54 5:71 6:153 #
-0.47649854997543172885343665257096 1:34 2:35 3:866 4:102 5:84 6:167 #
0.99834289304709145085325872059911 1:92 2:101 3:7000 4:95 5:89 6:165 #
-1 1:30 2:35 3:758 4:202 5:128 6:183 #
-1 1:30 2:43 3:930 4:243 5:215 6:232 #
-0.99208660589218344849626873838133 1:16 2:25 3:292 4:132 5:98 6:189 #
0.86413386787597090687995660118759 1:46 2:51 3:1738 4:82 5:75 6:134 #
1 1:32 2:41 3:952 4:147 5:119 6:197 #
-1 1:32 2:41 3:944 4:115 5:97 6:171 #
-1 1:42 2:47 3:1450 4:137 5:106 6:201 #
-1 1:48 2:55 3:1952 4:137 5:108 6:201 #
-1 1:44 2:51 3:1644 4:69 5:80 6:150 #
0.53673944091186331917242569033988 1:44 2:47 3:1528 4:111 5:97 6:186 #
0.047624305412975513618345502209195 1:46 2:53 3:1790 4:108 5:104 6:180 #
1 1:50 2:51 3:1910 4:196 5:118 6:174 #
0.11353166923648672081981203518808 1:50 2:53 3:1970 4:120 5:88 6:169 #
-1 1:40 2:49 3:1436 4:149 5:99 6:171 #
-0.32997861981837750544599430213566 1:38 2:47 3:1350 4:89 5:92 6:158 #
1 1:34 2:41 3:1018 4:102 5:86 6:180 #
-0.14946938954798838494752999395132 1:36 2:37 3:972 4:96 5:89 6:151 #
0.81455228506599752780203971269657 1:34 2:39 3:966 4:105 5:82 6:168 #
-0.23694867720730616866831041988917 1:32 2:35 3:812 4:136 5:97 6:202 #
0.99719179100775956481328421432409 1:38 2:45 3:1250 4:81 5:71 6:158 #
-0.063840622230923280144843090511131 1:32 2:37 3:856 4:73 5:91 6:139 #
-0.2612399475500020162854752925341 1:40 2:47 3:1372 4:68 5:82 6:136 #
0.10934278004401676298584789037704 1:48 2:59 3:2092 4:133 5:114 6:179 #
-0.42482158100776873377313336277439 1:42 2:47 3:1450 4:105 5:80 6:171 #
1 1:36 2:37 3:972 4:91 5:92 6:151 #
1 1:40 2:41 3:1216 4:98 5:90 6:157 #
-0.99548632000154313459461263846606 1:36 2:37 3:972 4:243 5:197 6:225 #
-0.031629339006077124285543078485716 1:44 2:47 3:1528 4:32 5:27 6:117 #
0.97694523041856751177647311124019 1:40 2:43 3:1260 4:163 5:118 6:186 #
1 1:32 2:37 3:856 4:41 5:47 6:140 #
-0.28864408641084193796189083514037 1:28 2:29 3:584 4:86 5:60 6:145 #
-0.38513735726687059468531515449286 1:42 2:43 3:1330 4:108 5:85 6:174 #
-0.13103582893893417349318042397499 1:28 2:29 3:584 4:226 5:147 6:205 #
-1 1:49 2:57 3:2095 4:54 5:49 6:138 #
0.16881968007285941268946771742776 1:40 2:45 3:1324 4:94 5:72 6:163 #
-0.0037819190193992824333690805360675 1:36 2:41 3:1076 4:97 5:104 6:159 #
0.41022872865150739052353401348228 1:48 2:53 3:1880 4:118 5:98 6:168 #
0.031041366450970997448166599497199 1:52 2:61 3:2336 4:158 5:141 6:216 #
-1 1:42 2:49 3:1510 4:130 5:93 6:184 #
-0.08384092046250657404016237705946 1:46 2:53 3:1790 4:97 5:71 6:152 #
-0.4343001742933161324344837339595 1:36 2:41 3:1068 4:55 5:74 6:126 #
-0.5253332853889816078662988729775 1:28 2:29 3:584 4:125 5:88 6:190 #
-0.88070336670554749680661643651547 1:22 2:23 3:354 4:145 5:103 6:206 #
-0.57803423250441310354830193318776 1:46 2:59 3:2102 4:81 5:96 6:144 #
-1 1:30 2:35 3:758 4:45 5:25 6:151 #
0.098307881663226473478722766685678 1:54 2:63 3:2510 4:150 5:125 6:199 #
1 1:32 2:41 3:944 4:100 5:91 6:156 #
-1 1:36 2:43 3:1132 4:138 5:119 6:191 #
-0.10607218507065771517794416922698 1:38 2:45 3:1250 4:75 5:57 6:149 #
-0.51886729939700160230131587013602 1:28 2:29 3:584 4:103 5:83 6:159 #
-0.42493978445024183088207792025059 1:54 2:61 3:2442 4:76 5:84 6:145 #
-1 1:52 2:59 3:2280 4:73 5:83 6:155 #
0.25450738346498918973637159979262 1:54 2:59 3:2366 4:115 5:101 6:182 #
-1 1:28 2:33 3:664 4:120 5:105 6:180 #
-1 1:43 2:73 3:2503 4:109 5:120 6:168 #
1 1:40 2:47 3:1364 4:117 5:98 6:171 #
1 1:52 2:61 3:2344 4:141 5:130 6:187 #
-0.6366611587431547647497609432321 1:40 2:43 3:1260 4:131 5:98 6:187 #
1 1:34 2:47 3:1170 4:146 5:111 6:201 #
-0.95218120931773952975163410883397 1:44 2:49 3:1584 4:79 5:93 6:161 #
-1.8103011645842492782776389503852e-06 1:38 2:43 3:1190 4:44 5:46 6:124 #
-1 1:48 2:59 3:2084 4:43 5:41 6:120 #
-0.47400822056877300880728398624342 1:36 2:39 3:1020 4:178 5:143 6:222 #
-0.99309798511192326486707315780222 1:58 2:65 3:2794 4:66 5:63 6:144 #
-0.15361534090104100869211833924055 1:30 2:35 3:758 4:102 5:77 6:160 #
1 1:42 2:45 3:1398 4:85 5:69 6:135 #
-0.094454147266777782609992186735326 1:26 2:27 3:502 4:138 5:106 6:209 #
1 1:42 2:45 3:1398 4:87 5:85 6:147 #
0.029224784021508298792468849569559 1:48 2:59 3:2084 4:129 5:118 6:187 #
-0.67036733901591105677653104066849 1:34 2:43 3:1054 4:107 5:88 6:178 #
0.050720758686291667061141197336838 1:50 2:59 3:2194 4:145 5:112 6:193 #
1 1:30 2:43 3:946 4:73 5:69 6:125 #
-0.07704384900044858319745344488183 1:30 2:43 3:930 4:96 5:87 6:151 #
-1 1:60 2:67 3:2988 4:62 5:55 6:139 #
0.16174737374142469925608622816071 1:54 2:63 3:2542 4:122 5:105 6:178 #
1 1:40 2:43 3:1260 4:92 5:90 6:158 #
0.9676020389389883291642036056146 1:40 2:49 3:1436 4:90 5:80 6:147 #
0.68738095602623050517365754785715 1:90 2:107 3:7214 4:85 5:82 6:139 #
1 1:34 2:43 3:1054 4:108 5:89 6:175 #
-0.0070157798718346320310246255758102 1:36 2:37 3:972 4:71 5:76 6:136 #
-0.97232904758454408167267501994502 1:42 2:45 3:1398 4:233 5:159 6:209 #
0.66250877898117721542803337797523 1:54 2:57 3:2298 4:159 5:134 6:214 #
-0.99427492967701813775249775062548 1:47 2:81 3:3029 4:106 5:117 6:165 #
-0.77759092746653379890631185844541 1:54 2:61 3:2450 4:52 5:52 6:131 #
0.51427845526603110926089357235469 1:38 2:45 3:1250 4:100 5:91 6:182 #
-1 1:69 2:81 3:4235 4:71 5:77 6:145 #
1 1:66 2:81 3:3978 4:230 5:201 6:226 #
-1 1:48 2:49 3:1744 4:118 5:98 6:184 #
1 1:50 2:51 3:1910 4:81 5:77 6:133 #
0.22228565318164184017035722717992 1:42 2:45 3:1398 4:129 5:104 6:181 #
1 1:36 2:41 3:1068 4:77 5:72 6:129 #
0.460164908861196209066690698819 1:32 2:39 3:904 4:34 5:43 6:153 #
-0.61431035494673746910621048300527 1:40 2:47 3:1372 4:132 5:94 6:183 #
-0.1303428646216358566256587891985 1:32 2:39 3:904 4:101 5:119 6:176 #
-0.3625963313365900830831378698349 1:26 2:27 3:502 4:138 5:106 6:209 #
0.085376370667289536164901164738694 1:88 2:101 3:6692 4:83 5:84 6:155 #
-0.32252987604872629390229121781886 1:44 2:55 3:1788 4:47 5:42 6:117 #
-0.69954151419324261951260268688202 1:50 2:57 3:2102 4:59 5:56 6:138 #
1 1:36 2:37 3:972 4:80 5:64 6:129 #
0.10567267920279732607014011591673 1:40 2:47 3:1372 4:142 5:114 6:207 #
0.22090400756434291906771250069141 1:40 2:41 3:1216 4:107 5:87 6:168 #
-0.70027646600078718996940096985782 1:30 2:43 3:930 4:96 5:108 6:161 #
0.3159253670295190663530604524567 1:46 2:53 3:1790 4:128 5:108 6:189 #
0.010639330426132326268273686764587 1:52 2:55 3:2140 4:140 5:127 6:195 #
-0.18832189342960425904038856970146 1:16 2:25 3:292 4:132 5:98 6:189 #
0.065122344131002457556789408954501 1:46 2:47 3:1606 4:150 5:121 6:192 #
0.011787670101924972027029880905502 1:52 2:59 3:2288 4:109 5:88 6:171 #
-0.099588146845523611849770873050147 1:20 2:29 3:420 4:134 5:117 6:209 #
-0.027604101813358504491358047516769 1:28 2:31 3:624 4:131 5:98 6:209 #
-1.3689670927737734862361662635521e-06 1:28 2:31 3:624 4:143 5:110 6:209 #
0.0048841078658066871404086484176332 1:46 2:51 3:1738 4:180 5:154 6:218 #
-0.0011225546541108397113895023267105 1:40 2:43 3:1260 4:77 5:62 6:152 #
0.00029737730713463861320633441209793 1:56 2:59 3:2460 4:120 5:103 6:172 #
-0.0033564891139619135174143593758345 1:60 2:63 3:2828 4:50 5:69 6:113 #
