SVM-light Version V6.02
0 # kernel type
3 # kernel parameter -d 
1 # kernel parameter -g 
1 # kernel parameter -s 
1 # kernel parameter -r 
empty# kernel parameter -u 
6 # highest feature index 
1029 # number of training documents 
136 # number of support vectors plus 1 
4.333161 # threshold b, each following line is a SV (starting with alpha*y)
-1.0150213220100707811610618591658 1:86 2:101 3:6506 4:103 5:99 6:159 #
-0.52426320976665319317788771513733 1:42 2:45 3:1398 4:89 5:87 6:146 #
-0.9553981298824796297708417114336 1:46 2:57 3:1934 4:80 5:67 6:134 #
4.2317506461874021539415480219759 1:66 2:71 3:3514 4:98 5:88 6:153 #
-4.1277695520658195249552591121756 1:36 2:37 3:972 4:93 5:94 6:153 #
4.4857226942611045927833401947282 1:52 2:55 3:2140 4:67 5:56 6:144 #
-8.4776089142533379572341800667346 1:46 2:57 3:1934 4:80 5:67 6:134 #
-1.3574320476874697227742672112072 1:66 2:83 3:4078 4:85 5:77 6:144 #
-0.13802499758287495312814030512527 1:86 2:101 3:6506 4:103 5:99 6:159 #
9.9686829465692348151151236379519 1:46 2:47 3:1606 4:67 5:54 6:143 #
-0.59710132010973748784010695089819 1:84 2:91 3:5748 4:93 5:85 6:144 #
0.44432611872215960202581186422321 1:84 2:101 3:6368 4:101 5:96 6:153 #
0.27135610202700632953565218485892 1:48 2:55 3:1952 4:88 5:84 6:140 #
3.7929394444569802802291746957053e-06 1:97 2:107 3:8051 4:86 5:82 6:139 #
1.1031822668331585646228631958365 1:40 2:53 3:1572 4:72 5:72 6:133 #
0.098940146079688873204105448166956 1:92 2:99 3:6896 4:90 5:85 6:142 #
-0.024292552724153981813515201793052 1:46 2:47 3:1606 4:42 5:62 6:107 #
-0.41512491703521448016545036807656 1:46 2:61 3:2082 4:75 5:75 6:134 #
-0.2690039763224945090769324451685 1:50 2:53 3:1970 4:81 5:78 6:139 #
2.8638381826249670325523766223341 1:44 2:49 3:1584 4:86 5:81 6:138 #
-2.1325512156973047694918932393193 1:46 2:61 3:2082 4:75 5:75 6:134 #
-0.79015348448220246169171332439873 1:46 2:47 3:1606 4:67 5:54 6:143 #
-0.0050360008248020449173054657876492 1:56 2:59 3:2460 4:78 5:75 6:136 #
-0.20934755209822242250083945691586 1:48 2:51 3:1824 4:83 5:80 6:141 #
-1.6799754258915129412343958392739 1:74 2:89 3:4942 4:93 5:86 6:145 #
1.1814858691563632220322688226588 1:84 2:101 3:6368 4:101 5:96 6:153 #
-1.4015097951959702982094313483685 1:46 2:47 3:1606 4:67 5:54 6:143 #
-1.2577544747911524325445498107001 1:46 2:61 3:2082 4:75 5:75 6:134 #
4.7690754753293660428425937425345 1:48 2:55 3:1952 4:78 5:63 6:132 #
1.8113586852730469978212113346672 1:92 2:99 3:6896 4:90 5:85 6:142 #
0.4445668443050364571078603148635 1:46 2:47 3:1606 4:67 5:54 6:143 #
3.9583146742813823948381468653679 1:48 2:55 3:1952 4:88 5:84 6:140 #
-1.7311630366856718410417670384049 1:80 2:97 3:5792 4:91 5:86 6:144 #
-0.94850577739423513889960304368287 1:46 2:61 3:2082 4:75 5:75 6:134 #
-9.8830469281526038827223601401784 1:36 2:37 3:972 4:93 5:94 6:153 #
2.4455233218037704112646224530181 1:24 2:35 3:620 4:83 5:68 6:142 #
-0.94406793247825948611762214568444 1:46 2:57 3:1934 4:80 5:67 6:134 #
-2.1722518954321259343487326987088 1:50 2:53 3:1970 4:81 5:78 6:139 #
2.1295489665795575007223305874504 1:50 2:57 3:2102 4:86 5:80 6:138 #
10 1:46 2:47 3:1606 4:67 5:54 6:143 #
-1.1379241817750980203527433332056 1:38 2:43 3:1190 4:90 5:90 6:148 #
9.7017649587830447899250430054963 1:30 2:35 3:758 4:93 5:96 6:154 #
-2.3521199451314274142532667610794 1:52 2:65 3:2496 4:81 5:68 6:134 #
-0.23863784720877673217742653832829 1:82 2:99 3:6110 4:102 5:97 6:159 #
-1.8593917949833667080383747816086 1:42 2:45 3:1398 4:89 5:87 6:146 #
4.5499326071043242336600087583065 1:50 2:57 3:2102 4:86 5:80 6:138 #
4.8472784418713672494050115346909 1:52 2:55 3:2140 4:67 5:56 6:144 #
-10 1:28 2:33 3:656 4:80 5:68 6:134 #
0.0059525797039807759603036174667068 1:92 2:105 3:7396 4:87 5:83 6:140 #
0.61360375560333368927246056045988 1:40 2:53 3:1572 4:72 5:72 6:133 #
-0.16565501969442786300845682490035 1:46 2:47 3:1606 4:67 5:54 6:143 #
10 1:52 2:55 3:2140 4:44 5:64 6:109 #
0.91632048377231756219885028258432 1:92 2:105 3:7396 4:87 5:83 6:140 #
-0.070628885808117658484661660622805 1:46 2:47 3:1606 4:67 5:54 6:143 #
-1.7056802292643513663250587342191 1:46 2:57 3:1934 4:80 5:67 6:134 #
-0.16181979054891826308448798954487 1:46 2:47 3:1606 4:67 5:54 6:143 #
1.3249463586687431071453602271504 1:52 2:55 3:2140 4:67 5:56 6:144 #
-0.25607741779804626958139124326408 1:46 2:57 3:1934 4:80 5:67 6:134 #
9.69561519726197218460583826527 1:52 2:55 3:2140 4:67 5:56 6:144 #
10 1:48 2:55 3:1952 4:78 5:63 6:132 #
5.5933748349591887460974248824641 1:24 2:35 3:620 4:83 5:68 6:142 #
-0.21218830037373592745097994338721 1:86 2:101 3:6506 4:103 5:99 6:159 #
-1.63204692945006613058467337396 1:92 2:105 3:7396 4:87 5:83 6:140 #
-0.19646872890516986487341455358546 1:86 2:101 3:6506 4:103 5:99 6:159 #
-0.8536025986156516864866716787219 1:46 2:57 3:1934 4:80 5:67 6:134 #
-0.058503437140963399087922880426049 1:52 2:55 3:2140 4:67 5:56 6:144 #
0.087021524932538341090548783540726 1:40 2:53 3:1572 4:72 5:72 6:133 #
0.62155080085933889222360448911786 1:40 2:53 3:1572 4:72 5:72 6:133 #
-2.9891739983253042822752831852995 1:46 2:61 3:2082 4:75 5:75 6:134 #
-0.3687422073273971534490556223318 1:86 2:101 3:6506 4:103 5:99 6:159 #
1.8804843112015876549492077174364 1:30 2:35 3:758 4:93 5:96 6:154 #
-0.059083163517605674641686164250132 1:86 2:101 3:6506 4:103 5:99 6:159 #
0.012731204140461416240981407099753 1:92 2:105 3:7396 4:87 5:83 6:140 #
-2.1898390578100190850818762555718 1:46 2:57 3:1934 4:80 5:67 6:134 #
-9.999601872581997952238452853635 1:52 2:55 3:2140 4:67 5:56 6:144 #
0.34903472103897215106371731963009 1:46 2:47 3:1606 4:67 5:54 6:143 #
0.51328598158609006762986837202334 1:92 2:99 3:6896 4:90 5:85 6:142 #
-0.40257344603696587626018299488351 1:46 2:47 3:1606 4:67 5:54 6:143 #
0.13864261179781753319240067412466 1:46 2:47 3:1606 4:67 5:54 6:143 #
-0.12598455473006286986503710068064 1:97 2:107 3:8051 4:86 5:82 6:139 #
0.40696335706732611470215488225222 1:48 2:55 3:1952 4:78 5:63 6:132 #
-0.89111590242831695274361436531763 1:46 2:47 3:1606 4:42 5:62 6:107 #
0.013241882121998452964684034327547 1:92 2:99 3:6896 4:90 5:85 6:142 #
-0.33015101094732157704925157304388 1:86 2:101 3:6506 4:103 5:99 6:159 #
0.28306132021157637268515827599913 1:92 2:105 3:7396 4:87 5:83 6:140 #
0.18040683619408071081124944612384 1:46 2:47 3:1606 4:67 5:54 6:143 #
0.11967634608555033359778008161811 1:46 2:47 3:1606 4:67 5:54 6:143 #
-3.7115577339977758875022573192837 1:46 2:47 3:1606 4:67 5:54 6:143 #
-0.75749397761091097347474487833097 1:52 2:55 3:2140 4:67 5:56 6:144 #
-0.091083858113793603195063042221591 1:52 2:55 3:2140 4:67 5:56 6:144 #
0.015944931930623778421063363452959 1:72 2:89 3:4804 4:117 5:117 6:179 #
-0.20736676946752230499271263397532 1:46 2:47 3:1606 4:67 5:54 6:143 #
0.030691541348896619195718571404541 1:86 2:97 3:6270 4:92 5:86 6:144 #
-0.12685884547565517976863702642731 1:46 2:47 3:1606 4:67 5:54 6:143 #
-1.8776226133028899312193971127272 1:52 2:55 3:2140 4:67 5:56 6:144 #
-10 1:46 2:47 3:1606 4:67 5:54 6:143 #
0.016468037994059159245807677507401 1:38 2:47 3:1318 4:84 5:69 6:147 #
-0.90703420628174669104737404268235 1:46 2:47 3:1606 4:67 5:54 6:143 #
2.9514364446256919904953974764794 1:40 2:53 3:1572 4:72 5:72 6:133 #
-3.3864391348530205050337826833129 1:46 2:47 3:1606 4:67 5:54 6:143 #
-0.0031261556192752337768325787692447 1:82 2:99 3:6110 4:102 5:97 6:159 #
0.85964439071052112240067799575627 1:46 2:47 3:1606 4:67 5:54 6:143 #
-1.881846482064137404677239828743 1:46 2:47 3:1606 4:42 5:62 6:107 #
-6.1863176756271620604366034967825e-07 1:46 2:47 3:1606 4:67 5:54 6:143 #
0.3626253655030371447764991899021 1:46 2:47 3:1606 4:67 5:54 6:143 #
-0.0041439808079877238355948065873235 1:86 2:101 3:6506 4:103 5:99 6:159 #
-9.8807489872701967925650023971684 1:46 2:47 3:1606 4:67 5:54 6:143 #
10 1:46 2:47 3:1606 4:67 5:54 6:143 #
-0.15979204706878036290618183556944 1:46 2:57 3:1934 4:80 5:67 6:134 #
-0.64522675856642308644950389862061 1:46 2:47 3:1606 4:67 5:54 6:143 #
-0.034699443045042244193609803915024 1:46 2:47 3:1606 4:67 5:54 6:143 #
-0.7047548432457928502259392189444 1:46 2:61 3:2082 4:75 5:75 6:134 #
-0.0019743082783203746988220927960356 1:46 2:57 3:1934 4:80 5:67 6:134 #
-0.031501937118260769921107566915452 1:42 2:45 3:1398 4:89 5:87 6:146 #
-0.3570196899434154857999601517804 1:36 2:41 3:1068 4:87 5:77 6:143 #
0.61446855044575343640644859988242 1:52 2:55 3:2140 4:67 5:56 6:144 #
4.2077464481713446886601559526753 1:34 2:39 3:966 4:41 5:61 6:106 #
0.17069064863794025654897268395871 1:52 2:55 3:2140 4:67 5:56 6:144 #
1.5482260026363459104459252557717 1:34 2:39 3:966 4:88 5:84 6:139 #
-9.894040112519597585105657344684 1:46 2:47 3:1606 4:42 5:62 6:107 #
0.07060155520454512723116380357169 1:26 2:29 3:534 4:42 5:66 6:167 #
0.011030726966502868435782147571445 1:72 2:89 3:4804 4:117 5:117 6:179 #
0.0072529769856947996081730778428209 1:46 2:51 3:1738 4:82 5:79 6:140 #
0.033075322354208555597487873001228 1:72 2:89 3:4804 4:117 5:117 6:179 #
-7.9032636687534005281996485337004e-05 1:86 2:101 3:6506 4:103 5:99 6:159 #
-8.9595898427268707564508076757193 1:46 2:47 3:1606 4:67 5:54 6:143 #
-0.069001143698532274584067636169493 1:46 2:57 3:1934 4:80 5:67 6:134 #
-0.00091706588668882815795768692623824 1:46 2:47 3:1606 4:67 5:54 6:143 #
0.040820124307664906737613819132093 1:28 2:33 3:656 4:88 5:84 6:139 #
-0.035631338220762920343531732214615 1:66 2:83 3:4078 4:85 5:77 6:144 #
0.016108920022645634162472561001778 1:40 2:47 3:1364 4:90 5:87 6:143 #
5.1348359498454981819648423879698e-05 1:97 2:107 3:8051 4:86 5:82 6:139 #
0.014273770315730072155702146119438 1:52 2:55 3:2140 4:67 5:56 6:144 #
0.009241712245511735090985894203186 1:38 2:47 3:1318 4:84 5:69 6:147 #
3.8714854079944702701376879616646e-08 1:40 2:53 3:1572 4:72 5:72 6:133 #
