SVM-light Version V6.02
0 # kernel type
3 # kernel parameter -d 
1 # kernel parameter -g 
1 # kernel parameter -s 
1 # kernel parameter -r 
empty# kernel parameter -u 
6 # highest feature index 
325 # number of training documents 
181 # number of support vectors plus 1 
-27.140365 # threshold b, each following line is a SV (starting with alpha*y)
-0.25580268943747341836569830775261 1:48 2:49 3:1744 4:118 5:98 6:184 #
0.29562874826788743121142033487558 1:64 2:73 3:3468 4:58 5:56 6:152 #
2.4350295749707751014057066640817 1:34 2:47 3:1170 4:134 5:105 6:186 #
4.1534938882344931698753498494625 1:26 2:29 3:534 4:103 5:86 6:159 #
-6.4256079198703721644392317102756 1:28 2:33 3:664 4:202 5:118 6:166 #
-1.0587374728017540093105708365329 1:26 2:27 3:502 4:138 5:106 6:209 #
1.1102990972020947424425685312599 1:38 2:49 3:1362 4:141 5:126 6:194 #
-0.028086629112026528787282586563379 1:16 2:27 3:312 4:246 5:234 6:239 #
-0.14319594006868727187331558070582 1:46 2:57 3:1926 4:244 5:243 6:249 #
-0.66309700607969856989143409009557 1:38 2:45 3:1250 4:75 5:57 6:149 #
1.7736804360476412512070965021849 1:56 2:63 3:2620 4:96 5:88 6:154 #
-0.85072903671448329987470060586929 1:36 2:49 3:1296 4:125 5:97 6:182 #
10 1:34 2:41 3:1018 4:205 5:126 6:172 #
-0.18149961539892256467965125921182 1:32 2:37 3:856 4:73 5:91 6:139 #
-6.0497347595874373382685007527471 1:42 2:49 3:1518 4:206 5:144 6:199 #
-0.38433655256090126783874438842759 1:28 2:31 3:624 4:76 5:62 6:155 #
-0.043820650877767916564486938568734 1:24 2:35 3:620 4:147 5:97 6:168 #
-1.5832405830725551076909596304176 1:42 2:43 3:1330 4:108 5:85 6:174 #
8.2430823553836258810179060674272 1:40 2:43 3:1260 4:124 5:94 6:174 #
3.2388299325521829885587976605166 1:34 2:41 3:1018 4:102 5:86 6:180 #
3.7880647955482475985888868308393 1:36 2:37 3:972 4:91 5:92 6:151 #
0.83034346674060133253192361735273 1:32 2:39 3:904 4:92 5:92 6:153 #
0.27251695286739552326338298371411 1:50 2:61 3:2270 4:202 5:162 6:213 #
-0.17217461165985525894939200952649 1:38 2:43 3:1190 4:234 5:240 6:247 #
-0.61608016691768163752840337110683 1:30 2:35 3:758 4:45 5:25 6:151 #
-5.7265531031846208520619256887585 1:36 2:37 3:972 4:71 5:76 6:136 #
-4.5835769839683662141283093660604 1:86 2:105 3:6746 4:97 5:94 6:160 #
-0.24152528740980372390367847401649 1:28 2:33 3:656 4:89 5:83 6:139 #
-2.4614800708113762084394693374634 1:28 2:31 3:624 4:127 5:97 6:187 #
-0.20746769521204233566180619163788 1:44 2:49 3:1584 4:79 5:93 6:161 #
0.59680117502284701913595199584961 1:42 2:45 3:1398 4:129 5:104 6:181 #
2.6629838188349341798755176569102 1:92 2:107 3:7388 4:105 5:100 6:166 #
-0.0093244369227334367167259188136086 1:47 2:81 3:3029 4:106 5:117 6:165 #
-1.9004512271957594293780857697129 1:38 2:45 3:1250 4:99 5:76 6:151 #
-0.10246962657913161187650530337123 1:26 2:27 3:502 4:138 5:106 6:209 #
-0.81618217854534957922396642970853 1:60 2:67 3:2988 4:62 5:55 6:139 #
-0.42605571170201983477454632520676 1:60 2:71 3:3172 4:184 5:191 6:237 #
0.84733212311394856541824083251413 1:40 2:47 3:1364 4:117 5:98 6:171 #
-0.93117418461536782814391699503176 1:28 2:33 3:656 4:56 5:74 6:126 #
1.4866139285419537330312778067309 1:34 2:37 3:922 4:108 5:83 6:171 #
-0.47249162178914616561087314039469 1:30 2:43 3:930 4:96 5:87 6:151 #
1.485218519849286877843042020686 1:32 2:35 3:812 4:107 5:100 6:164 #
-1.0831958738358882232688529256848 1:24 2:35 3:620 4:84 5:63 6:159 #
-0.44906411902595166907303791958839 1:54 2:57 3:2298 4:56 5:51 6:135 #
-0.10716268444823207062199799111113 1:43 2:73 3:2503 4:227 5:233 6:245 #
1.0433169768275600830520488671027 1:32 2:41 3:952 4:147 5:119 6:197 #
-1.193256778605777501667262185947 1:70 2:79 3:4146 4:62 5:74 6:132 #
-0.13626630374090223374317076832085 1:36 2:37 3:972 4:243 5:197 6:225 #
-0.095957026181231697137263836339116 1:30 2:43 3:930 4:96 5:108 6:161 #
-0.20989111513800651209749048575759 1:44 2:55 3:1788 4:47 5:42 6:117 #
0.0048623306328252624552987981587648 1:34 2:47 3:1170 4:146 5:111 6:201 #
-0.79894409333593419120234102592804 1:50 2:57 3:2110 4:243 5:242 6:248 #
-0.74831047461881894378166180104017 1:42 2:43 3:1330 4:141 5:106 6:200 #
-1.6384015309174628782784566283226 1:26 2:29 3:534 4:48 5:59 6:122 #
-0.072798492955143956351093947887421 1:46 2:59 3:2102 4:81 5:96 6:144 #
-0.038170437672511575710743159106642 1:44 2:51 3:1644 4:69 5:80 6:150 #
1.0147943540399637640803121030331 1:32 2:45 3:1064 4:86 5:72 6:138 #
-0.22735629089322628715308383107185 1:42 2:47 3:1450 4:105 5:80 6:171 #
-1.0698320650813002430368214845657 1:28 2:35 3:704 4:92 5:75 6:164 #
-0.10521303343889343295813887380064 1:44 2:53 3:1848 4:51 5:48 6:128 #
-0.042217545549881663191627012565732 1:40 2:47 3:1372 4:133 5:110 6:180 #
-0.080293618472147443299036240205169 1:22 2:23 3:354 4:145 5:103 6:206 #
-0.41393809337307629903079941868782 1:40 2:47 3:1364 4:145 5:115 6:189 #
0.77053035396707159065954328980297 1:38 2:45 3:1250 4:104 5:89 6:160 #
4.1432926341184384000371210277081 1:32 2:41 3:944 4:100 5:91 6:156 #
0.90940188120389819914635154418647 1:44 2:45 3:1472 4:171 5:107 6:170 #
-0.24840763962400297382160374581872 1:58 2:65 3:2794 4:66 5:63 6:144 #
-0.0053784058447448046536010224372149 1:40 2:47 3:1372 4:68 5:82 6:136 #
-0.22802937691642455320106819272041 1:38 2:43 3:1198 4:91 5:73 6:171 #
-0.22026483359765780534189616446383 1:36 2:41 3:1076 4:97 5:104 6:159 #
5.7904859670685064898520977294538 1:34 2:43 3:1054 4:108 5:89 6:175 #
-0.014193306187531956261138610386752 1:30 2:35 3:758 4:102 5:77 6:160 #
-0.72890512092503156882372650215984 1:28 2:39 3:788 4:37 5:20 6:125 #
-1.9502004037273334979829542135121 1:26 2:29 3:534 4:71 5:85 6:149 #
-0.5619775146254255560052115470171 1:38 2:43 3:1190 4:44 5:46 6:124 #
0.12590348100261938846244902379112 1:86 2:105 3:6794 4:94 5:88 6:150 #
-0.28560854700224957980481121921912 1:48 2:59 3:2084 4:43 5:41 6:120 #
-1.4409564050503558263471859390847 1:60 2:63 3:2828 4:50 5:69 6:113 #
1.3026531529406355502942460589111 1:34 2:41 3:1018 4:133 5:95 6:185 #
-0.76674736897229234244832696276717 1:66 2:77 3:3790 4:154 5:138 6:207 #
-0.057513519239616783806923194788396 1:32 2:37 3:856 4:149 5:97 6:169 #
-0.556504250542900535947410389781 1:34 2:37 3:922 4:109 5:87 6:175 #
5.4537319526634391309016791637987 1:46 2:51 3:1738 4:180 5:154 6:218 #
1.0623812232774447750216495478526 1:74 2:83 3:4622 4:148 5:119 6:190 #
0.2783281456891562033462150793639 1:92 2:101 3:7000 4:95 5:89 6:165 #
-0.46507414360024768029688857495785 1:48 2:55 3:1952 4:137 5:108 6:201 #
0.1265399336804016172663978068158 1:28 2:39 3:800 4:138 5:105 6:191 #
-0.57380621538192455588500706653576 1:28 2:31 3:624 4:143 5:110 6:209 #
-0.084304406714732202376971770263481 1:40 2:47 3:1372 4:34 5:26 6:120 #
1.1088598419735120614859624765813 1:38 2:47 3:1310 4:124 5:105 6:179 #
10 1:34 2:39 3:966 4:87 5:71 6:139 #
-0.76870113215318269794806838035583 1:44 2:45 3:1472 4:107 5:81 6:171 #
2.2169402085264664492569863796234 1:32 2:39 3:904 4:85 5:74 6:166 #
-0.19198115875622612236384156858549 1:42 2:43 3:1330 4:224 5:227 6:242 #
-0.24122754997428041967566514358623 1:36 2:41 3:1068 4:234 5:235 6:244 #
-5.3230840240350119074719259515405 1:30 2:35 3:758 4:202 5:128 6:183 #
-1.4270830666490708082960736646783e-07 1:36 2:41 3:1076 4:33 5:23 6:126 #
0.61463492530916141731722746044397 1:34 2:41 3:1018 4:97 5:93 6:159 #
1.8592987744243902881180474651046 1:89 2:107 3:7197 4:104 5:98 6:159 #
-0.51413573734560247263658538940945 1:42 2:49 3:1518 4:242 5:246 6:250 #
-1.4828643192734460853898781351745 1:32 2:41 3:944 4:108 5:92 6:180 #
-0.028880986531056862531841034069657 1:34 2:45 3:1222 4:24 5:35 6:100 #
0.87796002755479485291090213650023 1:38 2:43 3:1198 4:103 5:79 6:153 #
-0.1408751365536318189697340130806 1:36 2:41 3:1076 4:92 5:87 6:177 #
1.6189838920378178954706527292728 1:36 2:37 3:972 4:96 5:80 6:155 #
-0.18814879295424030702932327585586 1:52 2:59 3:2288 4:45 5:65 6:109 #
-0.065982127690822345300603046780452 1:34 2:41 3:1018 4:106 5:84 6:179 #
-0.0032670586883938312894315458834171 1:28 2:29 3:584 4:86 5:60 6:145 #
-0.61470019370127815250270941760391 1:28 2:29 3:584 4:110 5:85 6:170 #
-0.19836031902737971677197492681444 1:46 2:51 3:1738 4:105 5:109 6:162 #
-0.32254475910075536271293117351888 1:50 2:55 3:2038 4:62 5:50 6:140 #
-0.096834153964664437808096408843994 1:52 2:59 3:2280 4:73 5:83 6:155 #
-1.5068987531994899597975745564327 1:30 2:43 3:930 4:243 5:215 6:232 #
-0.025479595443076874516918906010687 1:42 2:51 3:1566 4:226 5:233 6:244 #
-0.1717673519224642009195491709761 1:44 2:47 3:1528 4:32 5:27 6:117 #
-0.47978125236938140574238786939532 1:22 2:25 3:382 4:175 5:123 6:204 #
-0.15010279423373873441960313357413 1:36 2:37 3:972 4:96 5:89 6:151 #
-0.0026890750700800936101586557924747 1:28 2:29 3:584 4:125 5:88 6:190 #
-0.42611752546138248476381704676896 1:42 2:47 3:1450 4:137 5:106 6:201 #
1.059134154544268735520518021076 1:28 2:39 3:788 4:108 5:82 6:171 #
-1.7774360101004909040511847706512 1:24 2:25 3:416 4:33 5:10 6:135 #
0.0029398179198949492274550721049309 1:58 2:71 3:3062 4:102 5:87 6:155 #
-0.42554621280083892997936345636845 1:24 2:25 3:416 4:192 5:119 6:186 #
-1.9991836725210809788677579490468 1:32 2:37 3:856 4:111 5:88 6:175 #
-0.20517284542621894161129603162408 1:42 2:49 3:1518 4:52 5:50 6:122 #
-0.11095528799131383623777225011509 1:54 2:61 3:2442 4:76 5:84 6:145 #
-0.07932600391362143454898614436388 1:30 2:37 3:790 4:34 5:26 6:118 #
0.31546274373094718157517490908504 1:40 2:41 3:1216 4:225 5:153 6:204 #
-0.034346943949941532991942949593067 1:38 2:47 3:1310 4:243 5:242 6:247 #
-1.1232084817342868898748520223307 1:52 2:57 3:2192 4:135 5:99 6:188 #
-0.068125929758092951260550762526691 1:30 2:35 3:766 4:142 5:101 6:205 #
9.6692763439790070378876407630742 1:32 2:35 3:812 4:107 5:100 6:164 #
-0.28205496395202089843223802745342 1:69 2:81 3:4235 4:71 5:77 6:145 #
-0.36419027734358899728306369070197 1:16 2:25 3:292 4:132 5:98 6:189 #
-0.029274709235813212160337570821866 1:38 2:45 3:1250 4:122 5:88 6:184 #
-0.058521929411568862633430399000645 1:50 2:57 3:2102 4:59 5:56 6:138 #
-0.4349331964732587318955836508394 1:34 2:35 3:866 4:246 5:250 6:251 #
-0.28129699727173296253113221609965 1:38 2:45 3:1250 4:140 5:110 6:203 #
-0.25820565380820426071295514702797 1:32 2:29 3:732 4:85 5:100 6:147 #
-0.012810501642774418940007308265194 1:40 2:47 3:1372 4:112 5:126 6:179 #
-0.17210142598907718358702823024942 1:52 2:59 3:2280 4:174 5:180 6:225 #
-0.25874275937861312968379934318364 1:46 2:49 3:1654 4:201 5:202 6:243 #
-0.077605857999211824704843820654787 1:24 2:33 3:580 4:154 5:92 6:163 #
0.12085556236725736312109802383929 1:40 2:43 3:1260 4:163 5:118 6:186 #
-0.29546067244912421756453113630414 1:32 2:39 3:904 4:101 5:119 6:176 #
-0.51940087919469712929299021197949 1:40 2:41 3:1216 4:133 5:100 6:210 #
-6.2359397689145339427341241389513 1:34 2:41 3:1018 4:60 5:77 6:137 #
-2.3626945663339071757036435883492 1:46 2:53 3:1790 4:97 5:71 6:152 #
-10 1:40 2:47 3:1372 4:132 5:94 6:183 #
-0.73112144512228227632988364348421 1:36 2:41 3:1068 4:55 5:74 6:126 #
-0.08931407452143957925727590918541 1:54 2:61 3:2450 4:52 5:52 6:131 #
-0.047336300785428164772383752278984 1:64 2:71 3:3396 4:68 5:78 6:138 #
-0.029962697041716390700116789957974 1:40 2:43 3:1260 4:206 5:218 6:245 #
-0.042629068791664836979293795593549 1:56 2:63 3:2620 4:163 5:170 6:224 #
-0.29655367464277126998695166548714 1:44 2:51 3:1652 4:79 5:68 6:145 #
-0.038874787807458233146462589502335 1:44 2:49 3:1584 4:239 5:243 6:248 #
0.33007615666285161637460987549275 1:88 2:101 3:6676 4:92 5:89 6:146 #
-0.17783493355920698686389869180857 1:36 2:37 3:972 4:97 5:73 6:156 #
-0.61460815778295829758803847653326 1:28 2:33 3:664 4:120 5:105 6:180 #
0.19648653437954255451813878607936 1:30 2:41 3:902 4:125 5:107 6:185 #
-0.27041589785764230668974050786346 1:16 2:27 3:312 4:151 5:89 6:161 #
-0.0010365499864697369503119261935353 1:44 2:53 3:1708 4:46 5:61 6:108 #
-0.072617781299098488334564649449021 1:54 2:63 3:2510 4:175 5:183 6:234 #
0.90064124553669122619226072856691 1:40 2:47 3:1372 4:142 5:114 6:207 #
-0.029664002547853840496827615424991 1:44 2:57 3:1852 4:229 5:229 6:241 #
-0.021451872561513929404952705226606 1:30 2:31 3:678 4:137 5:105 6:205 #
0.075600879525263842140248016221449 1:38 2:41 3:1142 4:181 5:136 6:204 #
-0.18831952309215438390310737304389 1:52 2:59 3:2288 4:43 5:63 6:107 #
0.029060789857152768966841449582716 1:34 2:35 3:866 4:136 5:98 6:187 #
-0.072580096105639313464052975177765 1:38 2:43 3:1198 4:241 5:229 6:243 #
-0.15322737117708737364374371736631 1:68 2:71 3:3648 4:181 5:193 6:238 #
0.18004796649568011179809445820865 1:58 2:73 3:3154 4:212 5:141 6:185 #
0.058560117003219128162250228797348 1:96 2:101 3:7364 4:108 5:102 6:158 #
-0.014564511747792607820883858948946 1:56 2:56 3:2478 4:223 5:223 6:241 #
-0.2958563385772094989079050719738 1:43 2:73 3:2503 4:109 5:120 6:168 #
-0.0072422466650436945201363414525986 1:62 2:79 3:3670 4:167 5:172 6:222 #
-0.1017632071865364196128211915493 1:23 2:35 3:609 4:42 5:50 6:116 #
0.052909747941982110397418637148803 1:50 2:57 3:2110 4:193 5:125 6:181 #
0.20727021947654300504382263170555 1:90 2:103 3:6962 4:91 5:87 6:143 #
-0.00017032559324903218112012837082148 1:28 2:33 3:664 4:246 5:249 6:251 #
