SVM-light Version V6.02
0 # kernel type
3 # kernel parameter -d 
1 # kernel parameter -g 
1 # kernel parameter -s 
1 # kernel parameter -r 
empty# kernel parameter -u 
6 # highest feature index 
325 # number of training documents 
204 # number of support vectors plus 1 
-2.6398245 # threshold b, each following line is a SV (starting with alpha*y)
-0.45892676518889174985815770924091 1:49 2:57 3:2095 4:54 5:49 6:138 #
-1.2938711869424710521059296297608 1:48 2:55 3:1952 4:137 5:108 6:201 #
-1.3257766118556446599541231989861 1:28 2:29 3:584 4:86 5:60 6:145 #
-0.62607570007001811518421163782477 1:44 2:45 3:1472 4:107 5:81 6:171 #
0.87280390690345055482168845628621 1:38 2:45 3:1250 4:105 5:84 6:174 #
-3.0372736437256619979052629787475 1:44 2:53 3:1708 4:46 5:61 6:108 #
-5 1:86 2:105 3:6746 4:97 5:94 6:160 #
5 1:40 2:41 3:1216 4:225 5:153 6:204 #
-0.76520626677722702879691496491432 1:48 2:55 3:1952 4:56 5:67 6:127 #
-1.9808975965145805275824386626482 1:60 2:67 3:2988 4:62 5:55 6:139 #
-4.4458410817824756122718099504709 1:34 2:43 3:1054 4:107 5:88 6:178 #
-0.63185082775992640335971373133361 1:44 2:55 3:1788 4:47 5:42 6:117 #
0.78419022634834334439801750704646 1:38 2:49 3:1362 4:141 5:126 6:194 #
-0.31585190968588250370885361917317 1:44 2:49 3:1584 4:79 5:93 6:161 #
1.2734684856692410903633572161198 1:44 2:59 3:1916 4:121 5:107 6:179 #
4.4299691353521666314918547868729 1:36 2:37 3:972 4:96 5:92 6:154 #
0.21012144908344743132744270042167 1:28 2:39 3:788 4:108 5:82 6:171 #
-2.6421041223661303476433204195928 1:24 2:25 3:416 4:33 5:10 6:135 #
3.6932209913873297324471423053183 1:50 2:51 3:1910 4:81 5:77 6:133 #
-0.0055891558232615962120704011795169 1:16 2:25 3:292 4:132 5:98 6:189 #
-0.48674656026895490867900662124157 1:40 2:47 3:1372 4:68 5:82 6:136 #
-0.41449130546637330541059895949729 1:16 2:25 3:292 4:132 5:98 6:189 #
3.0956713596413862887857249006629 1:32 2:45 3:1064 4:86 5:72 6:138 #
-1.3191799061190749853267334401608 1:36 2:43 3:1132 4:138 5:119 6:191 #
0.48788541103594124104247953255253 1:42 2:49 3:1518 4:119 5:107 6:178 #
-0.12124014180993791800489134402596 1:28 2:33 3:656 4:89 5:83 6:139 #
3.9192514945276286653097486123443 1:34 2:47 3:1178 4:91 5:88 6:144 #
1.6933868642199725318420178155066 1:52 2:61 3:2344 4:141 5:130 6:187 #
1.7917085077576615503858192823827 1:28 2:39 3:788 4:108 5:82 6:171 #
5 1:32 2:37 3:856 4:106 5:80 6:169 #
0.062098095822245236163894333003554 1:66 2:81 3:3978 4:230 5:201 6:226 #
-1.4291800307997348795652214903384 1:28 2:33 3:664 4:111 5:95 6:177 #
-5 1:44 2:51 3:1652 4:79 5:68 6:145 #
-1.5198264031845258870134784956463 1:28 2:29 3:584 4:125 5:88 6:190 #
0.43044839605333251597585331182927 1:42 2:45 3:1398 4:99 5:76 6:157 #
0.52029144818135364403133280575275 1:32 2:41 3:952 4:147 5:119 6:197 #
0.57902846863656520781660219654441 1:40 2:43 3:1260 4:92 5:90 6:158 #
-0.2161916490708435389933583792299 1:40 2:43 3:1260 4:77 5:62 6:152 #
-0.44588180157295820293938959366642 1:30 2:35 3:766 4:142 5:101 6:205 #
-0.35018490683149394726569880731404 1:46 2:51 3:1738 4:105 5:109 6:162 #
0.0064031269381619182468057260848582 1:38 2:45 3:1250 4:100 5:91 6:182 #
0.97102583848081280848418828099966 1:52 2:61 3:2336 4:158 5:141 6:216 #
-1.737494054972735568753705592826 1:26 2:29 3:534 4:87 5:81 6:141 #
4.9137091581640923720897262683138 1:89 2:107 3:7197 4:104 5:98 6:159 #
5 1:18 2:27 3:350 4:61 5:57 6:153 #
0.13232990220149076776579022407532 1:32 2:39 3:904 4:34 5:43 6:153 #
-0.65525282959799824311630800366402 1:54 2:57 3:2298 4:56 5:51 6:135 #
-2.2091065152438744689789018593729 1:32 2:29 3:732 4:85 5:100 6:147 #
-0.38961986437761098045484686736017 1:50 2:57 3:2102 4:59 5:56 6:138 #
-2.9592553577860107871799755230313 1:22 2:23 3:354 4:145 5:103 6:206 #
5 1:30 2:41 3:902 4:45 5:41 6:148 #
0.13532716719872439625760307535529 1:54 2:63 3:2510 4:150 5:125 6:199 #
-5 1:42 2:47 3:1450 4:137 5:106 6:201 #
2.3302799808156384742119371367153 1:50 2:53 3:1970 4:103 5:82 6:161 #
0.61314588656736646044009830802679 1:34 2:39 3:966 4:105 5:82 6:168 #
-0.86568481813283115755552898917813 1:32 2:35 3:812 4:143 5:118 6:189 #
1.7125579960975514381971152033657 1:44 2:49 3:1584 4:116 5:101 6:186 #
0.0093148021502500455426343251019716 1:48 2:59 3:2092 4:133 5:114 6:179 #
-0.7581367803195142585082066943869 1:58 2:63 3:2726 4:130 5:111 6:188 #
0.43957294395421797617018455639482 1:52 2:61 3:2336 4:135 5:118 6:190 #
-0.0029068655411347704697888616465207 1:22 2:25 3:382 4:175 5:123 6:204 #
-0.15154818751543408517079569719499 1:30 2:43 3:930 4:96 5:87 6:151 #
-1.9293705808646179900023298614542 1:28 2:29 3:584 4:226 5:147 6:205 #
1.5548449897827845145314995534136 1:50 2:51 3:1910 4:196 5:118 6:174 #
0.64343818198699409549590200185776 1:48 2:53 3:1880 4:114 5:101 6:168 #
-0.67678551206125803219038061797619 1:40 2:47 3:1364 4:145 5:115 6:189 #
-0.4251308261454269654677773360163 1:26 2:27 3:502 4:138 5:106 6:209 #
3.6772576652753450332511420128867 1:32 2:41 3:944 4:150 5:104 6:177 #
2.4136817995412194193249888485298 1:38 2:43 3:1198 4:120 5:105 6:178 #
2.1265824620216644547099349438213 1:40 2:47 3:1364 4:117 5:98 6:171 #
5 1:36 2:39 3:1020 4:130 5:99 6:188 #
-0.2123730951431319069477865468798 1:32 2:35 3:812 4:143 5:111 6:209 #
-1.3563843019199026684873388148844 1:30 2:31 3:678 4:137 5:105 6:205 #
1.9671220247773657519019252504222 1:34 2:47 3:1170 4:146 5:111 6:201 #
0.57032124452004495651635807007551 1:48 2:59 3:2084 4:129 5:118 6:187 #
-3.5285634469774436183797661215067 1:44 2:53 3:1708 4:209 5:204 6:226 #
-1.4901180508665543555935073527507 1:32 2:45 3:1064 4:41 5:29 6:129 #
-0.99618141582686803303658962249756 1:36 2:39 3:1020 4:178 5:143 6:222 #
-1.2385695308787063595445943064988 1:30 2:33 3:706 4:114 5:87 6:175 #
-3.073688975835011660819873213768 1:30 2:35 3:758 4:202 5:128 6:183 #
0.038531049754674029372836230322719 1:56 2:61 3:2610 4:131 5:114 6:183 #
0.6353075684238334019937610719353 1:54 2:59 3:2366 4:115 5:101 6:182 #
0.16774519180637526005739346146584 1:40 2:47 3:1372 4:142 5:114 6:207 #
0.84555704057282810026663355529308 1:44 2:47 3:1528 4:111 5:97 6:186 #
-1.2639830791011945620994083583355 1:42 2:47 3:1450 4:105 5:80 6:171 #
-0.78916333079317269039165694266558 1:30 2:43 3:930 4:243 5:215 6:232 #
-0.33668832521904429322390228662698 1:52 2:59 3:2280 4:73 5:83 6:155 #
-1.3682098327021274819514928822173 1:34 2:35 3:866 4:102 5:84 6:167 #
-1.8927596734216081131307873874903 1:34 2:41 3:1018 4:106 5:84 6:179 #
-1.0110529204553095894425496226177 1:52 2:57 3:2192 4:135 5:99 6:188 #
0.28687811628409776165682387727429 1:42 2:45 3:1398 4:129 5:104 6:181 #
-1.592546604838503299106378108263 1:44 2:51 3:1644 4:69 5:80 6:150 #
0.42009140600032424117671325802803 1:46 2:51 3:1738 4:82 5:75 6:134 #
0.34415122273719567225214177597081 1:38 2:45 3:1250 4:86 5:79 6:140 #
-1.275593603377987994562658968789 1:36 2:41 3:1076 4:92 5:87 6:177 #
4.4432198704463985450274776667356 1:34 2:41 3:1018 4:117 5:94 6:179 #
-1.419261828122046154021518304944 1:40 2:49 3:1436 4:149 5:99 6:171 #
5 1:38 2:45 3:1250 4:97 5:86 6:160 #
-0.10134385862912154152581933885813 1:54 2:61 3:2442 4:76 5:84 6:145 #
0.14769359767998935240029823035002 1:32 2:41 3:944 4:100 5:91 6:156 #
-0.59903876067894423762538735900307 1:44 2:53 3:1848 4:51 5:48 6:128 #
0.040679037390478178792818653164431 1:30 2:43 3:946 4:73 5:69 6:125 #
-3.8738917478598295929259620606899 1:32 2:41 3:944 4:115 5:97 6:171 #
-0.31234568203660861840376128384378 1:69 2:81 3:4235 4:71 5:77 6:145 #
-0.9079081021478438984217973484192 1:42 2:47 3:1450 4:55 5:74 6:126 #
5 1:34 2:43 3:1054 4:108 5:89 6:175 #
1.2924866275626669676057645119727 1:38 2:45 3:1250 4:100 5:91 6:182 #
1.1997068803742307885329410055419 1:28 2:39 3:800 4:143 5:110 6:203 #
-0.0023198278694707141767139546573162 1:26 2:29 3:534 4:48 5:59 6:122 #
-3.0072805296003402020232897484675 1:40 2:47 3:1372 4:132 5:94 6:183 #
-0.29813596305747580572642618790269 1:32 2:37 3:856 4:73 5:91 6:139 #
-1.3098970689285951429781107435701 1:54 2:61 3:2450 4:52 5:52 6:131 #
4.6263439917058484240897087147459 1:38 2:45 3:1250 4:81 5:71 6:158 #
-0.39462725566814427224926475901157 1:32 2:35 3:812 4:136 5:97 6:202 #
0.62546739563106257264735177159309 1:50 2:53 3:1970 4:120 5:88 6:169 #
-0.3457227195142422715434804558754 1:46 2:59 3:2102 4:81 5:96 6:144 #
-0.10726903529533160508435685187578 1:36 2:41 3:1076 4:97 5:104 6:159 #
-1.0971616554997254411318863276392 1:38 2:43 3:1198 4:91 5:73 6:171 #
0.94265331414695963108130172258825 1:90 2:107 3:7214 4:85 5:82 6:139 #
0.17020728527843687061249511316419 1:42 2:45 3:1398 4:85 5:69 6:135 #
0.79698975288886231282958760857582 1:42 2:45 3:1398 4:87 5:85 6:147 #
5 1:34 2:37 3:922 4:70 5:69 6:173 #
-1.1450390613527039462837819883134 1:58 2:65 3:2810 4:84 5:97 6:150 #
-3.2850647777641484026389662176371 1:32 2:41 3:944 4:108 5:92 6:180 #
-1.1370710847157168288390494126361 1:36 2:41 3:1068 4:92 5:87 6:177 #
-1.2070425312498684888851130381227 1:40 2:43 3:1260 4:124 5:94 6:177 #
0.05688807522846417441542143933475 1:44 2:47 3:1528 4:73 5:70 6:124 #
3.8706397918872426089365035295486 1:34 2:41 3:1018 4:102 5:86 6:180 #
1.089865793335206056724473455688 1:28 2:39 3:800 4:138 5:105 6:191 #
-1.4387944429556824843530193902552 1:42 2:49 3:1510 4:130 5:93 6:184 #
-0.375537928152913980106575309037 1:30 2:43 3:930 4:96 5:108 6:161 #
-0.5816687207311659335573494900018 1:58 2:69 3:2970 4:111 5:120 6:176 #
1.0323161562599025842246192041785 1:32 2:37 3:856 4:41 5:47 6:140 #
-1.3114026852783702281612931983545 1:64 2:71 3:3396 4:68 5:78 6:138 #
-1.0950931784009743097385580767877 1:42 2:45 3:1398 4:233 5:159 6:209 #
-0.011062133484369796043722544709453 1:24 2:35 3:620 4:84 5:63 6:159 #
0.2301083062348823204956715926528 1:38 2:43 3:1198 4:54 5:71 6:153 #
1.6082170912980469079656131725642 1:42 2:51 3:1570 4:107 5:92 6:173 #
0.68482812155954064792240387760103 1:88 2:101 3:6692 4:83 5:84 6:155 #
0.3050193406114090066694188863039 1:40 2:41 3:1216 4:98 5:90 6:157 #
-1.3707815778746521573339123278856 1:28 2:29 3:584 4:103 5:83 6:159 #
0.74611093529573291327494644065155 1:92 2:101 3:7000 4:95 5:89 6:165 #
-0.12329451372625044314190745353699 1:28 2:33 3:656 4:128 5:100 6:182 #
-0.04625343009058724419446662068367 1:30 2:35 3:758 4:102 5:77 6:160 #
1.887497938089982341125505627133 1:50 2:61 3:2270 4:202 5:162 6:213 #
0.16441221213607731810313339337881 1:56 2:59 3:2460 4:120 5:103 6:172 #
2.1836875847727204025261471542763 1:44 2:47 3:1528 4:86 5:75 6:136 #
-0.42166571303528144198935478925705 1:26 2:27 3:502 4:90 5:71 6:154 #
-3.1351747663273021871077617106494 1:28 2:33 3:664 4:120 5:105 6:180 #
-3.293124306763381525797740323469 1:44 2:45 3:1472 4:137 5:96 6:204 #
-0.15501989977497032668907195329666 1:36 2:41 3:1068 4:55 5:74 6:126 #
-1.8927835250862123928072833223268 1:48 2:59 3:2084 4:43 5:41 6:120 #
-1.8299583618305632626288570463657 1:40 2:43 3:1260 4:131 5:98 6:187 #
0.94110561348935561909456737339497 1:40 2:47 3:1364 4:163 5:139 6:213 #
-0.0040420692177924877341865794733167 1:46 2:53 3:1790 4:97 5:71 6:152 #
-2.8167828431334513972217337141046 1:60 2:63 3:2828 4:50 5:69 6:113 #
0.059222257119651899870405031833798 1:40 2:45 3:1324 4:94 5:72 6:163 #
0.25318619322392521553410915657878 1:40 2:49 3:1436 4:90 5:80 6:147 #
-0.70951788012737715405364724574611 1:58 2:65 3:2794 4:66 5:63 6:144 #
4.3589978913337006360961822792888 1:34 2:39 3:966 4:87 5:71 6:139 #
-2.4627661487875229795463383197784 1:48 2:49 3:1744 4:118 5:98 6:184 #
-0.015859830302616728658904321491718 1:28 2:31 3:624 4:143 5:110 6:209 #
-0.23121777254166886450548190623522 1:34 2:45 3:1222 4:24 5:35 6:100 #
0.64228423186153094093242543749511 1:28 2:29 3:584 4:36 5:52 6:173 #
0.24532975985671567897838940552901 1:36 2:37 3:972 4:80 5:64 6:129 #
1.4581406967837964305800824149628 1:36 2:37 3:972 4:91 5:92 6:151 #
-4.4323964285085928338503435952589 1:43 2:73 3:2503 4:109 5:120 6:168 #
0.55151727245029746882210019975901 1:36 2:41 3:1068 4:77 5:72 6:129 #
0.42760391718122026105675104190595 1:40 2:43 3:1260 4:163 5:118 6:186 #
0.48550042496195544572401558980346 1:46 2:53 3:1790 4:128 5:108 6:189 #
0.31316944036015570418385323137045 1:54 2:57 3:2298 4:159 5:134 6:214 #
-0.052849538638233842235969461853529 1:20 2:29 3:420 4:134 5:117 6:209 #
-0.87273532247641405490412580547854 1:24 2:35 3:620 4:147 5:97 6:168 #
0.1358007507472649422197719104588 1:52 2:59 3:2288 4:109 5:88 6:171 #
-0.72344909820741731820703535049688 1:32 2:37 3:856 4:248 5:172 6:213 #
0.076087495602450871956534683704376 1:54 2:59 3:2366 4:147 5:119 6:206 #
1.0583344478418155176768777891994 1:50 2:57 3:2102 4:75 5:66 6:165 #
0.14366258470110215839099510048982 1:34 2:47 3:1170 4:134 5:105 6:186 #
0.034801955918339899653801694512367 1:48 2:59 3:2084 4:129 5:118 6:187 #
-5 1:30 2:35 3:758 4:45 5:25 6:151 #
-1.2437701865246220123140119540039 1:52 2:59 3:2288 4:43 5:63 6:107 #
-0.40157270505579234498583218737622 1:28 2:31 3:624 4:76 5:62 6:155 #
0.55920359508900441269929615373258 1:46 2:51 3:1738 4:180 5:154 6:218 #
-0.088544478842933926898695062845945 1:28 2:39 3:788 4:37 5:20 6:125 #
-2.0129656594708897898726718267426 1:44 2:47 3:1528 4:32 5:27 6:117 #
4.8207600554938485615252830029931 1:48 2:53 3:1880 4:118 5:98 6:168 #
-0.42351009584035637089982628822327 1:38 2:47 3:1350 4:89 5:92 6:158 #
-0.45338352137912213413173390108568 1:16 2:27 3:312 4:151 5:89 6:161 #
1.1481462380591078709102248467389 1:42 2:49 3:1518 4:71 5:57 6:154 #
-0.012039609397902495402377098798752 1:36 2:37 3:972 4:96 5:89 6:151 #
0.12202046309806746648973785340786 1:46 2:53 3:1790 4:108 5:104 6:180 #
-0.54043451303769785010189252716373 1:26 2:27 3:502 4:138 5:106 6:209 #
-0.318309604463304141042101491621 1:50 2:55 3:2038 4:62 5:50 6:140 #
-1.3793362748385935567796423129039 1:32 2:45 3:1064 4:247 5:183 6:217 #
0.055042895070721797878832148853689 1:54 2:63 3:2542 4:122 5:105 6:178 #
-0.028116461380050417062648193677887 1:42 2:43 3:1330 4:141 5:106 6:200 #
-0.0053841398090526126907207071781158 1:28 2:33 3:664 4:202 5:118 6:166 #
-0.68392827779397724619059317774372 1:47 2:81 3:3029 4:106 5:117 6:165 #
-1.3426658289156421233201399445534 1:38 2:45 3:1250 4:99 5:76 6:151 #
0.074455267490041165956426993943751 1:34 2:35 3:866 4:136 5:98 6:187 #
-0.00051882035696593220563954673707485 1:40 2:41 3:1216 4:133 5:100 6:210 #
0.00077875756587597599889249977422878 1:32 2:33 3:764 4:148 5:110 6:204 #
-0.0024225757053019589259967858652089 1:28 2:31 3:624 4:131 5:98 6:209 #
