SVM-light Version V6.02
0 # kernel type
3 # kernel parameter -d 
1 # kernel parameter -g 
1 # kernel parameter -s 
1 # kernel parameter -r 
empty# kernel parameter -u 
6 # highest feature index 
1029 # number of training documents 
157 # number of support vectors plus 1 
10.102425 # threshold b, each following line is a SV (starting with alpha*y)
-0.22834433797672915034127072431147 1:86 2:101 3:6506 4:103 5:99 6:159 #
-1 1:42 2:45 3:1398 4:89 5:87 6:146 #
0.88231203896050036661335980170406 1:46 2:47 3:1606 4:67 5:54 6:143 #
1 1:66 2:71 3:3514 4:98 5:88 6:153 #
-1 1:36 2:37 3:972 4:93 5:94 6:153 #
1 1:52 2:55 3:2140 4:67 5:56 6:144 #
-0.62851690054487363568114233203232 1:46 2:57 3:1934 4:80 5:67 6:134 #
-0.48947259188737612944919419533107 1:66 2:83 3:4078 4:85 5:77 6:144 #
-0.3662714019500303841425647988217 1:86 2:101 3:6506 4:103 5:99 6:159 #
0.23684854492290186023240039503435 1:46 2:47 3:1606 4:67 5:54 6:143 #
-1 1:84 2:91 3:5748 4:93 5:85 6:144 #
0.46657127878552123734223755491257 1:84 2:101 3:6368 4:101 5:96 6:153 #
0.76589228710230805585723601325299 1:48 2:55 3:1952 4:88 5:84 6:140 #
-0.46453537197760397248202934861183 1:52 2:55 3:2140 4:67 5:56 6:144 #
0.1315563504775208447661327681999 1:40 2:47 3:1364 4:90 5:87 6:143 #
-1 1:52 2:55 3:2140 4:67 5:56 6:144 #
-1 1:52 2:55 3:2140 4:67 5:56 6:144 #
-0.31009592004286057331796655489597 1:46 2:61 3:2082 4:75 5:75 6:134 #
0.74888302971535836149996612221003 1:52 2:55 3:2140 4:67 5:56 6:144 #
0.23892760231299492446055410255212 1:28 2:33 3:656 4:88 5:84 6:139 #
0.16590377881241025193048699293286 1:56 2:67 3:2784 4:73 5:71 6:154 #
-1 1:38 2:43 3:1190 4:90 5:90 6:148 #
0.9907728121191974324233342485968 1:54 2:59 3:2366 4:42 5:61 6:106 #
-1 1:48 2:51 3:1824 4:83 5:80 6:141 #
-1 1:74 2:89 3:4942 4:93 5:86 6:145 #
0.0099864335637356305142020573839545 1:60 2:63 3:2828 4:50 5:69 6:113 #
-0.61946164862751729174306092318147 1:46 2:47 3:1606 4:67 5:54 6:143 #
-1 1:46 2:61 3:2082 4:75 5:75 6:134 #
1 1:48 2:55 3:1952 4:78 5:63 6:132 #
1 1:92 2:99 3:6896 4:90 5:85 6:142 #
0.59725855473831657160843633391778 1:46 2:47 3:1606 4:67 5:54 6:143 #
0.689372104984092182178301300155 1:72 2:89 3:4780 4:109 5:103 6:162 #
-0.68980347992111035182460909709334 1:80 2:97 3:5792 4:91 5:86 6:144 #
-0.18852356006353188089263994697831 1:46 2:61 3:2082 4:75 5:75 6:134 #
-1 1:36 2:37 3:972 4:93 5:94 6:153 #
0.86350073002643012998191807128023 1:24 2:35 3:620 4:83 5:68 6:142 #
-1 1:46 2:57 3:1934 4:80 5:67 6:134 #
-1 1:50 2:53 3:1970 4:81 5:78 6:139 #
1 1:50 2:57 3:2102 4:86 5:80 6:138 #
0.092468925336445129126161646127002 1:32 2:37 3:856 4:47 5:55 6:145 #
-0.12886312357469720257796552687068 1:86 2:101 3:6506 4:103 5:99 6:159 #
0.93611801027498808824844900300377 1:30 2:35 3:758 4:93 5:96 6:154 #
-1 1:52 2:65 3:2496 4:81 5:68 6:134 #
-0.50301998603990005776154248451348 1:82 2:99 3:6110 4:102 5:97 6:159 #
-1 1:42 2:45 3:1398 4:89 5:87 6:146 #
1 1:50 2:57 3:2102 4:86 5:80 6:138 #
0.83503933391630980054287647362798 1:52 2:55 3:2140 4:67 5:56 6:144 #
-1 1:28 2:33 3:656 4:80 5:68 6:134 #
0.78933238054468546351927216164768 1:78 2:91 3:5318 4:109 5:103 6:162 #
0.3111284483075972273624643094081 1:40 2:53 3:1572 4:72 5:72 6:133 #
1 1:34 2:39 3:966 4:88 5:84 6:139 #
0.27236041415847012103768065571785 1:52 2:55 3:2140 4:44 5:64 6:109 #
0.8919530703515192726626992225647 1:92 2:105 3:7396 4:87 5:83 6:140 #
1 1:52 2:61 3:2344 4:105 5:94 6:164 #
-1 1:46 2:47 3:1606 4:67 5:54 6:143 #
-1 1:66 2:83 3:4078 4:85 5:77 6:144 #
0.0005733676020529543393422500230372 1:60 2:63 3:2828 4:50 5:69 6:113 #
-1 1:46 2:47 3:1606 4:42 5:62 6:107 #
-1 1:42 2:45 3:1398 4:89 5:87 6:146 #
1 1:48 2:55 3:1952 4:78 5:63 6:132 #
1 1:24 2:35 3:620 4:83 5:68 6:142 #
0.022496848532716995361369072270463 1:46 2:47 3:1606 4:67 5:54 6:143 #
0.023883108098977610944668725778683 1:92 2:105 3:7396 4:87 5:83 6:140 #
-1 1:86 2:101 3:6506 4:103 5:99 6:159 #
-1 1:46 2:57 3:1934 4:80 5:67 6:134 #
-0.065368978554433077032825849528308 1:86 2:101 3:6506 4:103 5:99 6:159 #
-0.63602884362271938645250202171155 1:46 2:47 3:1606 4:67 5:54 6:143 #
0.22105855401186147446424001827836 1:30 2:35 3:758 4:93 5:96 6:154 #
0.3747826649539600651905857375823 1:86 2:97 3:6270 4:92 5:86 6:144 #
-0.97239835791158379940668510243995 1:50 2:53 3:1970 4:81 5:78 6:139 #
0.72888119952828489545026968698949 1:40 2:53 3:1572 4:72 5:72 6:133 #
-0.28471736740677755506112589500844 1:46 2:57 3:1934 4:80 5:67 6:134 #
-0.51370825491515148542021051980555 1:52 2:55 3:2140 4:67 5:56 6:144 #
-0.99998281448412240646206328165135 1:46 2:47 3:1606 4:67 5:54 6:143 #
-0.12843916010993272625029248956707 1:46 2:57 3:1934 4:80 5:67 6:134 #
-1 1:56 2:59 3:2460 4:78 5:75 6:136 #
-0.15447035384309870664765185210854 1:46 2:47 3:1606 4:67 5:54 6:143 #
-0.2790485574406460500540561042726 1:46 2:47 3:1606 4:67 5:54 6:143 #
-0.064767419782214119550189934670925 1:46 2:47 3:1606 4:67 5:54 6:143 #
-1 1:46 2:61 3:2082 4:75 5:75 6:134 #
1 1:40 2:53 3:1572 4:72 5:72 6:133 #
0.44459263583934216512716375291348 1:92 2:99 3:6896 4:90 5:85 6:142 #
-0.29064443637693770927654668412288 1:46 2:47 3:1606 4:67 5:54 6:143 #
0.9984059224012824529381759930402 1:48 2:55 3:1952 4:88 5:84 6:140 #
1 1:52 2:55 3:2140 4:67 5:56 6:144 #
0.26580108369156363323781988583505 1:40 2:53 3:1572 4:72 5:72 6:133 #
-0.27322137357592524153915292117745 1:46 2:57 3:1934 4:80 5:67 6:134 #
0.059378685216398219282041281985585 1:97 2:107 3:8051 4:86 5:82 6:139 #
0.84869029100709525437196134589612 1:46 2:47 3:1606 4:67 5:54 6:143 #
0.75733021247805254461127333343029 1:60 2:63 3:2828 4:50 5:69 6:113 #
0.95693511124251318111788577880361 1:54 2:59 3:2366 4:42 5:61 6:106 #
-0.039731939785431436007456795778126 1:50 2:55 3:2038 4:77 5:62 6:131 #
0.17902303740108560514698865517857 1:92 2:105 3:7396 4:87 5:83 6:140 #
0.13366169259161431170923606259748 1:46 2:47 3:1606 4:67 5:54 6:143 #
0.1604446773158025862926479021553 1:72 2:89 3:4780 4:109 5:103 6:162 #
0.79378168671214432983163078461075 1:40 2:53 3:1572 4:72 5:72 6:133 #
-0.61163079939509268356800930632744 1:46 2:47 3:1606 4:67 5:54 6:143 #
-1 1:86 2:101 3:6506 4:103 5:99 6:159 #
-0.94590038817497723577787382964743 1:86 2:101 3:6506 4:103 5:99 6:159 #
0.90335941425760779566189739853144 1:64 2:71 3:3492 4:107 5:101 6:171 #
0.20036734099661218655441530245298 1:46 2:47 3:1606 4:67 5:54 6:143 #
1 1:48 2:55 3:1952 4:78 5:63 6:132 #
-0.025573054598545752469362923875451 1:86 2:101 3:6506 4:103 5:99 6:159 #
0.99026889262724537843496364075691 1:38 2:47 3:1318 4:84 5:69 6:147 #
0.33649608642785366896532650571316 1:78 2:91 3:5318 4:109 5:103 6:162 #
0.53668968372524217258501266769599 1:40 2:53 3:1572 4:72 5:72 6:133 #
-0.78044074433751120523083955049515 1:50 2:55 3:2038 4:87 5:81 6:139 #
0.060353548159112382909263772035047 1:72 2:89 3:4780 4:109 5:103 6:162 #
0.0011431724637347429052169900387526 1:60 2:63 3:2828 4:50 5:69 6:113 #
0.15198119700478074367566705404897 1:32 2:37 3:856 4:47 5:55 6:145 #
0.26068307178242861033012900406902 1:46 2:47 3:1606 4:67 5:54 6:143 #
0.93032083891931804942032613325864 1:92 2:99 3:6896 4:90 5:85 6:142 #
-1 1:46 2:61 3:2082 4:75 5:75 6:134 #
-1 1:46 2:47 3:1606 4:42 5:62 6:107 #
-0.97964440727892165838852633896749 1:82 2:99 3:6110 4:102 5:97 6:159 #
-0.30812782475829597617078547955316 1:46 2:47 3:1606 4:67 5:54 6:143 #
0.95283026085310496000602142885327 1:78 2:91 3:5318 4:109 5:103 6:162 #
0.81935706399703989166738438143511 1:64 2:75 3:3572 4:89 5:86 6:161 #
-0.29698080857115866093565159644641 1:52 2:55 3:2140 4:67 5:56 6:144 #
0.79594692622783558277888005250134 1:46 2:47 3:1606 4:67 5:54 6:143 #
0.15367656319536671105652203550562 1:44 2:49 3:1584 4:86 5:81 6:138 #
0.76639118849304566083446843549609 1:78 2:91 3:5318 4:109 5:103 6:162 #
-0.34440890946931412841536257474218 1:86 2:101 3:6506 4:103 5:99 6:159 #
0.34516473757885446360660353093408 1:72 2:89 3:4780 4:109 5:103 6:162 #
0.34231451141499746881891041994095 1:52 2:65 3:2496 4:80 5:76 6:156 #
-1 1:82 2:99 3:6110 4:102 5:97 6:159 #
-0.99990246574465047046942345332354 1:46 2:47 3:1606 4:67 5:54 6:143 #
0.28451389952557804008392849937081 1:52 2:63 3:2432 4:101 5:93 6:166 #
0.44724301119443765628602704964578 1:46 2:47 3:1606 4:67 5:54 6:143 #
0.018844488728813502120829070918262 1:72 2:89 3:4804 4:117 5:117 6:179 #
-0.53296734313918658898501234943978 1:86 2:101 3:6506 4:103 5:99 6:159 #
0.0030388093996407405938953161239624 1:40 2:53 3:1572 4:72 5:72 6:133 #
1 1:66 2:81 3:3994 4:103 5:95 6:156 #
-0.088679932463857247260108351838426 1:46 2:47 3:1606 4:67 5:54 6:143 #
0.53081834016949613896940718404949 1:38 2:47 3:1318 4:84 5:69 6:147 #
-0.8906748127472756682010412987438 1:46 2:61 3:2082 4:75 5:75 6:134 #
0.66980574774783341318595830671256 1:60 2:63 3:2828 4:50 5:69 6:113 #
0.031391815120400679006706923246384 1:92 2:99 3:6896 4:90 5:85 6:142 #
0.43144973462628688487541239737766 1:66 2:81 3:3994 4:103 5:95 6:156 #
-0.65304037376769430434109153793543 1:36 2:41 3:1068 4:87 5:77 6:143 #
0.17391763838428708766059571644291 1:54 2:59 3:2366 4:42 5:61 6:106 #
0.29250727979149360180599614977837 1:84 2:101 3:6368 4:101 5:96 6:153 #
0.15851898854867352284259141015355 1:54 2:59 3:2366 4:42 5:61 6:106 #
-0.27479747478309946018271148204803 1:86 2:101 3:6506 4:103 5:99 6:159 #
0.15694098812074169790875544094888 1:72 2:83 3:4480 4:104 5:102 6:171 #
0.010458475418474222351505886763334 1:60 2:63 3:2828 4:50 5:69 6:113 #
0.38626080200436518907736171968281 1:38 2:47 3:1318 4:84 5:69 6:147 #
-0.0092621532474552736857731360942125 1:58 2:63 3:2726 4:87 5:80 6:139 #
-0.012325720074993995467593776993454 1:46 2:47 3:1606 4:67 5:54 6:143 #
0.04117452851484415532468119636178 1:54 2:59 3:2366 4:42 5:61 6:106 #
0.00015569280338390001361403847113252 1:46 2:47 3:1606 4:42 5:62 6:107 #
-0.0017965925328624621215567458420992 1:97 2:107 3:8051 4:86 5:82 6:139 #
5.6943586014698843733583544235444e-05 1:28 2:33 3:656 4:42 5:61 6:107 #
0.0048564964262131568584202057081711 1:97 2:107 3:8051 4:86 5:82 6:139 #
0.00038469312744267422296551295346489 1:28 2:29 3:584 4:144 5:139 6:186 #
2.0610144515695316691505922790384e-07 1:34 2:39 3:966 4:41 5:61 6:106 #
