SVM-light Version V6.02
0 # kernel type
3 # kernel parameter -d 
1 # kernel parameter -g 
1 # kernel parameter -s 
1 # kernel parameter -r 
empty# kernel parameter -u 
6 # highest feature index 
325 # number of training documents 
224 # number of support vectors plus 1 
5.6768489 # threshold b, each following line is a SV (starting with alpha*y)
-0.0010000000000000000208166817117217 1:30 2:31 3:678 4:131 5:97 6:184 #
0.0010000000000000000208166817117217 1:42 2:49 3:1518 4:71 5:57 6:154 #
-0.0010000000000000000208166817117217 1:86 2:105 3:6746 4:97 5:94 6:160 #
-0.0010000000000000000208166817117217 1:32 2:41 3:944 4:115 5:97 6:171 #
0.0010000000000000000208166817117217 1:32 2:37 3:856 4:41 5:47 6:140 #
-0.0010000000000000000208166817117217 1:42 2:45 3:1398 4:233 5:159 6:209 #
-0.0007561499798086384260473180596307 1:28 2:31 3:624 4:127 5:97 6:187 #
-0.0010000000000000000208166817117217 1:28 2:31 3:624 4:131 5:98 6:209 #
-0.0010000000000000000208166817117217 1:46 2:55 3:1866 4:70 5:64 6:125 #
-0.0010000000000000000208166817117217 1:30 2:43 3:930 4:96 5:87 6:151 #
-0.0010000000000000000208166817117217 1:47 2:81 3:3029 4:106 5:117 6:165 #
0.0010000000000000000208166817117217 1:32 2:41 3:952 4:147 5:119 6:197 #
0.0010000000000000000208166817117217 1:40 2:45 3:1324 4:94 5:72 6:163 #
-0.0010000000000000000208166817117217 1:36 2:41 3:1068 4:92 5:87 6:177 #
-0.0010000000000000000208166817117217 1:32 2:37 3:856 4:250 5:168 6:212 #
0.0010000000000000000208166817117217 1:38 2:43 3:1198 4:120 5:105 6:178 #
0.0010000000000000000208166817117217 1:48 2:53 3:1880 4:114 5:101 6:168 #
-0.0010000000000000000208166817117217 1:30 2:35 3:758 4:102 5:77 6:160 #
-0.0010000000000000000208166817117217 1:30 2:31 3:678 4:137 5:105 6:205 #
0.0010000000000000000208166817117217 1:38 2:45 3:1250 4:105 5:84 6:174 #
-0.0010000000000000000208166817117217 1:78 2:93 3:5450 4:81 5:91 6:147 #
0.0010000000000000000208166817117217 1:36 2:37 3:972 4:96 5:92 6:154 #
0.0010000000000000000208166817117217 1:44 2:47 3:1528 4:73 5:70 6:124 #
-0.0010000000000000000208166817117217 1:58 2:69 3:2970 4:111 5:120 6:176 #
-0.0010000000000000000208166817117217 1:44 2:45 3:1472 4:137 5:96 6:204 #
0.0010000000000000000208166817117217 1:34 2:47 3:1178 4:91 5:88 6:144 #
-0.0010000000000000000208166817117217 1:24 2:25 3:416 4:33 5:10 6:135 #
-0.0010000000000000000208166817117217 1:56 2:63 3:2620 4:163 5:170 6:224 #
-0.0010000000000000000208166817117217 1:38 2:43 3:1198 4:91 5:73 6:171 #
-0.0010000000000000000208166817117217 1:44 2:49 3:1584 4:79 5:93 6:161 #
-0.0010000000000000000208166817117217 1:32 2:35 3:812 4:143 5:111 6:209 #
-0.0010000000000000000208166817117217 1:48 2:49 3:1744 4:118 5:98 6:184 #
-0.0010000000000000000208166817117217 1:44 2:51 3:1652 4:79 5:68 6:145 #
0.0010000000000000000208166817117217 1:36 2:37 3:972 4:91 5:92 6:151 #
0.0010000000000000000208166817117217 1:40 2:41 3:1216 4:98 5:90 6:157 #
0.0010000000000000000208166817117217 1:50 2:51 3:1910 4:81 5:77 6:133 #
0.0010000000000000000208166817117217 1:38 2:43 3:1198 4:54 5:71 6:153 #
0.0010000000000000000208166817117217 1:66 2:81 3:3978 4:230 5:201 6:226 #
0.0010000000000000000208166817117217 1:32 2:39 3:904 4:34 5:43 6:153 #
-0.0010000000000000000208166817117217 1:28 2:29 3:584 4:226 5:147 6:205 #
-0.0010000000000000000208166817117217 1:32 2:35 3:812 4:143 5:118 6:189 #
0.0010000000000000000208166817117217 1:38 2:45 3:1250 4:86 5:79 6:140 #
0.0010000000000000000208166817117217 1:30 2:43 3:946 4:73 5:69 6:125 #
-0.0010000000000000000208166817117217 1:28 2:31 3:624 4:143 5:110 6:209 #
0.0010000000000000000208166817117217 1:34 2:39 3:966 4:87 5:71 6:139 #
-0.0010000000000000000208166817117217 1:30 2:33 3:706 4:114 5:87 6:175 #
-0.0010000000000000000208166817117217 1:38 2:45 3:1250 4:99 5:76 6:151 #
0.0010000000000000000208166817117217 1:28 2:39 3:800 4:143 5:110 6:203 #
0.0010000000000000000208166817117217 1:48 2:57 3:2024 4:90 5:74 6:143 #
-0.0010000000000000000208166817117217 1:60 2:67 3:2988 4:62 5:55 6:139 #
0.0010000000000000000208166817117217 1:28 2:29 3:584 4:36 5:52 6:173 #
0.0010000000000000000208166817117217 1:48 2:59 3:2084 4:129 5:118 6:187 #
-0.0010000000000000000208166817117217 1:48 2:55 3:1952 4:56 5:67 6:127 #
-0.0010000000000000000208166817117217 1:40 2:47 3:1364 4:145 5:115 6:189 #
0.0010000000000000000208166817117217 1:52 2:61 3:2336 4:135 5:118 6:190 #
0.0010000000000000000208166817117217 1:34 2:43 3:1054 4:108 5:89 6:175 #
-0.0010000000000000000208166817117217 1:50 2:63 3:2330 4:209 5:216 6:237 #
0.0010000000000000000208166817117217 1:54 2:59 3:2366 4:100 5:88 6:158 #
-0.0010000000000000000208166817117217 1:30 2:35 3:758 4:202 5:128 6:183 #
-0.0010000000000000000208166817117217 1:24 2:35 3:620 4:84 5:63 6:159 #
-0.0010000000000000000208166817117217 1:34 2:35 3:866 4:102 5:84 6:167 #
0.0010000000000000000208166817117217 1:32 2:33 3:764 4:148 5:110 6:204 #
0.0010000000000000000208166817117217 1:44 2:47 3:1528 4:111 5:97 6:186 #
0.0010000000000000000208166817117217 1:52 2:61 3:2336 4:158 5:141 6:216 #
0.0010000000000000000208166817117217 1:58 2:65 3:2794 4:58 5:59 6:138 #
0.0010000000000000000208166817117217 1:38 2:45 3:1250 4:81 5:71 6:158 #
0.0010000000000000000208166817117217 1:54 2:63 3:2542 4:122 5:105 6:178 #
0.0010000000000000000208166817117217 1:48 2:55 3:1936 4:85 5:80 6:138 #
-0.0010000000000000000208166817117217 1:32 2:35 3:812 4:136 5:97 6:202 #
0.0010000000000000000208166817117217 1:36 2:41 3:1068 4:77 5:72 6:129 #
0.0010000000000000000208166817117217 1:36 2:37 3:972 4:80 5:64 6:129 #
0.0010000000000000000208166817117217 1:34 2:37 3:922 4:70 5:69 6:173 #
0.0010000000000000000208166817117217 1:38 2:45 3:1250 4:97 5:86 6:160 #
-0.0010000000000000000208166817117217 1:28 2:33 3:664 4:202 5:118 6:166 #
-0.0010000000000000000208166817117217 1:60 2:63 3:2828 4:50 5:69 6:113 #
-0.0010000000000000000208166817117217 1:42 2:47 3:1450 4:137 5:106 6:201 #
-0.0010000000000000000208166817117217 1:49 2:57 3:2095 4:54 5:49 6:138 #
0.0010000000000000000208166817117217 1:42 2:51 3:1570 4:107 5:92 6:173 #
-0.0010000000000000000208166817117217 1:28 2:29 3:584 4:86 5:60 6:145 #
-0.0010000000000000000208166817117217 1:24 2:33 3:580 4:154 5:92 6:163 #
0.0010000000000000000208166817117217 1:66 2:79 3:3878 4:144 5:133 6:188 #
0.0010000000000000000208166817117217 1:34 2:47 3:1170 4:134 5:105 6:186 #
-0.0010000000000000000208166817117217 1:32 2:37 3:856 4:248 5:172 6:213 #
0.0010000000000000000208166817117217 1:52 2:55 3:2140 4:140 5:127 6:195 #
0.00062865361647297213036622576254331 1:54 2:59 3:2366 4:147 5:119 6:206 #
-0.0010000000000000000208166817117217 1:48 2:59 3:2084 4:43 5:41 6:120 #
0.0010000000000000000208166817117217 1:52 2:59 3:2288 4:109 5:88 6:171 #
-0.0010000000000000000208166817117217 1:42 2:47 3:1450 4:55 5:74 6:126 #
0.0010000000000000000208166817117217 1:48 2:59 3:2092 4:106 5:91 6:161 #
-0.0010000000000000000208166817117217 1:54 2:61 3:2450 4:52 5:52 6:131 #
0.00025337177249790224535172522557502 1:70 2:83 3:4338 4:151 5:139 6:194 #
0.0010000000000000000208166817117217 1:36 2:39 3:1020 4:130 5:99 6:188 #
0.0010000000000000000208166817117217 1:38 2:45 3:1250 4:100 5:91 6:182 #
-0.0010000000000000000208166817117217 1:44 2:53 3:1708 4:46 5:61 6:108 #
0.0010000000000000000208166817117217 1:50 2:53 3:1970 4:103 5:82 6:161 #
0.0010000000000000000208166817117217 1:46 2:53 3:1790 4:108 5:104 6:180 #
-0.0010000000000000000208166817117217 1:44 2:53 3:1848 4:51 5:48 6:128 #
0.0010000000000000000208166817117217 1:34 2:47 3:1170 4:146 5:111 6:201 #
-0.0010000000000000000208166817117217 1:36 2:37 3:972 4:96 5:89 6:151 #
-0.0010000000000000000208166817117217 1:52 2:57 3:2192 4:135 5:99 6:188 #
0.0010000000000000000208166817117217 1:52 2:61 3:2344 4:141 5:130 6:187 #
-0.0010000000000000000208166817117217 1:28 2:39 3:788 4:37 5:20 6:125 #
0.0010000000000000000208166817117217 1:50 2:61 3:2270 4:202 5:162 6:213 #
-0.0010000000000000000208166817117217 1:28 2:33 3:656 4:128 5:100 6:182 #
-0.0010000000000000000208166817117217 1:52 2:59 3:2288 4:43 5:63 6:107 #
0.0010000000000000000208166817117217 1:48 2:59 3:2084 4:129 5:118 6:187 #
0.00074413235877369998151620311688248 1:89 2:107 3:7197 4:104 5:98 6:159 #
0.0010000000000000000208166817117217 1:46 2:53 3:1790 4:128 5:108 6:189 #
0.0010000000000000000208166817117217 1:44 2:45 3:1472 4:171 5:107 6:170 #
0.0010000000000000000208166817117217 1:32 2:41 3:944 4:100 5:91 6:156 #
0.0010000000000000000208166817117217 1:32 2:45 3:1064 4:86 5:72 6:138 #
0.0010000000000000000208166817117217 1:54 2:57 3:2298 4:159 5:134 6:214 #
0.0010000000000000000208166817117217 1:46 2:47 3:1606 4:150 5:121 6:192 #
-0.0010000000000000000208166817117217 1:38 2:45 3:1250 4:75 5:57 6:149 #
0.0010000000000000000208166817117217 1:42 2:45 3:1398 4:85 5:69 6:135 #
0.0010000000000000000208166817117217 1:34 2:41 3:1018 4:117 5:94 6:179 #
-0.0010000000000000000208166817117217 1:46 2:51 3:1738 4:105 5:109 6:162 #
0.0010000000000000000208166817117217 1:40 2:41 3:1216 4:225 5:153 6:204 #
-0.0010000000000000000208166817117217 1:43 2:73 3:2503 4:109 5:120 6:168 #
-0.0010000000000000000208166817117217 1:46 2:59 3:2102 4:81 5:96 6:144 #
-0.0010000000000000000208166817117217 1:34 2:41 3:1018 4:106 5:84 6:179 #
-0.0010000000000000000208166817117217 1:44 2:47 3:1528 4:32 5:27 6:117 #
-0.0010000000000000000208166817117217 1:66 2:77 3:3790 4:154 5:138 6:207 #
0.0010000000000000000208166817117217 1:50 2:53 3:1970 4:100 5:90 6:157 #
-0.0010000000000000000208166817117217 1:58 2:63 3:2726 4:130 5:111 6:188 #
0.0010000000000000000208166817117217 1:40 2:43 3:1260 4:163 5:118 6:186 #
0.0010000000000000000208166817117217 1:48 2:57 3:2024 4:93 5:74 6:152 #
0.0010000000000000000208166817117217 1:34 2:35 3:866 4:136 5:98 6:187 #
-0.0010000000000000000208166817117217 1:32 2:41 3:944 4:108 5:92 6:180 #
0.0010000000000000000208166817117217 1:32 2:41 3:944 4:150 5:104 6:177 #
-0.0010000000000000000208166817117217 1:44 2:51 3:1644 4:69 5:80 6:150 #
-0.0010000000000000000208166817117217 1:62 2:79 3:3670 4:167 5:172 6:222 #
0.0010000000000000000208166817117217 1:59 2:67 3:3171 4:97 5:87 6:150 #
-0.0010000000000000000208166817117217 1:50 2:55 3:2038 4:62 5:50 6:140 #
-0.0010000000000000000208166817117217 1:40 2:43 3:1260 4:77 5:62 6:152 #
0.0010000000000000000208166817117217 1:48 2:55 3:1952 4:146 5:122 6:196 #
-0.0010000000000000000208166817117217 1:56 2:67 3:2784 4:218 5:224 6:242 #
0.0010000000000000000208166817117217 1:40 2:43 3:1260 4:92 5:90 6:158 #
0.0010000000000000000208166817117217 1:44 2:47 3:1528 4:86 5:75 6:136 #
0.0010000000000000000208166817117217 1:28 2:39 3:788 4:108 5:82 6:171 #
-0.0010000000000000000208166817117217 1:30 2:37 3:790 4:34 5:26 6:118 #
-0.0010000000000000000208166817117217 1:28 2:29 3:584 4:125 5:88 6:190 #
0.0010000000000000000208166817117217 1:28 2:39 3:800 4:138 5:105 6:191 #
0.0010000000000000000208166817117217 1:18 2:27 3:350 4:61 5:57 6:153 #
-0.0010000000000000000208166817117217 1:34 2:45 3:1222 4:24 5:35 6:100 #
-0.0010000000000000000208166817117217 1:42 2:47 3:1450 4:105 5:80 6:171 #
0.0010000000000000000208166817117217 1:54 2:63 3:2510 4:150 5:125 6:199 #
-0.0010000000000000000208166817117217 1:46 2:53 3:1790 4:97 5:71 6:152 #
-0.0010000000000000000208166817117217 1:40 2:49 3:1436 4:149 5:99 6:171 #
0.0010000000000000000208166817117217 1:46 2:51 3:1738 4:180 5:154 6:218 #
0.00060735925688122172159261191737301 1:62 2:69 3:3190 4:73 5:72 6:140 #
-0.0010000000000000000208166817117217 1:40 2:43 3:1260 4:131 5:98 6:187 #
-0.0010000000000000000208166817117217 1:50 2:57 3:2102 4:59 5:56 6:138 #
0.0010000000000000000208166817117217 1:56 2:69 3:2856 4:202 5:167 6:215 #
-0.0010000000000000000208166817117217 1:68 2:71 3:3648 4:181 5:193 6:238 #
-0.0010000000000000000208166817117217 1:64 2:71 3:3396 4:68 5:78 6:138 #
0.0010000000000000000208166817117217 1:34 2:39 3:966 4:105 5:82 6:168 #
-0.0010000000000000000208166817117217 1:48 2:55 3:1952 4:137 5:108 6:201 #
-0.0010000000000000000208166817117217 1:40 2:41 3:1216 4:133 5:100 6:210 #
0.0010000000000000000208166817117217 1:42 2:45 3:1398 4:87 5:85 6:147 #
-0.0010000000000000000208166817117217 1:38 2:43 3:1190 4:44 5:46 6:124 #
0.0010000000000000000208166817117217 1:50 2:53 3:1970 4:120 5:88 6:169 #
-0.0010000000000000000208166817117217 1:44 2:55 3:1788 4:47 5:42 6:117 #
0.0010000000000000000208166817117217 1:30 2:41 3:902 4:45 5:41 6:148 #
-0.00047736702481715584302918164993912 1:36 2:37 3:972 4:243 5:197 6:225 #
-0.0010000000000000000208166817117217 1:24 2:35 3:620 4:147 5:97 6:168 #
0.0010000000000000000208166817117217 1:48 2:57 3:2024 4:106 5:85 6:163 #
0.0010000000000000000208166817117217 1:48 2:59 3:2092 4:133 5:114 6:179 #
-0.0010000000000000000208166817117217 1:58 2:65 3:2794 4:66 5:63 6:144 #
-0.0010000000000000000208166817117217 1:36 2:39 3:1020 4:178 5:143 6:222 #
-0.0010000000000000000208166817117217 1:60 2:71 3:3172 4:184 5:191 6:237 #
0.0010000000000000000208166817117217 1:40 2:47 3:1364 4:163 5:139 6:213 #
0.0010000000000000000208166817117217 1:34 2:41 3:1018 4:102 5:86 6:180 #
0.0010000000000000000208166817117217 1:46 2:51 3:1738 4:82 5:75 6:134 #
-0.0010000000000000000208166817117217 1:32 2:45 3:1064 4:247 5:183 6:217 #
0.0010000000000000000208166817117217 1:46 2:49 3:1654 4:144 5:117 6:209 #
0.0010000000000000000208166817117217 1:56 2:57 3:2396 4:88 5:77 6:147 #
-0.0010000000000000000208166817117217 1:42 2:49 3:1510 4:130 5:93 6:184 #
-0.0010000000000000000208166817117217 1:58 2:65 3:2810 4:84 5:97 6:150 #
0.0010000000000000000208166817117217 1:44 2:49 3:1584 4:116 5:101 6:186 #
0.0010000000000000000208166817117217 1:42 2:45 3:1398 4:129 5:104 6:181 #
0.0010000000000000000208166817117217 1:56 2:69 3:2856 4:202 5:167 6:215 #
0.0010000000000000000208166817117217 1:42 2:49 3:1518 4:119 5:107 6:178 #
-0.0010000000000000000208166817117217 1:42 2:43 3:1330 4:108 5:85 6:174 #
0.0010000000000000000208166817117217 1:28 2:39 3:788 4:108 5:82 6:171 #
0.0010000000000000000208166817117217 1:44 2:59 3:1916 4:74 5:70 6:136 #
-0.0010000000000000000208166817117217 1:40 2:47 3:1372 4:132 5:94 6:183 #
0.0010000000000000000208166817117217 1:38 2:49 3:1362 4:141 5:126 6:194 #
-0.0010000000000000000208166817117217 1:36 2:41 3:1076 4:92 5:87 6:177 #
-0.0010000000000000000208166817117217 1:32 2:45 3:1064 4:41 5:29 6:129 #
-0.0010000000000000000208166817117217 1:69 2:81 3:4235 4:71 5:77 6:145 #
0.0010000000000000000208166817117217 1:40 2:41 3:1216 4:107 5:87 6:168 #
0.0010000000000000000208166817117217 1:48 2:53 3:1880 4:118 5:98 6:168 #
-0.0010000000000000000208166817117217 1:30 2:35 3:766 4:142 5:101 6:205 #
-0.0010000000000000000208166817117217 1:38 2:47 3:1350 4:89 5:92 6:158 #
0.0010000000000000000208166817117217 1:40 2:47 3:1372 4:142 5:114 6:207 #
0.0010000000000000000208166817117217 1:42 2:45 3:1398 4:99 5:76 6:157 #
0.0010000000000000000208166817117217 1:32 2:37 3:856 4:106 5:80 6:169 #
0.0010000000000000000208166817117217 1:40 2:47 3:1364 4:117 5:98 6:171 #
-0.0010000000000000000208166817117217 1:42 2:43 3:1330 4:141 5:106 6:200 #
-0.0010000000000000000208166817117217 1:40 2:47 3:1372 4:68 5:82 6:136 #
-0.0010000000000000000208166817117217 1:28 2:35 3:704 4:92 5:75 6:164 #
0.0010000000000000000208166817117217 1:56 2:59 3:2460 4:120 5:103 6:172 #
-0.0010000000000000000208166817117217 1:34 2:43 3:1054 4:107 5:88 6:178 #
-0.0010000000000000000208166817117217 1:52 2:59 3:2280 4:73 5:83 6:155 #
-0.0010000000000000000208166817117217 1:36 2:43 3:1132 4:138 5:119 6:191 #
-0.0010000000000000000208166817117217 1:54 2:61 3:2442 4:76 5:84 6:145 #
0.0010000000000000000208166817117217 1:44 2:59 3:1916 4:121 5:107 6:179 #
0.0010000000000000000208166817117217 1:38 2:45 3:1250 4:100 5:91 6:182 #
-0.0010000000000000000208166817117217 1:44 2:45 3:1472 4:107 5:81 6:171 #
-0.0010000000000000000208166817117217 1:40 2:43 3:1260 4:124 5:94 6:177 #
0.0010000000000000000208166817117217 1:40 2:49 3:1436 4:90 5:80 6:147 #
-0.0010000000000000000208166817117217 1:54 2:57 3:2298 4:56 5:51 6:135 #
0.0010000000000000000208166817117217 1:54 2:59 3:2366 4:115 5:101 6:182 #
-0.0010000000000000000208166817117217 1:54 2:63 3:2510 4:175 5:183 6:234 #
-0.0010000000000000000208166817117217 1:52 2:59 3:2280 4:174 5:180 6:225 #
0.0010000000000000000208166817117217 1:50 2:57 3:2102 4:75 5:66 6:165 #
-0.0010000000000000000208166817117217 1:30 2:35 3:758 4:45 5:25 6:151 #
0.0010000000000000000208166817117217 1:56 2:61 3:2610 4:131 5:114 6:183 #
0.0010000000000000000208166817117217 1:56 2:59 3:2460 4:93 5:84 6:153 #
-0.0010000000000000000208166817117217 1:58 2:69 3:2962 4:183 5:195 6:241 #
-0.0010000000000000000208166817117217 1:54 2:57 3:2298 4:201 5:202 6:243 #
0.0010000000000000000208166817117217 1:54 2:69 3:2766 4:80 5:76 6:160 #
